{"type":"LSTM","options":{"inputSize":44,"inputRange":44,"hiddenLayers":[20,20],"outputSize":44,"learningRate":0.01,"decayRate":0.999,"smoothEps":1e-8,"regc":0.000001,"clipval":5,"maxPredictionLength":100,"dataFormatter":{"indexTable":{"J":0,"u":1,"d":2,"g":3,"e":4," ":5,"n":6,"o":7,"t":8,",":9,"h":10,"a":11,"y":12,"m":13,"b":14,"j":15,"f":16,"r":17,"i":18,"w":19,"s":20,"l":21,".":22,"A":23,"c":24,"?":25,"S":26,"I":27,"H":28,"p":29,"Y":30,"v":31,"-":32,"k":33,";":34,"F":35,"G":36,"!":37,"B":38,"E":39,":":40,"N":41,"L":42,"T":43},"characterTable":{"0":"J","1":"u","2":"d","3":"g","4":"e","5":" ","6":"n","7":"o","8":"t","9":",","10":"h","11":"a","12":"y","13":"m","14":"b","15":"j","16":"f","17":"r","18":"i","19":"w","20":"s","21":"l","22":".","23":"A","24":"c","25":"?","26":"S","27":"I","28":"H","29":"p","30":"Y","31":"v","32":"-","33":"k","34":";","35":"F","36":"G","37":"!","38":"B","39":"E","40":":","41":"N","42":"L","43":"T"},"values":["Judge not, that ye may not be judged,","for in what judgment ye judge, ye shall be judged, and in what measure ye measure, it shall be measured to you.","And why dost thou behold the mote that  in thy brothers eye, and the beam that  in thine own eye dost not consider?","or, how wilt thou say to thy brother, Suffer I may cast out the mote from thine eye, and lo, the beam  in thine own eye?","Hypocrite, cast out first the beam out of thine own eye, and then thou shalt see clearly to cast out the mote out of thy brothers eye.","Ye may not give that which is holy to the dogs, nor cast your pearls before the swine, that they may not trample them among their feet, and having turned -- may rend you.","Ask, and it shall be given to you; seek, and ye shall find; knock, and it shall be opened to you;","for every one who is asking doth receive, and he who is seeking doth find, and to him who is knocking it shall be opened.","or what man is of you, of whom, if his son may ask a loaf -- a stone will he present to him?","and if a fish he may ask -- a serpent will he present to him?","if, therefore, ye being evil, have known good gifts to give to your children, how much more shall your Father who  in the heavens give good things to those asking him?","All things, therefore, whatever ye may will that men may be doing to you, so also do to them, for this is the law and the prophets.","Go ye in through the strait gate, because wide  the gate, and broad the way that is leading to the destruction, and many are those going in through it;","how strait  the gate, and compressed the way that is leading to the life, and few are those finding it!","But, take heed of the false prophets, who come unto you in sheeps clothing, and inwardly are ravening wolves.","From their fruits ye shall know them; do men gather from thorns grapes? or from thistles figs?","so every good tree doth yield good fruits, but the bad tree doth yield evil fruits.","A good tree is not able to yield evil fruits, nor a bad tree to yield good fruits.","Every tree not yielding good fruit is cut down and is cast to fire:","therefore from their fruits ye shall know them.","Not every one who is saying to me Lord, lord, shall come into the reign of the heavens; but he who is doing the will of my Father who is in the heavens.","many will say to me in that day, Lord, lord, have we not in thy name prophesied? and in thy name cast out demons? and in thy name done many mighty things?","and then I will acknowledge to them, that -- I never knew you, depart from me ye who are working lawlessness.","Therefore, every one who doth hear of me these words, and doth do them, I will liken him to a wise man who built his house upon the rock;","and the rain did descend, and the streams came, and the winds blew, and they beat on that house, and it fell not, for it had been founded on the rock.","And every one who is hearing of me these words, and is not doing them, shall be likened to a foolish man who built his house upon the sand;","and the rain did descend, and the streams came, and the winds blew, and they beat on that house, and it fell, and its fall was great.","And it came to pass, when Jesus ended these words, the multitudes were astonished at his teaching,","for he was teaching them as having authority, and not as the scribes."],"characters":["J","u","d","g","e"," ","n","o","t",",","h","a","y","m","b","j","f","r","i","w","s","l",".","A","c","?","S","I","H","p","Y","v","-","k",";","F","G","!","B","E",":","N","L","T"],"specialIndexes":[]}},"input":{"rows":45,"columns":44,"weights":{"0":0.25250914692878723,"1":0.6077194213867188,"2":0.023550797253847122,"3":-0.6918981671333313,"4":1.8380047082901,"5":-1.042116641998291,"6":1.3458963632583618,"7":0.535515308380127,"8":-0.3015863001346588,"9":-0.7952525615692139,"10":-1.1215184926986694,"11":0.9079721570014954,"12":-0.22918324172496796,"13":1.0595016479492188,"14":-0.9650861024856567,"15":-0.12292508780956268,"16":0.580123782157898,"17":-0.34659695625305176,"18":-2.3015806674957275,"19":-0.6077855229377747,"20":-0.3018728792667389,"21":0.3601093292236328,"22":-0.169294536113739,"23":0.4971342384815216,"24":3.015096664428711,"25":1.9372206926345825,"26":0.683687150478363,"27":-0.16958113014698029,"28":0.6631066203117371,"29":-0.8676712512969971,"30":1.0271892547607422,"31":-1.468164086341858,"32":-0.2188410758972168,"33":-0.7214155793190002,"34":-0.3018684387207031,"35":-0.12831979990005493,"36":-0.3222372829914093,"37":0.024073220789432526,"38":0.0388307049870491,"39":1.4351261854171753,"40":0.009700710885226727,"41":0.315586119890213,"42":-1.0511618852615356,"43":-1.2025742530822754,"44":-4.62684440612793,"45":1.8465383052825928,"46":0.06145429611206055,"47":1.1848030090332031,"48":1.2310748100280762,"49":0.9554669260978699,"50":-2.210315704345703,"51":-2.6943209171295166,"52":-1.5044407844543457,"53":4.035975933074951,"54":3.16266131401062,"55":-2.986790418624878,"56":2.4049458503723145,"57":-4.226106643676758,"58":2.903808355331421,"59":-4.145351409912109,"60":-3.6025826930999756,"61":4.25105094909668,"62":4.193004131317139,"63":-0.805706262588501,"64":3.4611663818359375,"65":-1.937266230583191,"66":-0.8311513662338257,"67":-2.6604104042053223,"68":-5.132233142852783,"69":-6.293374061584473,"70":0.6427830457687378,"71":-2.078749179840088,"72":-3.6608376502990723,"73":3.4685091972351074,"74":-1.091064691543579,"75":-2.305217981338501,"76":5.027022838592529,"77":0.5035941004753113,"78":-2.1777141094207764,"79":-1.605430006980896,"80":3.9030373096466064,"81":-1.5038379430770874,"82":-3.12738299369812,"83":-1.326692819595337,"84":-1.7813940048217773,"85":0.07994728535413742,"86":3.0919392108917236,"87":6.134428024291992,"88":-2.807164192199707,"89":0.7344080805778503,"90":-0.5344581007957458,"91":-0.43190792202949524,"92":2.2362051010131836,"93":-1.1044450998306274,"94":-1.5806517601013184,"95":-0.24309062957763672,"96":-1.7101428508758545,"97":-0.7579006552696228,"98":-0.30194878578186035,"99":1.1991982460021973,"100":2.5351345539093018,"101":-0.06472132354974747,"102":0.2197282314300537,"103":0.971962034702301,"104":1.2530107498168945,"105":1.8889942169189453,"106":0.7214568257331848,"107":-1.2962687015533447,"108":0.47869443893432617,"109":2.324585199356079,"110":-0.21192039549350739,"111":-0.23345042765140533,"112":1.3532788753509521,"113":1.1621614694595337,"114":-0.807834267616272,"115":-0.33119574189186096,"116":-0.2728056013584137,"117":0.7774544954299927,"118":0.12981542944908142,"119":1.5871201753616333,"120":0.2594355642795563,"121":1.31827974319458,"122":2.1712117195129395,"123":-0.5044997930526733,"124":-0.8974558115005493,"125":0.7152051329612732,"126":-0.825541615486145,"127":-0.30380022525787354,"128":0.4333771765232086,"129":-2.6754209995269775,"130":0.9667690396308899,"131":-0.674144983291626,"132":0.914124071598053,"133":0.6419346928596497,"134":-1.3691837787628174,"135":-0.7917501926422119,"136":-0.7993468642234802,"137":1.9772790670394897,"138":-1.8155590295791626,"139":0.7928931713104248,"140":2.648746967315674,"141":-1.7670868635177612,"142":0.4817942976951599,"143":1.0751417875289917,"144":1.214105486869812,"145":-1.5443012714385986,"146":1.9480855464935303,"147":1.7969931364059448,"148":-0.11961828172206879,"149":1.133259654045105,"150":0.18071819841861725,"151":1.8526332378387451,"152":-0.02697090059518814,"153":-0.11164484173059464,"154":-0.19367250800132751,"155":-1.3142355680465698,"156":-0.8650906682014465,"157":0.20255117118358612,"158":-1.530460238456726,"159":-2.536090850830078,"160":0.3317241072654724,"161":-0.42374512553215027,"162":-1.208052635192871,"163":1.3827519416809082,"164":0.4908442795276642,"165":-2.2704660892486572,"166":-2.2089273929595947,"167":0.7198224663734436,"168":0.07309478521347046,"169":-0.23735496401786804,"170":-0.49121570587158203,"171":0.43308907747268677,"172":0.5897729396820068,"173":-2.5025148391723633,"174":0.8199605941772461,"175":-0.15412035584449768,"176":0.15998484194278717,"177":-1.90297269821167,"178":-0.8175327777862549,"179":0.560537576675415,"180":3.055586814880371,"181":-0.8546926975250244,"182":-1.5185779333114624,"183":2.900961399078369,"184":0.6108803749084473,"185":-1.1588807106018066,"186":0.35842365026474,"187":3.0385496616363525,"188":-1.043168544769287,"189":2.6664209365844727,"190":0.829969048500061,"191":-2.962277889251709,"192":2.3157174587249756,"193":0.36581894755363464,"194":0.48891115188598633,"195":-3.0175461769104004,"196":-1.0881246328353882,"197":1.388583779335022,"198":-0.5106629729270935,"199":-1.0521904230117798,"200":0.8053697943687439,"201":0.4259874224662781,"202":-0.3561036288738251,"203":0.14866004884243011,"204":1.4901853799819946,"205":0.1747337281703949,"206":0.791824221611023,"207":-0.7378158569335938,"208":-2.6407203674316406,"209":-1.9613388776779175,"210":2.902780771255493,"211":-0.10610324889421463,"212":-2.945894956588745,"213":1.333925724029541,"214":-0.7119876146316528,"215":2.8088152408599854,"216":-0.8805973529815674,"217":-2.7982561588287354,"218":0.7069596648216248,"219":-3.403137445449829,"220":-0.4757036864757538,"221":-0.2843334972858429,"222":0.19401563704013824,"223":0.04638088494539261,"224":-0.037215474992990494,"225":-0.570425271987915,"226":1.084802508354187,"227":-0.4895395338535309,"228":-2.750379800796509,"229":0.3991386294364929,"230":1.3375442028045654,"231":-1.0334815979003906,"232":-0.23726600408554077,"233":-0.8170168995857239,"234":1.6351059675216675,"235":-0.6620069742202759,"236":-2.5734658241271973,"237":0.8278638124465942,"238":-1.4670547246932983,"239":-1.355172872543335,"240":0.655479371547699,"241":2.041229248046875,"242":-0.44804564118385315,"243":1.1283663511276245,"244":-2.871842622756958,"245":-0.3843199610710144,"246":1.349428653717041,"247":0.4165692627429962,"248":-0.2606087327003479,"249":-0.18495330214500427,"250":-1.0070676803588867,"251":0.9624541401863098,"252":-0.20858684182167053,"253":0.4915473163127899,"254":-1.3987058401107788,"255":0.004496114794164896,"256":1.972885012626648,"257":-0.2033820003271103,"258":1.794008493423462,"259":-0.057778291404247284,"260":-0.988172173500061,"261":-0.6793369054794312,"262":0.456746906042099,"263":1.3028287887573242,"264":0.5084096789360046,"265":-1.820864200592041,"266":1.4455231428146362,"267":3.316591501235962,"268":-0.750491738319397,"269":0.009274899028241634,"270":0.5044029951095581,"271":-0.4937412440776825,"272":-0.07441756874322891,"273":2.0229148864746094,"274":1.4792362451553345,"275":-2.2243993282318115,"276":-3.7972493171691895,"277":1.1811357736587524,"278":-0.6872196197509766,"279":-1.6259520053863525,"280":0.420369952917099,"281":-0.5368043780326843,"282":0.5669698119163513,"283":0.5808979868888855,"284":-1.772899866104126,"285":-1.0913441181182861,"286":-0.2267327457666397,"287":0.3606809377670288,"288":-0.25030815601348877,"289":-0.20595236122608185,"290":1.3117293119430542,"291":2.3966898918151855,"292":-0.045586809515953064,"293":-0.9812923073768616,"294":-0.12363670021295547,"295":-2.041191339492798,"296":0.9899013638496399,"297":-1.0750664472579956,"298":-0.7146930694580078,"299":0.26453202962875366,"300":1.985396146774292,"301":0.37401050329208374,"302":0.13717465102672577,"303":0.4711570143699646,"304":-2.350201368331909,"305":1.1829779148101807,"306":0.6139814853668213,"307":0.4591583013534546,"308":-3.533414602279663,"309":1.0901384353637695,"310":-0.5556296110153198,"311":-1.247984766960144,"312":-0.619982898235321,"313":-1.3215175867080688,"314":1.0741875171661377,"315":-0.8008149266242981,"316":-1.7316747903823853,"317":1.0315136909484863,"318":0.9561378359794617,"319":-2.0947859287261963,"320":-1.5086230039596558,"321":-2.246394157409668,"322":0.2176220566034317,"323":-3.1310629844665527,"324":-3.2867159843444824,"325":0.7479355335235596,"326":0.2792260944843292,"327":-2.5929019451141357,"328":0.8974761366844177,"329":-1.486968994140625,"330":-0.3547948896884918,"331":0.7367244958877563,"332":-0.765571117401123,"333":-0.6360457539558411,"334":-0.23577292263507843,"335":-2.8482935428619385,"336":-0.08543430268764496,"337":0.7406957745552063,"338":2.2696545124053955,"339":0.1670065075159073,"340":1.1092913150787354,"341":-0.2948964536190033,"342":-0.7148492932319641,"343":0.5575810074806213,"344":2.5584557056427,"345":-1.1921114921569824,"346":0.562585175037384,"347":-0.18811143934726715,"348":-1.433441162109375,"349":-0.30215463042259216,"350":-1.383226990699768,"351":2.571100950241089,"352":0.33046168088912964,"353":1.3096728324890137,"354":0.36250701546669006,"355":-0.2885558307170868,"356":-0.4281204342842102,"357":1.0073738098144531,"358":-1.070334792137146,"359":0.08890949934720993,"360":0.04597735404968262,"361":-0.1830514371395111,"362":1.2225627899169922,"363":-0.2473340928554535,"364":2.1405720710754395,"365":0.6302706003189087,"366":1.3747727870941162,"367":1.1146297454833984,"368":1.977531909942627,"369":0.07981972396373749,"370":-0.5002927780151367,"371":1.8351682424545288,"372":-0.5383989810943604,"373":0.5242984890937805,"374":0.04054417461156845,"375":-0.5260463953018188,"376":-0.8086843490600586,"377":-1.4833577871322632,"378":-0.7484719753265381,"379":-1.5330114364624023,"380":-0.2740459144115448,"381":0.13782908022403717,"382":-1.4535424709320068,"383":0.0009012659429572523,"384":-0.054983168840408325,"385":-0.8026253581047058,"386":-0.17831522226333618,"387":-0.11180637776851654,"388":-1.0295957326889038,"389":-0.6068535447120667,"390":-0.06108906492590904,"391":0.7053817510604858,"392":-1.6556005477905273,"393":-0.02100190334022045,"394":1.8940680027008057,"395":0.5849959850311279,"396":0.04824529588222504,"397":-0.8183329701423645,"398":-1.2093358039855957,"399":-0.06942958384752274,"400":-1.5824191570281982,"401":4.910162448883057,"402":-0.24499459564685822,"403":-0.16002513468265533,"404":1.0659515857696533,"405":-0.9709974527359009,"406":-0.5130124688148499,"407":0.7503480911254883,"408":-1.0089930295944214,"409":1.2721375226974487,"410":-1.53795325756073,"411":-0.6067188382148743,"412":2.444434642791748,"413":-0.5673516988754272,"414":0.24944385886192322,"415":2.6314737796783447,"416":-1.4742183685302734,"417":-1.0185422897338867,"418":-0.563129186630249,"419":-1.754042625427246,"420":0.2513277530670166,"421":1.8205957412719727,"422":-1.3308327198028564,"423":-1.0970966815948486,"424":0.1444130688905716,"425":-0.83124178647995,"426":-0.4650874137878418,"427":-2.0730528831481934,"428":-0.42517662048339844,"429":0.9167275428771973,"430":0.6499029994010925,"431":-0.5552321672439575,"432":-1.5003854036331177,"433":1.6771234273910522,"434":1.0591081380844116,"435":-0.5985241532325745,"436":1.3961637020111084,"437":-0.38751253485679626,"438":-1.2585606575012207,"439":-2.218599796295166,"440":-0.13106317818164825,"441":1.6290819644927979,"442":0.37575578689575195,"443":1.5106852054595947,"444":-1.2309285402297974,"445":2.324648380279541,"446":-0.4543611705303192,"447":-4.09761905670166,"448":-2.2522621154785156,"449":0.19437426328659058,"450":2.0752999782562256,"451":-0.46772122383117676,"452":3.154345750808716,"453":-1.3538854122161865,"454":3.49613356590271,"455":-0.1728234440088272,"456":-2.7620999813079834,"457":-1.06209397315979,"458":-1.4976277351379395,"459":0.2356201857328415,"460":2.4235496520996094,"461":0.03929721936583519,"462":0.29959461092948914,"463":2.5697827339172363,"464":-2.1820759773254395,"465":-0.5243335366249084,"466":0.6299934387207031,"467":-2.559757709503174,"468":-3.6611275672912598,"469":-0.9868290424346924,"470":-3.261564016342163,"471":-0.03311105817556381,"472":-0.6363518238067627,"473":0.882013201713562,"474":-1.3848580121994019,"475":0.9290822744369507,"476":0.7747746706008911,"477":1.270431399345398,"478":4.9921488761901855,"479":-0.5226813554763794,"480":-1.1979283094406128,"481":-0.5735405683517456,"482":-0.8575281500816345,"483":1.6545438766479492,"484":0.6343591213226318,"485":-2.3237624168395996,"486":0.4951958656311035,"487":0.3885877728462219,"488":1.507458209991455,"489":-0.637465238571167,"490":1.0488803386688232,"491":0.5655421018600464,"492":0.14968879520893097,"493":-0.6591058969497681,"494":0.3998109698295593,"495":-0.7349709868431091,"496":-3.2711610794067383,"497":2.624032735824585,"498":-2.140986442565918,"499":-1.6710515022277832,"500":1.2160531282424927,"501":-1.1044323444366455,"502":-0.30880841612815857,"503":-0.5315937399864197,"504":-1.0662282705307007,"505":-0.10293661803007126,"506":0.03083939105272293,"507":-1.5004366636276245,"508":0.5504679083824158,"509":0.5557259917259216,"510":0.6713162064552307,"511":2.8643877506256104,"512":-0.5569359064102173,"513":-1.2926896810531616,"514":-0.044406816363334656,"515":-3.396157741546631,"516":-0.9157227277755737,"517":-2.831315517425537,"518":0.2257349044084549,"519":-0.6275942325592041,"520":2.1091995239257812,"521":1.4561631679534912,"522":-1.205298900604248,"523":3.9078705310821533,"524":0.617054283618927,"525":2.7521772384643555,"526":0.24943110346794128,"527":-1.2789973020553589,"528":-0.7023096084594727,"529":2.0815114974975586,"530":1.481972098350525,"531":-2.20180606842041,"532":-0.7410072088241577,"533":-1.589762568473816,"534":1.7662442922592163,"535":0.8564333319664001,"536":-2.746940851211548,"537":1.187204122543335,"538":-0.7885385751724243,"539":-0.18593958020210266,"540":-3.2049736976623535,"541":0.7994252443313599,"542":-3.3566982746124268,"543":2.129375457763672,"544":1.012642502784729,"545":-2.3624889850616455,"546":-1.8738962411880493,"547":-2.00127911567688,"548":1.1035199165344238,"549":-0.23399041593074799,"550":-0.8481974005699158,"551":-0.026880405843257904,"552":1.4409713745117188,"553":1.1977310180664062,"554":-4.313632488250732,"555":-2.3114848136901855,"556":-1.6702241897583008,"557":-2.7587943077087402,"558":1.2465293407440186,"559":1.5031695365905762,"560":-0.6501297950744629,"561":-1.8424268960952759,"562":1.2795361280441284,"563":2.5799241065979004,"564":0.12235718220472336,"565":-0.22507144510746002,"566":-1.4979403018951416,"567":4.649971008300781,"568":2.146414279937744,"569":-0.581889271736145,"570":-1.961370825767517,"571":-0.6787397861480713,"572":0.3900599777698517,"573":0.14673462510108948,"574":-0.18325050175189972,"575":0.7559176683425903,"576":-0.022423574700951576,"577":0.5404535531997681,"578":-1.465513825416565,"579":-0.8531445860862732,"580":-0.10628729313611984,"581":1.3027169704437256,"582":0.04723765701055527,"583":-1.1324602365493774,"584":-0.16751717031002045,"585":0.6611436009407043,"586":0.9484779834747314,"587":0.9079233407974243,"588":0.8964565396308899,"589":-0.48746785521507263,"590":-1.1384453773498535,"591":0.17822375893592834,"592":0.1907067447900772,"593":0.6005253195762634,"594":-0.2757483124732971,"595":2.1143603324890137,"596":-1.3537499904632568,"597":-1.1092466115951538,"598":1.5687086582183838,"599":1.0833206176757812,"600":-1.49391770362854,"601":-0.3221622705459595,"602":-1.1086112260818481,"603":-1.9917727708816528,"604":-0.8776834011077881,"605":0.6701121926307678,"606":-0.6652283072471619,"607":-0.8876423835754395,"608":-0.6685870885848999,"609":-0.41011494398117065,"610":0.24213387072086334,"611":-0.14159218966960907,"612":-0.6028496623039246,"613":0.04786389321088791,"614":0.24852612614631653,"615":1.2793338298797607,"616":2.3463664054870605,"617":0.5404173135757446,"618":-1.0749804973602295,"619":0.8661957383155823,"620":-0.4762006402015686,"621":2.912841558456421,"622":1.9066935777664185,"623":-1.0062435865402222,"624":0.6429951786994934,"625":-0.5789754986763,"626":2.4481453895568848,"627":-0.1900559812784195,"628":-0.6300369501113892,"629":1.7366132736206055,"630":0.6688585877418518,"631":-0.8931699395179749,"632":0.4025079905986786,"633":-0.7282440066337585,"634":1.0717183351516724,"635":2.599689483642578,"636":0.049748316407203674,"637":1.5263293981552124,"638":-0.6465529203414917,"639":0.5941029191017151,"640":-1.4706681966781616,"641":-3.202042579650879,"642":0.34489062428474426,"643":0.6136660575866699,"644":-0.10579037666320801,"645":0.8906828761100769,"646":-1.2230467796325684,"647":1.5745514631271362,"648":0.023360373452305794,"649":0.38492846488952637,"650":-0.35469698905944824,"651":-0.6038401126861572,"652":0.030623262748122215,"653":-1.5034288167953491,"654":0.715487539768219,"655":-3.012698173522949,"656":-1.2734615802764893,"657":0.20020774006843567,"658":-0.9164385795593262,"659":0.4314689040184021,"660":1.6762138605117798,"661":-0.554442822933197,"662":0.7720633745193481,"663":-0.21353048086166382,"664":0.5978580117225647,"665":0.3876124322414398,"666":0.5211721658706665,"667":0.754205048084259,"668":-0.1992134302854538,"669":0.788198709487915,"670":1.8606938123703003,"671":-0.47829750180244446,"672":0.10426000505685806,"673":-0.7308230996131897,"674":1.2794908285140991,"675":2.14957332611084,"676":-1.3033360242843628,"677":-0.767670214176178,"678":-3.8840441703796387,"679":3.026329517364502,"680":0.9813259840011597,"681":0.19409437477588654,"682":0.7298452258110046,"683":3.77021861076355,"684":0.29392415285110474,"685":0.5926809906959534,"686":0.21970148384571075,"687":2.086866617202759,"688":-0.6233020424842834,"689":-1.9168332815170288,"690":-0.649397075176239,"691":-1.9525426626205444,"692":0.27515289187431335,"693":-1.1817293167114258,"694":1.1210572719573975,"695":2.1441855430603027,"696":0.22905242443084717,"697":0.2551814317703247,"698":-1.0233263969421387,"699":2.978142738342285,"700":-1.8095872402191162,"701":-0.02271515317261219,"702":-1.204464077949524,"703":-0.1267806887626648,"704":-3.364295244216919,"705":-4.065368175506592,"706":4.984622001647949,"707":-3.083573818206787,"708":0.2776162326335907,"709":-5.497938632965088,"710":-7.777887344360352,"711":-2.291835308074951,"712":-0.01497356966137886,"713":6.449365615844727,"714":-6.40334415435791,"715":-8.956758499145508,"716":4.946181774139404,"717":-7.289973735809326,"718":1.272484302520752,"719":-0.306437611579895,"720":-9.315250396728516,"721":-0.9139571785926819,"722":8.423271179199219,"723":-3.729386806488037,"724":-4.918885231018066,"725":-0.26581326127052307,"726":10.983903884887695,"727":-5.344424247741699,"728":-5.498330116271973,"729":-8.700753211975098,"730":3.4178531169891357,"731":-2.2434089183807373,"732":6.418668270111084,"733":0.8009247779846191,"734":4.839847564697266,"735":-1.0044971704483032,"736":5.747710704803467,"737":3.3380236625671387,"738":2.2838172912597656,"739":-0.20632027089595795,"740":4.9299163818359375,"741":4.356692314147949,"742":-2.9807350635528564,"743":3.9529500007629395,"744":-1.5218051671981812,"745":4.8623738288879395,"746":11.969010353088379,"747":11.14039134979248,"748":-0.8185351490974426,"749":1.470963716506958,"750":1.3250315189361572,"751":0.2789570689201355,"752":0.9479768872261047,"753":0.8118825554847717,"754":-1.0001068115234375,"755":-2.632370710372925,"756":-0.578044056892395,"757":0.4247104823589325,"758":1.2715940475463867,"759":-1.1673468351364136,"760":4.15775203704834,"761":-0.5274071097373962,"762":2.637648820877075,"763":3.2630810737609863,"764":-1.1414151191711426,"765":2.38961124420166,"766":0.1244783028960228,"767":-1.0250146389007568,"768":1.339789867401123,"769":0.7619225978851318,"770":0.5805029273033142,"771":1.562844157218933,"772":-1.8013625144958496,"773":-0.02907889522612095,"774":2.2861077785491943,"775":-0.5867454409599304,"776":-1.9500150680541992,"777":-0.3809250295162201,"778":-4.450819492340088,"779":1.2930986881256104,"780":0.5933590531349182,"781":1.1901353597640991,"782":-0.4451364576816559,"783":0.08235397189855576,"784":0.09747835993766785,"785":0.6202041506767273,"786":1.3745921850204468,"787":-1.8845012187957764,"788":2.206479549407959,"789":-0.7992387413978577,"790":0.33167651295661926,"791":0.702416181564331,"792":-0.30864524841308594,"793":1.240234613418579,"794":0.8021062612533569,"795":1.6213253736495972,"796":-0.5972693562507629,"797":-1.0778043270111084,"798":-0.8336693048477173,"799":-1.037674069404602,"800":-0.9521706104278564,"801":0.8158490657806396,"802":1.1174464225769043,"803":-0.5604249835014343,"804":0.9638766050338745,"805":0.5845572352409363,"806":-3.397190809249878,"807":-2.7120375633239746,"808":-0.18949195742607117,"809":0.4417714476585388,"810":1.6292418241500854,"811":-1.0049769878387451,"812":0.09947606176137924,"813":1.9081839323043823,"814":-1.4353786706924438,"815":2.8607680797576904,"816":2.052504777908325,"817":-0.620958149433136,"818":1.3685731887817383,"819":1.0119374990463257,"820":-1.3003700971603394,"821":-0.4964505136013031,"822":0.03443734347820282,"823":1.7543288469314575,"824":1.0806963443756104,"825":-1.0980852842330933,"826":0.4672313630580902,"827":-0.013625252060592175,"828":0.3188523054122925,"829":-0.9016189575195312,"830":-0.014851643703877926,"831":-0.3384539484977722,"832":0.21193337440490723,"833":0.19908246397972107,"834":-0.9383806586265564,"835":1.41446852684021,"836":1.0825618505477905,"837":0.3982178568840027,"838":-0.12480349838733673,"839":-0.19865655899047852,"840":-0.5227451920509338,"841":1.9293502569198608,"842":-0.09448754042387009,"843":0.6280957460403442,"844":-0.2625148594379425,"845":0.9670597910881042,"846":0.4999816119670868,"847":-0.3542943000793457,"848":-1.2661724090576172,"849":-0.8705383539199829,"850":1.3673113584518433,"851":1.0192725658416748,"852":-2.073611259460449,"853":0.8272377252578735,"854":1.1101325750350952,"855":1.080938458442688,"856":0.6662093997001648,"857":1.9358277320861816,"858":0.693356990814209,"859":-1.0208485126495361,"860":-1.5037345886230469,"861":-0.38536104559898376,"862":0.543692409992218,"863":1.5152920484542847,"864":0.5754151344299316,"865":0.5449539422988892,"866":-0.9642961621284485,"867":4.544755458831787,"868":-1.3082042932510376,"869":-0.1101747378706932,"870":-0.26674386858940125,"871":-1.188251256942749,"872":1.6117017269134521,"873":-1.0432387590408325,"874":0.7584545612335205,"875":-0.33434075117111206,"876":-0.04411477968096733,"877":-0.008699006401002407,"878":-2.1425068378448486,"879":-1.405788779258728,"880":-0.002060196828097105,"881":-2.369236469268799,"882":0.8752731680870056,"883":1.3891154527664185,"884":-1.112941026687622,"885":-2.4879109859466553,"886":-0.6786274909973145,"887":1.0159283876419067,"888":-0.710554301738739,"889":1.3967591524124146,"890":0.13945578038692474,"891":-0.2819472551345825,"892":-2.0267579555511475,"893":1.3648682832717896,"894":0.6033285856246948,"895":-0.6354886293411255,"896":1.2168501615524292,"897":-0.9722947478294373,"898":-1.3213765621185303,"899":0.7700216770172119,"900":-0.42072567343711853,"901":1.08436119556427,"902":0.394877165555954,"903":-3.6946945190429688,"904":-0.8485656380653381,"905":-0.4791877865791321,"906":2.8834381103515625,"907":2.1231911182403564,"908":-1.0994373559951782,"909":1.4248995780944824,"910":-2.2539453506469727,"911":-1.6933841705322266,"912":0.1186770498752594,"913":0.712420642375946,"914":-1.207092523574829,"915":-1.7287533283233643,"916":-0.6584669947624207,"917":-0.4875076115131378,"918":1.4754222631454468,"919":1.1551741361618042,"920":-1.5585534572601318,"921":0.41342124342918396,"922":1.441298246383667,"923":0.6971286535263062,"924":0.3901141583919525,"925":-1.080633521080017,"926":0.12395136803388596,"927":1.411736011505127,"928":-2.738710880279541,"929":1.640346884727478,"930":0.6480036973953247,"931":-2.0652923583984375,"932":0.5339164733886719,"933":1.3358479738235474,"934":3.3290839195251465,"935":-0.54195237159729,"936":0.5130572319030762,"937":-0.5778050422668457,"938":0.29755333065986633,"939":-2.915985345840454,"940":-0.9495384693145752,"941":1.0027824640274048,"942":-0.9746118783950806,"943":3.416616201400757,"944":-1.3820164203643799,"945":0.431430459022522,"946":-0.7875252366065979,"947":0.1836642622947693,"948":-0.5073384642601013,"949":-1.2710798978805542,"950":2.3518624305725098,"951":0.8457107543945312,"952":0.1401222050189972,"953":0.3178519010543823,"954":-2.185584545135498,"955":0.02853184938430786,"956":1.2805778980255127,"957":0.19405952095985413,"958":-1.608237624168396,"959":-1.0022988319396973,"960":-1.645259976387024,"961":-1.7759774923324585,"962":2.009195566177368,"963":-0.7927529811859131,"964":-0.2827678322792053,"965":-2.0364437103271484,"966":-0.5353535413742065,"967":1.2093278169631958,"968":-0.1822855919599533,"969":0.06316152960062027,"970":-0.37823188304901123,"971":0.2830515503883362,"972":1.5113929510116577,"973":3.0832090377807617,"974":-2.8880319595336914,"975":1.5116298198699951,"976":0.12912052869796753,"977":1.3907748460769653,"978":-1.294582486152649,"979":-1.229070782661438,"980":-0.8301345109939575,"981":0.07008011639118195,"982":0.4714205861091614,"983":0.1625111699104309,"984":-0.6676232814788818,"985":-1.0627208948135376,"986":1.6986088752746582,"987":-1.302409052848816,"988":1.2830400466918945,"989":-1.7393369674682617,"990":-1.7782142162322998,"991":0.41058242321014404,"992":-0.9625893831253052,"993":-1.072473406791687,"994":-1.3333765268325806,"995":-0.19137601554393768,"996":0.3907703459262848,"997":1.4070863723754883,"998":1.8579362630844116,"999":0.9325757622718811,"1000":-1.9126733541488647,"1001":0.6272575855255127,"1002":1.8153579235076904,"1003":-0.24503867328166962,"1004":0.8326876759529114,"1005":-1.2857528924942017,"1006":-0.31936702132225037,"1007":-2.0422565937042236,"1008":-1.0270488262176514,"1009":1.31828773021698,"1010":1.0330898761749268,"1011":0.8303101062774658,"1012":0.7909169793128967,"1013":0.48636841773986816,"1014":-0.858718752861023,"1015":2.0159852504730225,"1016":-3.6647958755493164,"1017":-0.7450019717216492,"1018":-4.008951663970947,"1019":-1.5766010284423828,"1020":3.166689395904541,"1021":3.559178352355957,"1022":-0.05427099019289017,"1023":-1.1405417919158936,"1024":1.7819855213165283,"1025":-0.7528520822525024,"1026":4.253757953643799,"1027":2.1111412048339844,"1028":0.2861994504928589,"1029":-1.1230075359344482,"1030":6.307785511016846,"1031":-0.10456680506467819,"1032":2.1237242221832275,"1033":0.7956349849700928,"1034":1.9300788640975952,"1035":-1.1291733980178833,"1036":-6.076138973236084,"1037":-7.431877613067627,"1038":1.7846591472625732,"1039":-0.8724122047424316,"1040":-4.912891387939453,"1041":0.4681447446346283,"1042":-0.9311621189117432,"1043":-2.6000657081604004,"1044":-2.2285146713256836,"1045":1.0879842042922974,"1046":-2.4830570220947266,"1047":-3.5004894733428955,"1048":-2.2996625900268555,"1049":-0.9188769459724426,"1050":2.2203457355499268,"1051":0.2227776199579239,"1052":-2.265364408493042,"1053":0.37333935499191284,"1054":2.8553285598754883,"1055":1.0962255001068115,"1056":2.904006004333496,"1057":4.098284721374512,"1058":-1.8849049806594849,"1059":1.6496516466140747,"1060":0.3407622277736664,"1061":4.109480857849121,"1062":2.6269328594207764,"1063":-2.7049477100372314,"1064":5.555241107940674,"1065":-2.018098831176758,"1066":1.332874059677124,"1067":-0.35158053040504456,"1068":3.756652355194092,"1069":1.555841326713562,"1070":2.9607229232788086,"1071":6.365909099578857,"1072":2.4434163570404053,"1073":2.4312005043029785,"1074":-1.8703993558883667,"1075":4.436397552490234,"1076":2.8122425079345703,"1077":-2.7112977504730225,"1078":0.8007109761238098,"1079":0.5429049134254456,"1080":-5.305800914764404,"1081":-1.760975956916809,"1082":-1.100940465927124,"1083":1.3149785995483398,"1084":-2.5915615558624268,"1085":0.8831239342689514,"1086":-3.0438647270202637,"1087":-6.945582389831543,"1088":-3.549193859100342,"1089":-0.6190415024757385,"1090":-7.861271858215332,"1091":-0.428541362285614,"1092":-0.8658706545829773,"1093":0.29851213097572327,"1094":1.9324265718460083,"1095":-3.0243632793426514,"1096":-2.7434792518615723,"1097":1.1044846773147583,"1098":1.4480695724487305,"1099":0.48962804675102234,"1100":-0.591971755027771,"1101":-0.5170714855194092,"1102":0.9615174531936646,"1103":3.599266529083252,"1104":-2.6416616439819336,"1105":2.464688777923584,"1106":1.796220064163208,"1107":-1.028268814086914,"1108":0.08688188344240189,"1109":2.0557749271392822,"1110":2.6275792121887207,"1111":-0.16811896860599518,"1112":0.6008984446525574,"1113":0.7327027320861816,"1114":0.23328599333763123,"1115":-2.9853620529174805,"1116":0.8901115655899048,"1117":1.66558837890625,"1118":1.1176015138626099,"1119":2.8133761882781982,"1120":-1.4689300060272217,"1121":0.3907388150691986,"1122":-1.355390191078186,"1123":-1.0445101261138916,"1124":-1.3005247116088867,"1125":-2.5403807163238525,"1126":2.3695244789123535,"1127":-0.2488648146390915,"1128":0.8253111243247986,"1129":0.5347036123275757,"1130":-0.9171151518821716,"1131":-0.6308370232582092,"1132":0.6312628984451294,"1133":3.4821505546569824,"1134":-1.66106116771698,"1135":-2.3250465393066406,"1136":-1.7072319984436035,"1137":-0.9873977899551392,"1138":2.027352809906006,"1139":-2.5439937114715576,"1140":-0.2704411745071411,"1141":-2.3260343074798584,"1142":-1.0684814453125,"1143":0.08040983974933624,"1144":-5.53914213180542,"1145":-1.6898162364959717,"1146":4.440726280212402,"1147":3.2242157459259033,"1148":-1.763392448425293,"1149":-2.4126639366149902,"1150":-1.3646830320358276,"1151":2.6196699142456055,"1152":-4.390812873840332,"1153":6.010012149810791,"1154":3.7713823318481445,"1155":-2.0930826663970947,"1156":1.2770272493362427,"1157":-2.4810731410980225,"1158":-0.014234551228582859,"1159":0.5811552405357361,"1160":-3.672394037246704,"1161":1.9087733030319214,"1162":0.6509351134300232,"1163":0.39682385325431824,"1164":-0.683883547782898,"1165":-0.5828951001167297,"1166":1.7044764757156372,"1167":-1.1521837711334229,"1168":-3.8630964756011963,"1169":-2.4940025806427,"1170":2.0583431720733643,"1171":2.0413193702697754,"1172":0.8271254897117615,"1173":4.330489158630371,"1174":-1.1545361280441284,"1175":-2.11435866355896,"1176":1.7274043560028076,"1177":2.8645458221435547,"1178":0.0690566673874855,"1179":-3.498353958129883,"1180":2.919487237930298,"1181":-3.234260320663452,"1182":-2.1493406295776367,"1183":2.3360958099365234,"1184":-2.0226712226867676,"1185":1.7082014083862305,"1186":5.728665828704834,"1187":6.890149116516113,"1188":4.505319118499756,"1189":-1.7691484689712524,"1190":-1.419393539428711,"1191":1.5769563913345337,"1192":-3.4983980655670166,"1193":-10.57913589477539,"1194":11.868359565734863,"1195":0.12493333220481873,"1196":5.201248645782471,"1197":-6.3118486404418945,"1198":4.321759223937988,"1199":2.8378632068634033,"1200":-3.4520134925842285,"1201":10.664971351623535,"1202":0.2838714122772217,"1203":-9.98728084564209,"1204":8.419800758361816,"1205":-1.6825450658798218,"1206":-0.7665895223617554,"1207":1.6627404689788818,"1208":-1.6881314516067505,"1209":7.818645000457764,"1210":-2.7318074703216553,"1211":-2.0888798236846924,"1212":-4.541591644287109,"1213":-3.2778496742248535,"1214":9.722424507141113,"1215":3.451362133026123,"1216":2.3234353065490723,"1217":7.515917778015137,"1218":-3.488832950592041,"1219":-0.41069716215133667,"1220":-5.215441703796387,"1221":-3.7474210262298584,"1222":-1.8182618618011475,"1223":-5.331520080566406,"1224":-5.277474880218506,"1225":-4.522017955780029,"1226":5.4266862869262695,"1227":-1.401697039604187,"1228":-4.5628252029418945,"1229":-1.8180556297302246,"1230":-6.318135738372803,"1231":-3.2836883068084717,"1232":7.951996326446533,"1233":2.7227911949157715,"1234":-6.08774471282959,"1235":0.6473801732063293,"1236":-8.640429496765137,"1237":1.9256938695907593,"1238":-1.5068974494934082,"1239":-2.262911558151245,"1240":8.436068534851074,"1241":-4.4497199058532715,"1242":-0.9856913685798645,"1243":7.0987982749938965,"1244":-0.14105461537837982,"1245":4.687676429748535,"1246":2.8980133533477783,"1247":1.3183881044387817,"1248":6.638681888580322,"1249":-0.4719410538673401,"1250":2.3449769020080566,"1251":-0.0051219407469034195,"1252":0.7592376470565796,"1253":1.564306378364563,"1254":-3.79868221282959,"1255":-1.6330360174179077,"1256":-9.276761054992676,"1257":-1.9258127212524414,"1258":-0.3392857611179352,"1259":-0.8386873006820679,"1260":2.526965856552124,"1261":1.0874674320220947,"1262":-0.6278051137924194,"1263":1.4989205598831177,"1264":-7.572491645812988,"1265":1.5270466804504395,"1266":-2.791001319885254,"1267":-1.499362587928772,"1268":-10.20671558380127,"1269":-3.354518175125122,"1270":3.9884262084960938,"1271":-7.572113037109375,"1272":-2.5309338569641113,"1273":-5.313495635986328,"1274":-4.39315128326416,"1275":-5.690319061279297,"1276":0.6211159825325012,"1277":-15.286823272705078,"1278":8.390914916992188,"1279":5.396993637084961,"1280":-2.8759467601776123,"1281":-6.6366868019104,"1282":13.582265853881836,"1283":7.747782230377197,"1284":0.5173896551132202,"1285":1.3956937789916992,"1286":12.978141784667969,"1287":-5.34243631362915,"1288":-6.260468482971191,"1289":5.334918975830078,"1290":-12.744877815246582,"1291":-2.5035018920898438,"1292":7.199638366699219,"1293":-12.45555591583252,"1294":2.357377052307129,"1295":4.360023021697998,"1296":-8.558820724487305,"1297":-7.095549583435059,"1298":6.076104640960693,"1299":-0.5346813797950745,"1300":6.5085272789001465,"1301":4.182006359100342,"1302":3.3537657260894775,"1303":-0.6856896877288818,"1304":8.113760948181152,"1305":-9.812067031860352,"1306":-0.7483235597610474,"1307":-4.197061538696289,"1308":-0.18395252525806427,"1309":0.6580747365951538,"1310":-2.355292558670044,"1311":6.043509483337402,"1312":2.2241950035095215,"1313":3.9221951961517334,"1314":-3.556067943572998,"1315":9.942824363708496,"1316":6.52607536315918,"1317":4.611164093017578,"1318":-3.8744585514068604,"1319":-0.18975499272346497,"1320":2.3734796047210693,"1321":0.03603769466280937,"1322":0.023240718990564346,"1323":1.1758975982666016,"1324":3.035313844680786,"1325":-1.6179534196853638,"1326":0.5730367302894592,"1327":2.889655590057373,"1328":-0.17069847881793976,"1329":-1.941514492034912,"1330":1.1039115190505981,"1331":1.0939605236053467,"1332":-1.4468108415603638,"1333":2.6699752807617188,"1334":-0.6381619572639465,"1335":-0.04947236180305481,"1336":3.367738962173462,"1337":-2.867722988128662,"1338":1.17539644241333,"1339":-0.9700767397880554,"1340":-0.5020089149475098,"1341":0.26618748903274536,"1342":-2.032557487487793,"1343":0.1714828610420227,"1344":1.8329625129699707,"1345":1.3576841354370117,"1346":-1.7470784187316895,"1347":0.0654987096786499,"1348":0.2130400538444519,"1349":-0.5807735919952393,"1350":0.5501208305358887,"1351":2.749793291091919,"1352":-3.987842559814453,"1353":-1.7824115753173828,"1354":3.0518393516540527,"1355":-0.12579381465911865,"1356":-2.749969005584717,"1357":0.7464063167572021,"1358":-1.168670654296875,"1359":1.3413043022155762,"1360":-2.0546953678131104,"1361":-0.09385429322719574,"1362":0.6866576671600342,"1363":-2.957825183868408,"1364":5.04112434387207,"1365":-4.220465660095215,"1366":-10.354029655456543,"1367":-8.065876007080078,"1368":12.242219924926758,"1369":13.65636157989502,"1370":-0.5666892528533936,"1371":6.81517219543457,"1372":7.723684787750244,"1373":-8.611921310424805,"1374":2.152066707611084,"1375":6.228897571563721,"1376":3.5413029193878174,"1377":0.4611864387989044,"1378":4.457775592803955,"1379":4.743671417236328,"1380":-0.1332516223192215,"1381":4.461881637573242,"1382":-1.3357468843460083,"1383":-3.3239171504974365,"1384":-7.348601818084717,"1385":-5.505615711212158,"1386":-6.867422103881836,"1387":-5.883049488067627,"1388":1.114983320236206,"1389":2.6161787509918213,"1390":-7.580142974853516,"1391":-0.17729751765727997,"1392":11.98894214630127,"1393":-0.1517217755317688,"1394":6.887481212615967,"1395":5.212305545806885,"1396":-5.4354729652404785,"1397":-2.998528003692627,"1398":-7.355907440185547,"1399":3.8276166915893555,"1400":-7.350351333618164,"1401":2.9663076400756836,"1402":6.793368816375732,"1403":4.117987155914307,"1404":3.9292166233062744,"1405":-2.3535337448120117,"1406":7.141862869262695,"1407":-6.344422817230225,"1408":1.589766263961792,"1409":1.5323385000228882,"1410":3.61399507522583,"1411":1.517524003982544,"1412":2.393984079360962,"1413":2.386427402496338,"1414":1.6857644319534302,"1415":0.8639065623283386,"1416":0.40611565113067627,"1417":1.484504222869873,"1418":4.019859790802002,"1419":-3.157710075378418,"1420":2.5703256130218506,"1421":-0.01562722772359848,"1422":-0.14373716711997986,"1423":0.010243809781968594,"1424":-1.8839842081069946,"1425":0.5644888877868652,"1426":1.748745083808899,"1427":0.5098862648010254,"1428":-0.01076500117778778,"1429":-0.9991849660873413,"1430":-1.0217080116271973,"1431":1.9031562805175781,"1432":0.2546443045139313,"1433":-0.2852010428905487,"1434":0.7372705936431885,"1435":-0.12459372729063034,"1436":1.3878014087677002,"1437":0.3634914755821228,"1438":-1.8993847370147705,"1439":3.603083610534668,"1440":0.30176734924316406,"1441":0.9865691065788269,"1442":1.0618820190429688,"1443":0.551652193069458,"1444":1.6972090005874634,"1445":-1.5443463325500488,"1446":-3.09598970413208,"1447":-1.777137041091919,"1448":-2.6847236156463623,"1449":2.0904459953308105,"1450":0.7948578596115112,"1451":-0.8269586563110352,"1452":0.04225827753543854,"1453":1.5678043365478516,"1454":1.986429214477539,"1455":0.45502209663391113,"1456":1.3013793230056763,"1457":5.988566875457764,"1458":-0.1648406833410263,"1459":0.10080432891845703,"1460":1.6220300197601318,"1461":-0.10501713305711746,"1462":1.2999937534332275,"1463":-0.1603260338306427,"1464":1.2387852668762207,"1465":-0.5951603651046753,"1466":6.670436859130859,"1467":-4.55647611618042,"1468":-0.5033236742019653,"1469":3.9691240787506104,"1470":3.7015275955200195,"1471":-1.721828818321228,"1472":3.797881603240967,"1473":6.057726860046387,"1474":-0.17541882395744324,"1475":-2.2264726161956787,"1476":-4.800428867340088,"1477":-8.151127815246582,"1478":5.0021162033081055,"1479":-0.7170149087905884,"1480":-2.433654308319092,"1481":3.671114444732666,"1482":-5.222535133361816,"1483":7.77370548248291,"1484":2.8384740352630615,"1485":0.16237853467464447,"1486":-0.8294231295585632,"1487":0.05820745602250099,"1488":0.2975994944572449,"1489":-6.423323154449463,"1490":4.194302082061768,"1491":-0.07766144722700119,"1492":-1.9541481733322144,"1493":-0.26574137806892395,"1494":-1.3711613416671753,"1495":1.4128305912017822,"1496":-0.4157927930355072,"1497":-2.8531527519226074,"1498":-1.528546929359436,"1499":-5.066459655761719,"1500":5.418557643890381,"1501":-1.1317241191864014,"1502":-3.3148534297943115,"1503":-1.8234548568725586,"1504":2.748912811279297,"1505":1.4247355461120605,"1506":-5.292661190032959,"1507":-0.9282206892967224,"1508":-0.13432832062244415,"1509":-3.5589821338653564,"1510":0.3550778031349182,"1511":1.6913456916809082,"1512":-1.5882327556610107,"1513":-0.07595952600240707,"1514":3.300780773162842,"1515":1.045398235321045,"1516":-1.7121765613555908,"1517":-2.9450089931488037,"1518":2.7548398971557617,"1519":-0.46698570251464844,"1520":1.4836543798446655,"1521":-3.7551252841949463,"1522":1.346183180809021,"1523":-0.7761778831481934,"1524":-0.29129698872566223,"1525":-0.2814311683177948,"1526":3.5614235401153564,"1527":2.3128418922424316,"1528":3.222756862640381,"1529":0.8168187737464905,"1530":5.648817539215088,"1531":-0.001737954095005989,"1532":-0.6870121955871582,"1533":3.763847589492798,"1534":-7.3274335861206055,"1535":1.2429357767105103,"1536":-0.3007719814777374,"1537":-1.7210620641708374,"1538":-2.9948155879974365,"1539":0.582290530204773,"1540":-2.03428053855896,"1541":-0.505142867565155,"1542":1.5921330451965332,"1543":3.7776548862457275,"1544":-1.9830232858657837,"1545":1.5651880502700806,"1546":-2.867269515991211,"1547":0.9021629095077515,"1548":-2.6580944061279297,"1549":0.268777996301651,"1550":3.6807801723480225,"1551":-3.5385518074035645,"1552":3.29213809967041,"1553":-1.5091753005981445,"1554":-2.1355230808258057,"1555":-1.2296099662780762,"1556":-3.6632473468780518,"1557":4.188136100769043,"1558":3.4070167541503906,"1559":0.8326544761657715,"1560":-0.5138180255889893,"1561":-1.3470696210861206,"1562":0.9739548563957214,"1563":0.22169919312000275,"1564":0.8543935418128967,"1565":0.6789283156394958,"1566":6.261816024780273,"1567":-4.299531936645508,"1568":-2.3751113414764404,"1569":-0.3118654191493988,"1570":0.5529008507728577,"1571":-2.1133804321289062,"1572":2.304279327392578,"1573":0.7950261235237122,"1574":-1.739249348640442,"1575":-0.3832356333732605,"1576":3.728907823562622,"1577":0.33081403374671936,"1578":1.324204444885254,"1579":-1.7837975025177002,"1580":-4.797504425048828,"1581":-0.9072140455245972,"1582":8.39132308959961,"1583":6.07283353805542,"1584":-0.846802294254303,"1585":-0.9681421518325806,"1586":4.644480228424072,"1587":7.87437105178833,"1588":-0.3863215446472168,"1589":-7.820732116699219,"1590":-4.216669082641602,"1591":-3.2904465198516846,"1592":-1.3531757593154907,"1593":1.2673557996749878,"1594":8.663949012756348,"1595":-0.9878252744674683,"1596":-3.7342960834503174,"1597":3.7618372440338135,"1598":2.609805107116699,"1599":-13.438254356384277,"1600":2.6775598526000977,"1601":1.882127285003662,"1602":4.5739850997924805,"1603":-0.1305892914533615,"1604":-6.74085807800293,"1605":-0.3741529881954193,"1606":-2.3464200496673584,"1607":2.155989646911621,"1608":0.937061607837677,"1609":-7.802556037902832,"1610":9.227783203125,"1611":0.22696582973003387,"1612":1.4180629253387451,"1613":0.933221697807312,"1614":-0.6300082802772522,"1615":1.532839298248291,"1616":-1.2529077529907227,"1617":-2.9876136779785156,"1618":-5.017086029052734,"1619":-1.8145755529403687,"1620":-1.1432079076766968,"1621":-1.8924264907836914,"1622":-0.3274846374988556,"1623":6.277577877044678,"1624":-8.674837112426758,"1625":-0.7925378680229187,"1626":1.9471559524536133,"1627":2.11095929145813,"1628":-2.443871259689331,"1629":-7.029843807220459,"1630":-7.8415069580078125,"1631":0.5631788372993469,"1632":-3.7286903858184814,"1633":-3.8801190853118896,"1634":-9.697596549987793,"1635":3.2656214237213135,"1636":6.51923131942749,"1637":3.6675851345062256,"1638":4.408835411071777,"1639":7.007796287536621,"1640":-4.241631984710693,"1641":9.276983261108398,"1642":6.864038467407227,"1643":-2.155397415161133,"1644":8.983341217041016,"1645":3.822957992553711,"1646":15.073753356933594,"1647":-0.2717724144458771,"1648":-10.96916389465332,"1649":0.3168940842151642,"1650":5.11456298828125,"1651":-10.617773056030273,"1652":-3.999798059463501,"1653":-2.37334942817688,"1654":6.928470611572266,"1655":3.111567258834839,"1656":-0.7970132231712341,"1657":7.8667449951171875,"1658":7.057423114776611,"1659":-5.186077117919922,"1660":-6.095444679260254,"1661":3.126026153564453,"1662":-2.639894723892212,"1663":-7.3669939041137695,"1664":-13.823798179626465,"1665":2.4651381969451904,"1666":8.139137268066406,"1667":10.938081741333008,"1668":-1.6686406135559082,"1669":-0.4846765100955963,"1670":7.318528652191162,"1671":0.7622522711753845,"1672":0.7607816457748413,"1673":0.8919087052345276,"1674":2.5026533603668213,"1675":5.376492023468018,"1676":3.9279630184173584,"1677":-2.6820850372314453,"1678":-3.958402395248413,"1679":-5.771388053894043,"1680":-0.01813214085996151,"1681":4.490889549255371,"1682":-3.928802728652954,"1683":-0.4286787807941437,"1684":0.26190266013145447,"1685":2.837266206741333,"1686":13.840007781982422,"1687":-11.121209144592285,"1688":0.6139913201332092,"1689":-1.5443408489227295,"1690":12.251604080200195,"1691":-11.206661224365234,"1692":2.4090402126312256,"1693":7.104780673980713,"1694":-0.4613136351108551,"1695":0.4082602262496948,"1696":-16.002878189086914,"1697":-10.342646598815918,"1698":9.348851203918457,"1699":-1.1429119110107422,"1700":-5.371301651000977,"1701":-2.2124621868133545,"1702":-1.1991597414016724,"1703":5.354832172393799,"1704":-4.458465099334717,"1705":4.111070156097412,"1706":-6.168825149536133,"1707":6.315224647521973,"1708":-1.9550117254257202,"1709":-3.272667169570923,"1710":3.735466957092285,"1711":5.169312477111816,"1712":2.67710542678833,"1713":1.426961064338684,"1714":7.556887626647949,"1715":0.2006024271249771,"1716":-3.5472066402435303,"1717":-0.2260904461145401,"1718":-0.21162240207195282,"1719":6.291175365447998,"1720":8.760885238647461,"1721":-0.41380226612091064,"1722":2.694629669189453,"1723":-4.342079162597656,"1724":-0.9643842577934265,"1725":6.464209079742432,"1726":5.64133358001709,"1727":-4.327613353729248,"1728":5.648697376251221,"1729":-0.8268266320228577,"1730":6.6109089851379395,"1731":-4.387660026550293,"1732":-1.820454478263855,"1733":6.266901969909668,"1734":-1.8397341966629028,"1735":5.817357540130615,"1736":2.414428949356079,"1737":-14.331366539001465,"1738":2.6405246257781982,"1739":14.015336990356445,"1740":2.7837817668914795,"1741":-10.465989112854004,"1742":-0.26841291785240173,"1743":5.470881938934326,"1744":-8.423835754394531,"1745":3.4970178604125977,"1746":-10.390069961547852,"1747":-11.251203536987305,"1748":11.969332695007324,"1749":0.6158128380775452,"1750":-2.9336249828338623,"1751":-2.034003257751465,"1752":5.129767417907715,"1753":-0.03338124230504036,"1754":-9.502986907958984,"1755":-5.934735298156738,"1756":-1.685897707939148,"1757":1.7652781009674072,"1758":-9.286094665527344,"1759":1.7819492816925049,"1760":-1.5913639068603516,"1761":-9.197893142700195,"1762":-0.5125843286514282,"1763":-4.904687881469727,"1764":16.68793296813965,"1765":-4.7170867919921875,"1766":3.617487668991089,"1767":9.776068687438965,"1768":-1.859546422958374,"1769":-5.620359420776367,"1770":14.51677131652832,"1771":4.240642070770264,"1772":5.360489845275879,"1773":-9.702552795410156,"1774":6.684281349182129,"1775":-15.08384895324707,"1776":-6.671175479888916,"1777":1.3758240938186646,"1778":-9.296208381652832,"1779":-5.555793762207031,"1780":-11.777539253234863,"1781":-10.195364952087402,"1782":-4.7290849685668945,"1783":6.676327705383301,"1784":5.795231819152832,"1785":7.476132392883301,"1786":5.336052417755127,"1787":2.8630778789520264,"1788":7.761743068695068,"1789":6.813920021057129,"1790":-2.9994423389434814,"1791":2.613865613937378,"1792":5.411793231964111,"1793":2.4155447483062744,"1794":-2.6615099906921387,"1795":-0.7030224800109863,"1796":2.511786937713623,"1797":-5.5714616775512695,"1798":-4.214620113372803,"1799":9.92057991027832,"1800":-11.297597885131836,"1801":-6.283205509185791,"1802":1.2424514293670654,"1803":4.160394191741943,"1804":4.421557903289795,"1805":1.3472503423690796,"1806":-4.51527738571167,"1807":2.6547138690948486,"1808":-13.330595970153809,"1809":3.655503273010254,"1810":0.6041234731674194,"1811":3.3901495933532715,"1812":5.694846153259277,"1813":-4.375709533691406,"1814":-2.336106538772583,"1815":11.53040599822998,"1816":2.3977224826812744,"1817":7.544555187225342,"1818":-1.141028642654419,"1819":8.139740943908691,"1820":6.0405473709106445,"1821":6.708214282989502,"1822":11.501969337463379,"1823":5.919535160064697,"1824":3.852471351623535,"1825":9.415624618530273,"1826":-0.22267402708530426,"1827":-0.09575536102056503,"1828":6.549837589263916,"1829":-1.9112558364868164,"1830":5.017094135284424,"1831":1.8102303743362427,"1832":2.0762746334075928,"1833":-1.855577826499939,"1834":3.98285174369812,"1835":10.36269760131836,"1836":-0.25063133239746094,"1837":7.468169689178467,"1838":-2.964082956314087,"1839":-13.068007469177246,"1840":-13.113885879516602,"1841":2.187619209289551,"1842":6.653183460235596,"1843":6.668613433837891,"1844":-0.026028933003544807,"1845":-7.680609703063965,"1846":-3.2181358337402344,"1847":-4.714087963104248,"1848":-2.5630719661712646,"1849":4.1546783447265625,"1850":1.9154880046844482,"1851":-6.448124885559082,"1852":5.51650857925415,"1853":0.39241355657577515,"1854":-10.871192932128906,"1855":-6.682568073272705,"1856":-0.04558414965867996,"1857":5.075725555419922,"1858":-10.50634765625,"1859":1.2328842878341675,"1860":0.9370036125183105,"1861":2.406562328338623,"1862":-8.44267463684082,"1863":-6.009471416473389,"1864":0.7099210619926453,"1865":-3.9149794578552246,"1866":12.431439399719238,"1867":-0.9055026769638062,"1868":-1.047947883605957,"1869":-10.664026260375977,"1870":7.781317710876465,"1871":-3.5264108180999756,"1872":0.8806626200675964,"1873":-2.3250629901885986,"1874":0.6568241119384766,"1875":-12.751233100891113,"1876":-5.841289043426514,"1877":-5.304152488708496,"1878":10.880946159362793,"1879":12.598896980285645,"1880":7.300113677978516,"1881":-2.9485013484954834,"1882":-1.1828442811965942,"1883":-1.4784352779388428,"1884":2.8989222049713135,"1885":1.3052641153335571,"1886":-12.59105396270752,"1887":-3.1991569995880127,"1888":6.928154468536377,"1889":1.4769269227981567,"1890":9.625138282775879,"1891":-0.5167333483695984,"1892":0.9663640260696411,"1893":0.6134090423583984,"1894":0.9303498864173889,"1895":7.4402384757995605,"1896":-7.619845867156982,"1897":-6.479160785675049,"1898":2.443284273147583,"1899":1.9337936639785767,"1900":-0.20160211622714996,"1901":-4.739664077758789,"1902":9.19649600982666,"1903":2.5116376876831055,"1904":3.5675482749938965,"1905":5.362293243408203,"1906":3.278686046600342,"1907":-1.3867554664611816,"1908":5.315300941467285,"1909":3.643662452697754,"1910":-3.765397787094116,"1911":0.10550714284181595,"1912":-2.914527654647827,"1913":8.544890403747559,"1914":-6.407265663146973,"1915":1.4505845308303833,"1916":-2.895427942276001,"1917":-3.0629539489746094,"1918":0.2751660943031311,"1919":7.699939250946045,"1920":0.9262526631355286,"1921":4.939851760864258,"1922":-4.392125606536865,"1923":-1.8069994449615479,"1924":-3.788090944290161,"1925":3.8459131717681885,"1926":-6.899994850158691,"1927":-8.298019409179688,"1928":-4.666193008422852,"1929":1.4236853122711182,"1930":6.782838344573975,"1931":-0.675146758556366,"1932":-6.7460737228393555,"1933":-4.874786376953125,"1934":-0.7809789776802063,"1935":-0.7609511613845825,"1936":-7.522836685180664,"1937":-2.8111889362335205,"1938":2.20796275138855,"1939":4.974660396575928,"1940":-13.161908149719238,"1941":-0.8148095011711121,"1942":-3.4996185302734375,"1943":11.308292388916016,"1944":-4.930181503295898,"1945":-0.5614466071128845,"1946":12.010518074035645,"1947":0.2442675679922104,"1948":6.576136112213135,"1949":6.430648326873779,"1950":-1.4660569429397583,"1951":-9.134897232055664,"1952":-1.1801371574401855,"1953":13.995379447937012,"1954":4.1500420570373535,"1955":-3.994068145751953,"1956":-10.112220764160156,"1957":5.765399932861328,"1958":-1.4173678159713745,"1959":-21.882251739501953,"1960":5.236800670623779,"1961":12.639318466186523,"1962":1.8315904140472412,"1963":-10.664793968200684,"1964":2.9369373321533203,"1965":4.1828227043151855,"1966":-3.5953807830810547,"1967":9.901222229003906,"1968":0.49548089504241943,"1969":1.392386794090271,"1970":-1.1293195486068726,"1971":-5.844398021697998,"1972":-3.5867769718170166,"1973":-2.174131393432617,"1974":4.92112398147583,"1975":4.783436298370361,"1976":-2.805225133895874,"1977":-8.513681411743164,"1978":9.742769241333008,"1979":-0.5797178149223328}},"hiddenLayers":[{"inputMatrix":{"rows":20,"columns":44,"weights":{"0":-1.4003194570541382,"1":-0.0378744900226593,"2":-0.13851122558116913,"3":0.06663477420806885,"4":-2.052388906478882,"5":-2.336479902267456,"6":-0.9547054767608643,"7":-0.48388466238975525,"8":-1.8210581541061401,"9":-0.2148837000131607,"10":-1.0955811738967896,"11":0.8823519349098206,"12":-1.2159395217895508,"13":0.8415297269821167,"14":-3.022749662399292,"15":-1.4687837362289429,"16":0.9450618624687195,"17":-0.9272953867912292,"18":1.1983639001846313,"19":0.5153363943099976,"20":-0.7732604146003723,"21":0.4541962444782257,"22":-1.3967444896697998,"23":-1.5374585390090942,"24":2.594904899597168,"25":0.6389548778533936,"26":-1.7830206155776978,"27":0.1610926240682602,"28":-0.5268970727920532,"29":1.2212835550308228,"30":1.3364572525024414,"31":0.5196122527122498,"32":-0.6125389933586121,"33":0.41332685947418213,"34":1.8977464437484741,"35":-1.693090558052063,"36":-0.5364835858345032,"37":0.5056188702583313,"38":0.1653168946504593,"39":0.31304842233657837,"40":-1.041694164276123,"41":-0.035881392657756805,"42":-1.330612301826477,"43":0.5165091753005981,"44":1.9653091430664062,"45":-0.47428032755851746,"46":-1.1373506784439087,"47":-0.7065526843070984,"48":0.8646780252456665,"49":0.10781168937683105,"50":1.4174389839172363,"51":0.11404269933700562,"52":2.023468017578125,"53":0.056985028088092804,"54":-0.2871271073818207,"55":0.6265605092048645,"56":0.9071626663208008,"57":-1.813794732093811,"58":1.8557608127593994,"59":0.47555193305015564,"60":-2.207754135131836,"61":-0.036050088703632355,"62":-0.5798420906066895,"63":0.10650476068258286,"64":-0.7610011100769043,"65":1.224331259727478,"66":-1.6357287168502808,"67":0.21783065795898438,"68":-2.628300428390503,"69":-0.5070680975914001,"70":-0.24292217195034027,"71":1.3303459882736206,"72":0.6759660243988037,"73":1.3997368812561035,"74":-0.5384961366653442,"75":0.3748946785926819,"76":1.1037006378173828,"77":0.43564820289611816,"78":-2.534254550933838,"79":0.4845694899559021,"80":-0.030969887971878052,"81":0.49626803398132324,"82":0.7843191027641296,"83":-2.4290525913238525,"84":0.8642585873603821,"85":-1.8374664783477783,"86":-0.9584625363349915,"87":0.027660712599754333,"88":-0.2374848872423172,"89":-0.6941035985946655,"90":1.5170494318008423,"91":-1.002442717552185,"92":1.8294949531555176,"93":0.5984910130500793,"94":-0.3570055365562439,"95":0.22366999089717865,"96":-1.009495496749878,"97":1.487165093421936,"98":-0.469330757856369,"99":-0.9172731041908264,"100":1.6386473178863525,"101":1.2256689071655273,"102":-0.49796682596206665,"103":2.8461482524871826,"104":0.25909024477005005,"105":-1.6493127346038818,"106":2.75728178024292,"107":1.8998148441314697,"108":-0.8140828013420105,"109":-0.669624924659729,"110":0.01785939373075962,"111":0.4254688620567322,"112":2.1082403659820557,"113":-0.24230894446372986,"114":-0.4385042190551758,"115":1.8755502700805664,"116":1.263013482093811,"117":-2.134516954421997,"118":-1.2172560691833496,"119":1.2255617380142212,"120":0.5405956506729126,"121":-1.1400240659713745,"122":2.577256441116333,"123":1.8606054782867432,"124":-0.06891833990812302,"125":3.059776782989502,"126":-1.7545137405395508,"127":-0.21786300837993622,"128":2.4345834255218506,"129":1.4880844354629517,"130":-0.4929700195789337,"131":-0.31729888916015625,"132":0.10066625475883484,"133":0.19854234158992767,"134":-0.5975874662399292,"135":-0.5682665109634399,"136":-2.070453643798828,"137":-1.7105799913406372,"138":-0.38981929421424866,"139":0.10249857604503632,"140":-0.6464428305625916,"141":-0.5263221263885498,"142":-1.0090340375900269,"143":1.0497888326644897,"144":-0.8799237012863159,"145":1.2929284572601318,"146":-0.2778047025203705,"147":0.13495704531669617,"148":1.1437772512435913,"149":-0.5569930672645569,"150":0.6083734035491943,"151":-0.07749306410551071,"152":-0.37369754910469055,"153":0.6824591159820557,"154":-0.7089887857437134,"155":-1.5073587894439697,"156":-1.1126571893692017,"157":0.3143596649169922,"158":-2.3210954666137695,"159":-1.0331860780715942,"160":0.88474041223526,"161":1.3327395915985107,"162":-0.12772208452224731,"163":2.005924701690674,"164":-1.855828881263733,"165":0.42437487840652466,"166":0.240437313914299,"167":-1.288456678390503,"168":-0.4118597209453583,"169":-0.695421576499939,"170":-0.7269424796104431,"171":-1.4391908645629883,"172":0.19669215381145477,"173":-0.20346114039421082,"174":-0.48703092336654663,"175":-1.5872992277145386,"176":1.6555769443511963,"177":-1.1746864318847656,"178":0.8438406586647034,"179":0.49180322885513306,"180":1.0818270444869995,"181":1.2186914682388306,"182":-0.8507458567619324,"183":1.2998006343841553,"184":0.2502858340740204,"185":0.016433319076895714,"186":0.07029461115598679,"187":0.39354407787323,"188":-0.8102484941482544,"189":1.4682228565216064,"190":1.4024659395217896,"191":1.7714920043945312,"192":1.180319905281067,"193":-0.9731537699699402,"194":-1.3373690843582153,"195":0.69978266954422,"196":-0.35680708289146423,"197":1.364578366279602,"198":0.42014947533607483,"199":-1.2638620138168335,"200":2.9186744689941406,"201":1.584519624710083,"202":-1.1774191856384277,"203":-0.12079928815364838,"204":0.055218301713466644,"205":-2.2306106090545654,"206":-1.9631166458129883,"207":0.07792188972234726,"208":-1.493476152420044,"209":-2.734705686569214,"210":0.4231497049331665,"211":1.654839038848877,"212":-0.6167570352554321,"213":1.3555635213851929,"214":1.6225991249084473,"215":2.545863151550293,"216":0.16917674243450165,"217":-0.49316585063934326,"218":2.251427173614502,"219":-0.317473441362381,"220":0.5485392808914185,"221":-1.2946743965148926,"222":0.7212346792221069,"223":0.43310049176216125,"224":1.6940561532974243,"225":0.34005555510520935,"226":-2.4412147998809814,"227":0.15922188758850098,"228":0.31167715787887573,"229":1.2014107704162598,"230":-0.6836270689964294,"231":-0.7962477803230286,"232":0.7556517124176025,"233":-0.7132281064987183,"234":1.710618495941162,"235":3.0153775215148926,"236":-0.9670442342758179,"237":0.84870445728302,"238":0.11099861562252045,"239":0.738953709602356,"240":0.33616799116134644,"241":0.3815438449382782,"242":1.505196213722229,"243":-1.1343014240264893,"244":-1.6081825494766235,"245":1.3509193658828735,"246":0.31136074662208557,"247":0.4289911091327667,"248":-0.8225478529930115,"249":-0.5423592329025269,"250":-0.9778504967689514,"251":-0.24199935793876648,"252":0.6158145070075989,"253":-1.426756501197815,"254":-0.7795366048812866,"255":0.5314871072769165,"256":1.8096754550933838,"257":1.2257370948791504,"258":0.31534841656684875,"259":0.4000648260116577,"260":-0.26035094261169434,"261":0.8888001441955566,"262":2.1929233074188232,"263":0.34371477365493774,"264":1.8361797332763672,"265":1.018004298210144,"266":-1.7470909357070923,"267":1.7671048641204834,"268":-0.9766483902931213,"269":1.89505136013031,"270":-0.09016630053520203,"271":-0.5448575615882874,"272":1.3929367065429688,"273":-1.6256251335144043,"274":0.6071339845657349,"275":0.5006603598594666,"276":0.36729463934898376,"277":1.0560030937194824,"278":0.48025569319725037,"279":1.4612460136413574,"280":0.7104633450508118,"281":1.116957187652588,"282":-0.6544888615608215,"283":1.5349549055099487,"284":0.6196547746658325,"285":-0.3104843199253082,"286":-1.6028668880462646,"287":-1.1252448558807373,"288":0.16706056892871857,"289":0.47549599409103394,"290":0.2878054678440094,"291":0.8144974112510681,"292":-0.6104299426078796,"293":0.31025630235671997,"294":-1.1731609106063843,"295":-0.91036057472229,"296":-0.7638786435127258,"297":1.9374910593032837,"298":-2.1150472164154053,"299":-1.8298568725585938,"300":-0.33742693066596985,"301":-0.6336904168128967,"302":0.2976332902908325,"303":-1.4617383480072021,"304":1.5737240314483643,"305":-0.9308255910873413,"306":-0.7532923817634583,"307":-1.420271396636963,"308":0.5284521579742432,"309":0.4516246020793915,"310":-1.1566717624664307,"311":-0.03797624260187149,"312":0.03567437827587128,"313":0.5646207332611084,"314":0.4370114207267761,"315":0.23871362209320068,"316":1.6043609380722046,"317":-3.066261053085327,"318":0.6939241290092468,"319":1.4578834772109985,"320":-0.37948888540267944,"321":0.8428773880004883,"322":0.5517224073410034,"323":-1.0561453104019165,"324":1.0320830345153809,"325":-0.6196287870407104,"326":-0.1640561819076538,"327":-0.908873975276947,"328":0.07947498559951782,"329":-1.7137342691421509,"330":-1.2043728828430176,"331":0.2023339569568634,"332":0.41440248489379883,"333":1.09273362159729,"334":-1.3153690099716187,"335":-0.825494110584259,"336":-0.6903281807899475,"337":-0.10113149136304855,"338":-0.28128066658973694,"339":-0.30560940504074097,"340":-2.1106154918670654,"341":-0.7445136308670044,"342":-2.006909132003784,"343":-0.0809386745095253,"344":-1.118443489074707,"345":0.7906345725059509,"346":0.7622955441474915,"347":1.2912815809249878,"348":0.24154335260391235,"349":-0.3280799984931946,"350":-0.1407681703567505,"351":-1.6700297594070435,"352":-1.0807162523269653,"353":0.8123417496681213,"354":1.042803168296814,"355":0.49350619316101074,"356":0.5608104467391968,"357":1.1149828433990479,"358":-1.5130934715270996,"359":-0.04007534682750702,"360":-3.0315239429473877,"361":1.8560248613357544,"362":-1.6552281379699707,"363":-2.6368916034698486,"364":-0.7884028553962708,"365":-0.019219297915697098,"366":0.36410200595855713,"367":1.8065900802612305,"368":-0.11058642715215683,"369":0.3163905143737793,"370":-0.22024062275886536,"371":-0.3063902258872986,"372":2.2995760440826416,"373":0.2905452251434326,"374":-0.5372845530509949,"375":-0.4017563462257385,"376":-1.745560884475708,"377":0.5940054059028625,"378":-1.3029338121414185,"379":0.37317681312561035,"380":-0.7029463648796082,"381":0.8075213432312012,"382":-0.37509286403656006,"383":-0.05157189443707466,"384":-0.36358433961868286,"385":0.2718203663825989,"386":-0.6091292500495911,"387":-1.0588163137435913,"388":3.0211734771728516,"389":-0.22611314058303833,"390":-0.2865256369113922,"391":-1.285973310470581,"392":0.6178507208824158,"393":0.6604930758476257,"394":1.2323429584503174,"395":0.8522394299507141,"396":-0.4770257771015167,"397":0.136650949716568,"398":2.8081161975860596,"399":0.7574825882911682,"400":-0.6863396763801575,"401":-0.636066734790802,"402":0.12791261076927185,"403":-0.3851807415485382,"404":-2.26705265045166,"405":2.669403314590454,"406":0.6514700055122375,"407":-1.9842867851257324,"408":-0.2722882628440857,"409":0.1846502274274826,"410":-0.7715590000152588,"411":1.192750334739685,"412":-0.42353197932243347,"413":-0.745625376701355,"414":0.4449460804462433,"415":0.36169567704200745,"416":-0.886295735836029,"417":-0.9651806354522705,"418":0.9126901030540466,"419":-0.42009836435317993,"420":0.552312970161438,"421":1.002669334411621,"422":-0.4856383502483368,"423":-1.6744468212127686,"424":-1.1169884204864502,"425":-3.109666109085083,"426":-0.26736098527908325,"427":-1.8982986211776733,"428":0.6966996788978577,"429":-0.25343427062034607,"430":-1.7346216440200806,"431":1.2278509140014648,"432":0.10820812731981277,"433":1.898413062095642,"434":-0.08938702195882797,"435":-0.2851751744747162,"436":-0.39612269401550293,"437":0.4339834749698639,"438":1.6585544347763062,"439":0.767179548740387,"440":-0.7223795056343079,"441":-1.6928247213363647,"442":0.07078733295202255,"443":0.4860009253025055,"444":0.6141865253448486,"445":-2.341407299041748,"446":-0.38654518127441406,"447":0.10789064317941666,"448":0.023076532408595085,"449":1.6150133609771729,"450":-0.20197971165180206,"451":0.4084339737892151,"452":0.9400959610939026,"453":1.7618576288223267,"454":0.3213456869125366,"455":0.4199771285057068,"456":1.1997345685958862,"457":-0.12886004149913788,"458":1.0289236307144165,"459":-1.20359206199646,"460":0.45218536257743835,"461":1.051857352256775,"462":1.7189464569091797,"463":0.9785760641098022,"464":1.09255850315094,"465":0.8659061789512634,"466":2.238215208053589,"467":-0.37823325395584106,"468":-0.4378637671470642,"469":-0.915306031703949,"470":-0.48763254284858704,"471":-0.5909947752952576,"472":-1.653921127319336,"473":1.4164942502975464,"474":0.4133146107196808,"475":0.10123682767152786,"476":-2.645606756210327,"477":-0.6268787980079651,"478":0.4218972325325012,"479":0.33745643496513367,"480":1.046582818031311,"481":1.1862543821334839,"482":1.4774407148361206,"483":-1.432595133781433,"484":-1.1267001628875732,"485":-0.4638437330722809,"486":0.3856813609600067,"487":0.7783806324005127,"488":1.3306310176849365,"489":1.2767099142074585,"490":-0.4156927764415741,"491":0.6127075552940369,"492":-0.6932207942008972,"493":0.8293797969818115,"494":-0.5525740385055542,"495":0.2735433578491211,"496":-0.9121421575546265,"497":1.2756036520004272,"498":-0.7413095831871033,"499":-1.851902723312378,"500":0.6739709973335266,"501":-0.6276103854179382,"502":0.8602132201194763,"503":-1.0896862745285034,"504":-0.519929051399231,"505":-0.04864046350121498,"506":-1.522934079170227,"507":-1.5004565715789795,"508":2.2851834297180176,"509":2.0009896755218506,"510":-1.1337895393371582,"511":-0.6448248624801636,"512":0.00713378144428134,"513":-0.9361960887908936,"514":0.3090745210647583,"515":0.18154452741146088,"516":-0.8928622603416443,"517":-0.19104883074760437,"518":0.3728924095630646,"519":0.4765036106109619,"520":0.12021176517009735,"521":-0.03910592198371887,"522":0.8146759271621704,"523":0.8811842203140259,"524":-0.1431213915348053,"525":0.151937335729599,"526":1.0457106828689575,"527":0.3663174510002136,"528":-0.6241143941879272,"529":-1.6136555671691895,"530":-1.2851272821426392,"531":-0.642771303653717,"532":-2.374230146408081,"533":0.8208385705947876,"534":0.8946704268455505,"535":-0.5285322666168213,"536":1.7020854949951172,"537":-1.4596078395843506,"538":0.8403917551040649,"539":2.3223767280578613,"540":0.8749280571937561,"541":0.548380434513092,"542":1.832629680633545,"543":-1.4308565855026245,"544":1.6124598979949951,"545":0.6815260648727417,"546":0.17416386306285858,"547":0.6477510929107666,"548":-0.7383147478103638,"549":0.011432527564466,"550":0.286115825176239,"551":-0.08869659900665283,"552":-1.2095472812652588,"553":0.4577322006225586,"554":0.756135106086731,"555":-0.2251145839691162,"556":1.0922859907150269,"557":0.7166560292243958,"558":-0.19629451632499695,"559":-0.8594899773597717,"560":-0.3989174962043762,"561":1.2318637371063232,"562":-2.110133171081543,"563":0.32028940320014954,"564":-1.2692450284957886,"565":-0.5034113526344299,"566":2.527984380722046,"567":0.09321283549070358,"568":0.20498180389404297,"569":-0.6251937747001648,"570":-0.6709277629852295,"571":0.38082972168922424,"572":0.2320374995470047,"573":0.7501338720321655,"574":-0.9717938303947449,"575":2.1638381481170654,"576":-0.5041472911834717,"577":2.3483598232269287,"578":-0.4793018698692322,"579":0.3553386926651001,"580":1.5768797397613525,"581":-0.4202294647693634,"582":3.8805572986602783,"583":-1.5948046445846558,"584":1.623042345046997,"585":-1.9978086948394775,"586":1.180530309677124,"587":-1.2315219640731812,"588":-2.173269033432007,"589":2.1823410987854004,"590":1.8113534450531006,"591":0.8534603714942932,"592":-0.25061461329460144,"593":-0.6486305594444275,"594":-1.0702731609344482,"595":0.9905672669410706,"596":-0.8677665591239929,"597":-0.9917929768562317,"598":-0.283735990524292,"599":0.9225189089775085,"600":-0.6956648826599121,"601":0.9493077397346497,"602":-0.5198026299476624,"603":-1.1377419233322144,"604":-0.3956528604030609,"605":-0.7354452610015869,"606":-1.458607792854309,"607":-1.2135400772094727,"608":1.5498148202896118,"609":-0.023104578256607056,"610":-0.9271777272224426,"611":0.19676128029823303,"612":-0.9003962874412537,"613":-0.7376859784126282,"614":-0.2881411910057068,"615":1.5963542461395264,"616":-0.9701514840126038,"617":0.5185768008232117,"618":0.3835008442401886,"619":-0.06074770167469978,"620":-0.6320933103561401,"621":-0.9739096164703369,"622":0.3865656554698944,"623":-0.7812221646308899,"624":-1.1205706596374512,"625":-0.3705021142959595,"626":-0.05440191179513931,"627":0.8939903974533081,"628":0.10392208397388458,"629":0.9005557298660278,"630":-1.4697099924087524,"631":-0.15349441766738892,"632":0.6200131177902222,"633":-0.17350195348262787,"634":-0.28108951449394226,"635":0.34473687410354614,"636":-0.1866198033094406,"637":0.7180601954460144,"638":0.7213811278343201,"639":-1.5090630054473877,"640":1.8954873085021973,"641":0.2489645630121231,"642":-0.9541981816291809,"643":-2.1157522201538086,"644":1.0043233633041382,"645":0.7309171557426453,"646":1.0140900611877441,"647":2.2514638900756836,"648":-0.17593681812286377,"649":-0.5376394391059875,"650":1.5207421779632568,"651":-1.1727478504180908,"652":-0.523506224155426,"653":-0.8018872141838074,"654":-0.45243361592292786,"655":-1.7756153345108032,"656":0.3887419104576111,"657":0.09240477532148361,"658":-0.09860742092132568,"659":-1.236497163772583,"660":0.24432088434696198,"661":0.7182713747024536,"662":-1.853672742843628,"663":0.43624117970466614,"664":-1.0282186269760132,"665":2.1516101360321045,"666":-0.8949728012084961,"667":-1.3897866010665894,"668":1.2220509052276611,"669":-1.1007550954818726,"670":2.5805952548980713,"671":0.9760801196098328,"672":1.063926339149475,"673":0.8126316070556641,"674":-0.7221291661262512,"675":-1.0414471626281738,"676":1.3306094408035278,"677":1.3689709901809692,"678":0.1109808087348938,"679":1.3976365327835083,"680":0.484993577003479,"681":-1.2510218620300293,"682":-0.3252502977848053,"683":0.6320548057556152,"684":0.8413988351821899,"685":-0.9938589930534363,"686":0.41615068912506104,"687":-1.1118170022964478,"688":-0.9419964551925659,"689":-0.1773747205734253,"690":0.15916708111763,"691":-2.0607070922851562,"692":-1.4540733098983765,"693":1.288978934288025,"694":-1.6037973165512085,"695":-0.7117639780044556,"696":-1.7151392698287964,"697":-1.3920596837997437,"698":-0.7198387980461121,"699":0.5633371472358704,"700":-2.222836494445801,"701":-1.639247179031372,"702":-0.24519182741641998,"703":-0.5277974009513855,"704":0.06958657503128052,"705":0.08654257655143738,"706":-1.250383734703064,"707":0.0075558810494840145,"708":-0.3980678915977478,"709":2.4760942459106445,"710":-1.0947648286819458,"711":-1.2697113752365112,"712":0.9435526132583618,"713":-1.6769152879714966,"714":-0.14533525705337524,"715":0.8691734671592712,"716":1.4939470291137695,"717":-0.13899871706962585,"718":0.9065899848937988,"719":0.1676098108291626,"720":0.19663801789283752,"721":0.8063918352127075,"722":1.3363432884216309,"723":0.4193413555622101,"724":0.3948086202144623,"725":-0.0022694724611938,"726":-0.4978238642215729,"727":-0.3530138432979584,"728":-0.506658136844635,"729":0.06033487617969513,"730":-1.9862830638885498,"731":-0.8827822208404541,"732":-0.8279973268508911,"733":0.15096905827522278,"734":0.15376494824886322,"735":0.41176795959472656,"736":0.6249544024467468,"737":0.05502602830529213,"738":-0.9559768438339233,"739":-0.08115299046039581,"740":-0.43176743388175964,"741":-1.7296102046966553,"742":0.7934898734092712,"743":-1.7571024894714355,"744":0.6072163581848145,"745":-0.19079262018203735,"746":0.9371979236602783,"747":0.3516441583633423,"748":-0.6366803050041199,"749":0.5271516442298889,"750":-0.6629301905632019,"751":-0.8821668028831482,"752":0.530811071395874,"753":-1.033926010131836,"754":-0.2369360327720642,"755":0.6741511225700378,"756":0.4938731789588928,"757":0.4122256636619568,"758":-1.6500755548477173,"759":-0.9574479460716248,"760":1.4280215501785278,"761":-1.8240739107131958,"762":1.747239112854004,"763":0.9532865881919861,"764":-1.0249923467636108,"765":0.4884999096393585,"766":1.638334035873413,"767":-1.6271063089370728,"768":2.102637529373169,"769":-1.0456033945083618,"770":-0.3602312505245209,"771":-1.2883737087249756,"772":-3.3119733333587646,"773":-0.662864089012146,"774":-0.19240780174732208,"775":-1.131429672241211,"776":0.09822823852300644,"777":1.4256401062011719,"778":0.22789549827575684,"779":0.7493681907653809,"780":0.41131168603897095,"781":1.7154711484909058,"782":-0.862572431564331,"783":-0.18149515986442566,"784":0.8994397521018982,"785":-1.1112834215164185,"786":-1.4536149501800537,"787":-4.107902526855469,"788":0.365259051322937,"789":-0.03172070533037186,"790":-0.19258487224578857,"791":0.5997878313064575,"792":2.4775729179382324,"793":0.45668724179267883,"794":-0.23304109275341034,"795":0.0033395374193787575,"796":0.023649808019399643,"797":1.7123384475708008,"798":0.08578314632177353,"799":-1.2882903814315796,"800":2.2359776496887207,"801":-1.501982569694519,"802":-0.25473493337631226,"803":0.07507213950157166,"804":0.9724467396736145,"805":-0.637541651725769,"806":4.268251895904541,"807":0.7841425538063049,"808":-0.2786610424518585,"809":0.504326343536377,"810":-0.6140132546424866,"811":0.6633509397506714,"812":0.40519294142723083,"813":0.007207031361758709,"814":-0.5674715638160706,"815":0.47646963596343994,"816":-2.805385112762451,"817":-1.0742855072021484,"818":-0.08160322159528732,"819":0.5925479531288147,"820":-0.41724079847335815,"821":0.38838428258895874,"822":-0.82618248462677,"823":-0.6734181046485901,"824":0.17128364741802216,"825":0.2235766351222992,"826":-1.0957285165786743,"827":-0.400761216878891,"828":0.38068723678588867,"829":-0.6081717610359192,"830":-0.13131847977638245,"831":-2.4890663623809814,"832":-0.5553685426712036,"833":-0.6522325873374939,"834":-1.1039866209030151,"835":0.6029791831970215,"836":-1.2833240032196045,"837":0.48131194710731506,"838":0.09393517673015594,"839":-1.4461051225662231,"840":0.44835805892944336,"841":-2.4606988430023193,"842":1.8142058849334717,"843":0.5218290090560913,"844":-1.2030234336853027,"845":0.7625356316566467,"846":-0.5752256512641907,"847":0.4687996804714203,"848":-0.11358516663312912,"849":-1.288914680480957,"850":0.4750860035419464,"851":-1.3759750127792358,"852":-1.4082666635513306,"853":0.7995712161064148,"854":-0.2573811709880829,"855":-2.5494225025177,"856":0.263736754655838,"857":0.2546910345554352,"858":-0.5894258618354797,"859":-0.1929086148738861,"860":-1.1073694229125977,"861":-1.561142921447754,"862":-0.5382146239280701,"863":0.10212002694606781,"864":0.5680772662162781,"865":1.5628999471664429,"866":0.6421176195144653,"867":0.9547611474990845,"868":0.8323773145675659,"869":0.4765428900718689,"870":1.554775595664978,"871":-0.7635510563850403,"872":1.1762135028839111,"873":-0.8160862922668457,"874":-3.0334625244140625,"875":0.5534532070159912,"876":0.7189714312553406,"877":-0.25015586614608765,"878":-1.7066326141357422,"879":0.17628656327724457}},"inputHidden":{"rows":20,"columns":20,"weights":{"0":3.281149387359619,"1":-3.172254800796509,"2":2.408097743988037,"3":-1.5011225938796997,"4":-2.4436469078063965,"5":-0.1379704475402832,"6":-0.41519004106521606,"7":2.5765204429626465,"8":-0.33095139265060425,"9":0.7868672609329224,"10":-0.8691160082817078,"11":2.6360561847686768,"12":0.2622763514518738,"13":-1.8575308322906494,"14":1.4765938520431519,"15":0.7575026154518127,"16":0.018562959507107735,"17":-0.4177863299846649,"18":0.11782598495483398,"19":2.4426109790802,"20":-0.08113135397434235,"21":-1.2908235788345337,"22":-0.23201116919517517,"23":-0.833465576171875,"24":-0.8803824782371521,"25":0.031858593225479126,"26":-1.1395041942596436,"27":0.6468862891197205,"28":-1.2710795402526855,"29":-3.149935245513916,"30":0.6251024603843689,"31":-1.1523516178131104,"32":1.7202999591827393,"33":0.5766785740852356,"34":-0.4832563102245331,"35":1.690305471420288,"36":-0.8810752630233765,"37":4.151912212371826,"38":0.6908568143844604,"39":-3.9147050380706787,"40":-3.9519290924072266,"41":1.666094422340393,"42":-0.80419921875,"43":0.07800442725419998,"44":1.1372960805892944,"45":0.5964176654815674,"46":1.0922654867172241,"47":-0.8804999589920044,"48":1.0519084930419922,"49":2.1525418758392334,"50":0.9889048933982849,"51":-1.552625298500061,"52":-1.8862617015838623,"53":0.6424525380134583,"54":0.1564345359802246,"55":-3.834606885910034,"56":-0.36748602986335754,"57":-1.364658236503601,"58":-0.47305357456207275,"59":-0.2496616393327713,"60":-0.7860488295555115,"61":3.8829586505889893,"62":-0.5004684925079346,"63":3.3427658081054688,"64":1.180450677871704,"65":0.6927968859672546,"66":2.4112093448638916,"67":1.7825398445129395,"68":2.1129257678985596,"69":2.2735629081726074,"70":-0.44132617115974426,"71":-1.328622579574585,"72":-3.239462375640869,"73":1.969378113746643,"74":-1.4967271089553833,"75":-3.6895158290863037,"76":0.3107438385486603,"77":-2.9505577087402344,"78":-4.49284029006958,"79":-3.1351771354675293,"80":0.4416762590408325,"81":-0.5605468153953552,"82":0.43424391746520996,"83":1.7851738929748535,"84":-1.298844814300537,"85":-1.520253300666809,"86":2.7485828399658203,"87":0.9560843110084534,"88":3.547914743423462,"89":0.6891382932662964,"90":-1.4198596477508545,"91":-2.156252384185791,"92":-0.7674431204795837,"93":1.384321689605713,"94":-1.2586294412612915,"95":-3.3560755252838135,"96":-1.0613090991973877,"97":-0.6638482213020325,"98":3.458803415298462,"99":2.2336902618408203,"100":-0.5573441982269287,"101":1.0346705913543701,"102":1.7552279233932495,"103":-0.3312602937221527,"104":-1.1918351650238037,"105":-1.0399311780929565,"106":0.2975143492221832,"107":-0.8342068195343018,"108":2.818727493286133,"109":1.6890889406204224,"110":1.6669524908065796,"111":-0.7750904560089111,"112":-0.31916794180870056,"113":-1.3547593355178833,"114":-0.7937338352203369,"115":1.205614686012268,"116":-0.9596946239471436,"117":-2.586317300796509,"118":0.9477154612541199,"119":-1.060903549194336,"120":-1.6838163137435913,"121":1.5933191776275635,"122":0.17759764194488525,"123":4.174306869506836,"124":-0.6170746684074402,"125":-1.558050274848938,"126":-0.27942052483558655,"127":0.5326950550079346,"128":1.270493507385254,"129":-0.6826744079589844,"130":-4.02735710144043,"131":-1.776960849761963,"132":0.682635486125946,"133":-0.44363847374916077,"134":1.687734842300415,"135":0.11594023555517197,"136":-1.820554494857788,"137":-0.8594406843185425,"138":-0.3551073670387268,"139":0.3359575867652893,"140":-2.119453191757202,"141":0.6186559796333313,"142":3.7270290851593018,"143":0.7285991907119751,"144":-0.4595220386981964,"145":-0.3233495354652405,"146":-1.4975714683532715,"147":-2.3849806785583496,"148":-0.4038029909133911,"149":3.027390956878662,"150":2.198735237121582,"151":1.4980546236038208,"152":-2.1174471378326416,"153":-1.6250256299972534,"154":-3.40000057220459,"155":-1.5892972946166992,"156":1.0419960021972656,"157":-1.8691864013671875,"158":-1.6770700216293335,"159":-2.1568493843078613,"160":0.4270625710487366,"161":1.4930936098098755,"162":0.25399401783943176,"163":0.44770926237106323,"164":-1.6570154428482056,"165":-1.4641414880752563,"166":1.2454147338867188,"167":0.06581395119428635,"168":-1.0546125173568726,"169":1.5329992771148682,"170":-2.290955066680908,"171":1.364088773727417,"172":0.4140821099281311,"173":-1.8885507583618164,"174":1.14784836769104,"175":-1.2083618640899658,"176":-1.2642401456832886,"177":-1.3707250356674194,"178":0.2717280983924866,"179":2.7402853965759277,"180":3.474639415740967,"181":-0.7176213264465332,"182":-0.6767507791519165,"183":4.228068828582764,"184":2.4782555103302,"185":3.3497538566589355,"186":-0.462361603975296,"187":1.7341228723526,"188":1.0038412809371948,"189":-0.958613932132721,"190":1.8848670721054077,"191":0.11742112040519714,"192":0.15940582752227783,"193":-0.3630257546901703,"194":0.9482081532478333,"195":0.13796405494213104,"196":0.3557024896144867,"197":-1.1520781517028809,"198":1.9370708465576172,"199":0.5279937982559204,"200":-3.0890755653381348,"201":-0.25069475173950195,"202":0.8039512634277344,"203":1.907832384109497,"204":0.7195954918861389,"205":-4.645825386047363,"206":-2.0125391483306885,"207":0.5857840180397034,"208":-2.3970441818237305,"209":-1.092750906944275,"210":-2.7207281589508057,"211":-2.686040163040161,"212":3.1545510292053223,"213":-1.0440268516540527,"214":1.2545524835586548,"215":-0.5069716572761536,"216":-2.1088898181915283,"217":-1.4338843822479248,"218":-1.1963354349136353,"219":-0.21005350351333618,"220":-1.3220171928405762,"221":-3.1541454792022705,"222":-2.430527925491333,"223":3.6320271492004395,"224":4.806638240814209,"225":1.1646414995193481,"226":4.167815685272217,"227":6.348357200622559,"228":-1.3599025011062622,"229":-2.1887927055358887,"230":-4.87004280090332,"231":-0.09795945882797241,"232":1.2324808835983276,"233":0.09837360680103302,"234":-0.7610334157943726,"235":-1.419711709022522,"236":-0.3918152451515198,"237":-0.3673941493034363,"238":1.8001621961593628,"239":1.754018783569336,"240":2.6061689853668213,"241":5.19215202331543,"242":1.2097628116607666,"243":-1.1049121618270874,"244":-2.5573134422302246,"245":-1.7586780786514282,"246":-0.9992815852165222,"247":0.9440173506736755,"248":-2.423739194869995,"249":-1.2124005556106567,"250":-3.2770419120788574,"251":1.684910774230957,"252":0.39337944984436035,"253":2.223348379135132,"254":2.195439100265503,"255":-4.593773365020752,"256":1.8933995962142944,"257":-1.5354434251785278,"258":5.050501823425293,"259":1.549784779548645,"260":-1.4288129806518555,"261":0.5639325976371765,"262":0.18731920421123505,"263":-0.7366706728935242,"264":-1.2756097316741943,"265":1.013634204864502,"266":2.267580986022949,"267":-2.318669080734253,"268":0.47690585255622864,"269":-0.3251120150089264,"270":0.25928398966789246,"271":-0.4951237142086029,"272":-2.2211925983428955,"273":1.1499513387680054,"274":0.19402864575386047,"275":-0.6019672155380249,"276":-0.40755149722099304,"277":-3.3684732913970947,"278":2.4347331523895264,"279":-0.724735677242279,"280":0.2699350118637085,"281":-1.0399984121322632,"282":1.284020185470581,"283":-0.4701032340526581,"284":4.251670837402344,"285":2.3509697914123535,"286":-1.3774726390838623,"287":3.0151689052581787,"288":0.687425971031189,"289":2.267110586166382,"290":-3.0481796264648438,"291":-1.3933656215667725,"292":-2.6848268508911133,"293":-2.4567222595214844,"294":1.7369552850723267,"295":-2.2241454124450684,"296":1.3275203704833984,"297":-3.700930595397949,"298":-1.244621992111206,"299":5.504502296447754,"300":-0.8277790546417236,"301":2.061964750289917,"302":1.7355161905288696,"303":-0.44135111570358276,"304":-0.31220656633377075,"305":-0.39445120096206665,"306":-2.1826670169830322,"307":1.0541437864303589,"308":-0.9827919006347656,"309":-1.2233387231826782,"310":-0.26362890005111694,"311":1.075520634651184,"312":-1.0847067832946777,"313":1.404620885848999,"314":1.2155064344406128,"315":-0.3668203055858612,"316":-1.0819956064224243,"317":1.537339448928833,"318":2.176218271255493,"319":0.9447348117828369,"320":-1.7225881814956665,"321":-0.7044855356216431,"322":1.2255781888961792,"323":-1.5784388780593872,"324":-7.030440330505371,"325":-1.6671671867370605,"326":-2.1742746829986572,"327":0.9424089789390564,"328":0.6175129413604736,"329":3.205307960510254,"330":1.285023808479309,"331":2.019033193588257,"332":0.9749696850776672,"333":-1.528330683708191,"334":-0.7580062747001648,"335":-1.2196420431137085,"336":-0.6076418161392212,"337":-2.2798290252685547,"338":0.5474542379379272,"339":-0.6253923773765564,"340":-2.806737184524536,"341":-2.384023427963257,"342":-1.9118976593017578,"343":-0.13894659280776978,"344":-3.02629017829895,"345":0.853202223777771,"346":0.31216904520988464,"347":2.7914626598358154,"348":-2.3733110427856445,"349":-1.2980360984802246,"350":2.415757179260254,"351":-1.8131544589996338,"352":-0.6543897390365601,"353":1.59170401096344,"354":-1.346359133720398,"355":1.142034888267517,"356":-1.7430312633514404,"357":2.290740966796875,"358":1.308671236038208,"359":-0.8545970916748047,"360":0.8221192359924316,"361":-0.21200187504291534,"362":0.06976795196533203,"363":-0.1057160496711731,"364":0.5192511677742004,"365":-0.06256997585296631,"366":1.75227952003479,"367":1.199812889099121,"368":2.1256468296051025,"369":0.28751087188720703,"370":-0.4967789947986603,"371":0.16181665658950806,"372":1.4768431186676025,"373":-0.6429222822189331,"374":-0.45073384046554565,"375":-0.7135797142982483,"376":-2.2436270713806152,"377":-0.6356908679008484,"378":-2.554769992828369,"379":-1.6585211753845215,"380":0.6943405866622925,"381":2.296968936920166,"382":-0.037455879151821136,"383":-0.11954246461391449,"384":-1.6534364223480225,"385":2.836550712585449,"386":-1.3653709888458252,"387":0.5234646201133728,"388":1.4217888116836548,"389":0.8508517742156982,"390":-2.1522812843322754,"391":0.5686572790145874,"392":0.49412018060684204,"393":-0.28542396426200867,"394":-0.571715235710144,"395":-1.3492051362991333,"396":0.46219366788864136,"397":0.8770597577095032,"398":2.0266103744506836,"399":0.5038893818855286}},"inputBias":{"rows":20,"columns":1,"weights":{"0":1.097646951675415,"1":0.00244601396843791,"2":0.45563581585884094,"3":-0.5384690165519714,"4":-0.33766523003578186,"5":-0.7878381013870239,"6":0.2024403214454651,"7":0.19348809123039246,"8":-0.39321187138557434,"9":-0.6228788495063782,"10":-0.08328608423471451,"11":-0.008332369849085808,"12":-1.1598860025405884,"13":-0.473888635635376,"14":2.138575792312622,"15":-0.9338181018829346,"16":0.6273408532142639,"17":-0.41119471192359924,"18":-0.49999383091926575,"19":-0.5494235157966614}},"forgetMatrix":{"rows":20,"columns":44,"weights":{"0":2.2931623458862305,"1":1.9242918491363525,"2":-0.551606297492981,"3":0.9736969470977783,"4":0.006449838634580374,"5":0.3028346300125122,"6":2.923887252807617,"7":0.334225594997406,"8":1.0135183334350586,"9":-1.4443016052246094,"10":2.000523328781128,"11":-0.27743420004844666,"12":1.5133804082870483,"13":-0.31587737798690796,"14":1.768364667892456,"15":0.6851688027381897,"16":0.653427243232727,"17":0.5215889811515808,"18":-1.432592749595642,"19":1.137757658958435,"20":0.8280304670333862,"21":-0.12465625256299973,"22":-0.8689592480659485,"23":1.7570644617080688,"24":-0.5635296106338501,"25":-0.7422087788581848,"26":0.05181339010596275,"27":1.5926679372787476,"28":0.09770555794239044,"29":1.164615511894226,"30":-1.9057590961456299,"31":-0.48200491070747375,"32":-0.828450620174408,"33":-0.501850426197052,"34":-0.3764541745185852,"35":-1.1443452835083008,"36":0.3271009027957916,"37":-0.6112128496170044,"38":-1.2523016929626465,"39":0.3455897569656372,"40":-1.97767174243927,"41":-1.636662244796753,"42":-1.0819646120071411,"43":0.1889466941356659,"44":-0.6758103966712952,"45":2.0549609661102295,"46":-2.415663719177246,"47":0.4037471413612366,"48":-0.928857147693634,"49":1.9834818840026855,"50":0.8259317278862,"51":-0.845426082611084,"52":-0.1518436074256897,"53":-2.3265609741210938,"54":0.6390718221664429,"55":1.985872745513916,"56":1.3509677648544312,"57":0.623421847820282,"58":0.42530184984207153,"59":-0.06818446516990662,"60":1.4492192268371582,"61":0.5794959664344788,"62":-0.4185851812362671,"63":0.35027292370796204,"64":0.2918878197669983,"65":-0.039957109838724136,"66":-3.127751111984253,"67":0.804194450378418,"68":-0.762889564037323,"69":-0.8388251066207886,"70":-1.9676207304000854,"71":-0.023838333785533905,"72":-1.3515470027923584,"73":1.398822546005249,"74":-0.9634318947792053,"75":0.6609103083610535,"76":-1.1788183450698853,"77":0.2736969292163849,"78":0.3203447461128235,"79":-1.1313812732696533,"80":-0.6710190176963806,"81":-0.005506871733814478,"82":1.1720964908599854,"83":0.20029287040233612,"84":-0.5476583242416382,"85":-2.342825412750244,"86":-0.013689778745174408,"87":-1.0054309368133545,"88":2.8105275630950928,"89":0.29662951827049255,"90":-0.43788185715675354,"91":-0.7717164158821106,"92":-0.48954468965530396,"93":1.0436698198318481,"94":1.8062938451766968,"95":0.33353787660598755,"96":2.3468263149261475,"97":0.08907654136419296,"98":0.7628671526908875,"99":0.12331820279359818,"100":-0.8196330666542053,"101":1.2742096185684204,"102":0.7023156881332397,"103":1.9939676523208618,"104":1.3796097040176392,"105":-1.2162905931472778,"106":0.1177339032292366,"107":0.00990322045981884,"108":-0.24727657437324524,"109":-0.7604820132255554,"110":-0.5834910869598389,"111":0.10437101125717163,"112":-0.2735530734062195,"113":0.9820147156715393,"114":-0.6513368487358093,"115":0.6077854037284851,"116":-0.001429725787602365,"117":-0.3769804835319519,"118":-0.5952078700065613,"119":0.1433883160352707,"120":-0.8755988478660583,"121":-1.1347272396087646,"122":-0.5457965731620789,"123":0.9570732712745667,"124":-0.7979984879493713,"125":-0.10081981867551804,"126":0.3841610848903656,"127":1.0472787618637085,"128":2.237863779067993,"129":-0.4971902072429657,"130":-1.2349249124526978,"131":-1.6046757698059082,"132":-0.5603509545326233,"133":0.24703212082386017,"134":-0.7819737792015076,"135":0.9459906220436096,"136":0.19064834713935852,"137":-0.6567156910896301,"138":1.0445823669433594,"139":-0.23314033448696136,"140":-0.6175051331520081,"141":-0.38467293977737427,"142":-0.8207358121871948,"143":0.28981468081474304,"144":-0.6082427501678467,"145":1.5327425003051758,"146":-0.6157920956611633,"147":-0.2126232385635376,"148":1.1420392990112305,"149":-0.7923918962478638,"150":0.6101642847061157,"151":-0.07110599428415298,"152":0.07203616201877594,"153":1.342374324798584,"154":-1.977587103843689,"155":-1.5137243270874023,"156":0.37694939970970154,"157":0.0028122474905103445,"158":-1.1698592901229858,"159":0.7241073846817017,"160":1.5122907161712646,"161":2.156068801879883,"162":0.9211312532424927,"163":1.0253092050552368,"164":-1.0141148567199707,"165":3.0768513679504395,"166":0.7849451303482056,"167":-3.0002686977386475,"168":-1.16585373878479,"169":-0.772026538848877,"170":-0.5711575150489807,"171":-2.140921115875244,"172":0.7637739777565002,"173":-0.3529951274394989,"174":-1.131325364112854,"175":-1.672481656074524,"176":2.511812925338745,"177":0.05338660255074501,"178":-0.5838077068328857,"179":0.3934308886528015,"180":0.44981247186660767,"181":0.6628046631813049,"182":1.1400461196899414,"183":1.8717803955078125,"184":3.474519729614258,"185":-2.4137067794799805,"186":2.243208408355713,"187":1.8967514038085938,"188":2.1193184852600098,"189":0.18796393275260925,"190":0.4265912175178528,"191":-2.3360755443573,"192":0.3212931752204895,"193":1.019531488418579,"194":-0.09317432343959808,"195":-0.17097297310829163,"196":-0.18932776153087616,"197":-0.6397808194160461,"198":-0.6494162082672119,"199":0.539135754108429,"200":0.45275840163230896,"201":-0.21501821279525757,"202":1.491782307624817,"203":1.8368927240371704,"204":0.4901604652404785,"205":1.6189745664596558,"206":-0.4258284568786621,"207":0.2842380106449127,"208":-0.33549728989601135,"209":0.11318334192037582,"210":-0.7283006906509399,"211":-0.4645717144012451,"212":-1.4154385328292847,"213":-1.202257513999939,"214":-0.45754075050354004,"215":2.6753790378570557,"216":0.15598952770233154,"217":-1.1603385210037231,"218":-2.112515926361084,"219":-1.3180186748504639,"220":-1.847222924232483,"221":0.8838711977005005,"222":1.874740719795227,"223":-0.36431941390037537,"224":-1.22515070438385,"225":0.9252896308898926,"226":-1.151666283607483,"227":-1.0949091911315918,"228":-1.9476056098937988,"229":2.428739309310913,"230":-1.214337944984436,"231":-0.9872039556503296,"232":0.12278451025485992,"233":-1.9353665113449097,"234":-1.0371179580688477,"235":0.7246310710906982,"236":-1.1413469314575195,"237":-0.041325315833091736,"238":-0.6905802488327026,"239":1.1027052402496338,"240":1.2821662425994873,"241":2.336620807647705,"242":0.14179453253746033,"243":-1.0973001718521118,"244":0.0560341402888298,"245":1.4880367517471313,"246":0.32880231738090515,"247":-0.8582980632781982,"248":-1.6997240781784058,"249":0.21681390702724457,"250":-0.46895864605903625,"251":-0.17684784531593323,"252":1.7248010635375977,"253":1.9672232866287231,"254":1.868574619293213,"255":-0.6046220660209656,"256":1.3904695510864258,"257":-0.27270030975341797,"258":-0.16963472962379456,"259":-0.46824023127555847,"260":0.6876986622810364,"261":0.13845032453536987,"262":-1.278351902961731,"263":0.6884178519248962,"264":-0.7877163887023926,"265":-0.3405880331993103,"266":-0.04989787936210632,"267":-0.33543384075164795,"268":-0.01652466133236885,"269":-0.03997201472520828,"270":0.8355342149734497,"271":0.789013147354126,"272":1.6088603734970093,"273":-0.17080196738243103,"274":2.115328073501587,"275":1.05488121509552,"276":1.7808027267456055,"277":-1.2351515293121338,"278":-0.04562048614025116,"279":-2.8464157581329346,"280":-1.8184432983398438,"281":2.5121984481811523,"282":-0.31387749314308167,"283":-2.1560404300689697,"284":0.08422346413135529,"285":-4.091972827911377,"286":-0.12533816695213318,"287":-0.2528602182865143,"288":-1.5056346654891968,"289":-0.009500122629106045,"290":3.3682706356048584,"291":0.0932137668132782,"292":0.5981771349906921,"293":1.435631275177002,"294":0.11608264595270157,"295":0.9008836150169373,"296":1.8508676290512085,"297":0.07839486747980118,"298":-1.907037377357483,"299":0.35957521200180054,"300":1.6386401653289795,"301":-2.5125973224639893,"302":-2.000943422317505,"303":-0.4522692561149597,"304":0.36333706974983215,"305":-0.1484716534614563,"306":-0.7759151458740234,"307":-1.4646309614181519,"308":-0.4633386433124542,"309":-0.7508276104927063,"310":-1.5705769062042236,"311":0.4618702232837677,"312":-0.4704653024673462,"313":0.5780927538871765,"314":-0.31701305508613586,"315":-1.1557774543762207,"316":1.8222308158874512,"317":0.41975367069244385,"318":0.37523820996284485,"319":0.8227578401565552,"320":0.6963174939155579,"321":2.1529300212860107,"322":0.7025354504585266,"323":-0.8812711238861084,"324":2.2026970386505127,"325":0.871696949005127,"326":0.6481120586395264,"327":0.19806765019893646,"328":-0.6185727715492249,"329":-1.0460948944091797,"330":0.7470250129699707,"331":-0.879734218120575,"332":-1.2120471000671387,"333":-2.84445858001709,"334":0.35926875472068787,"335":0.5377377867698669,"336":0.5543557405471802,"337":1.9828587770462036,"338":1.0830715894699097,"339":-0.8839967846870422,"340":-1.3777291774749756,"341":1.6973843574523926,"342":-0.7516307830810547,"343":-1.4225417375564575,"344":-2.7400574684143066,"345":-1.892853021621704,"346":2.0234994888305664,"347":-0.7774029970169067,"348":1.240078091621399,"349":0.7577649354934692,"350":1.2295233011245728,"351":0.10516984760761261,"352":-0.4775408208370209,"353":-0.24610958993434906,"354":-0.9132468104362488,"355":-0.9890310764312744,"356":-0.8076874017715454,"357":0.016387831419706345,"358":1.0551204681396484,"359":0.43098461627960205,"360":-0.633158266544342,"361":-1.172585129737854,"362":0.4704974889755249,"363":0.4002757966518402,"364":0.6422513127326965,"365":0.4445374608039856,"366":0.8734691143035889,"367":0.12716396152973175,"368":0.9907748699188232,"369":0.5646257400512695,"370":-2.236217975616455,"371":0.11734436452388763,"372":-0.6280434727668762,"373":-2.0949997901916504,"374":-1.4660859107971191,"375":-0.7587203979492188,"376":-1.4454323053359985,"377":1.2039732933044434,"378":-1.1699960231781006,"379":-1.680191993713379,"380":0.542730450630188,"381":-0.42503029108047485,"382":-0.7635923027992249,"383":-1.1025437116622925,"384":-1.111154317855835,"385":0.2282029688358307,"386":-1.5084434747695923,"387":0.6024771332740784,"388":-0.5021801590919495,"389":0.42201822996139526,"390":1.3807260990142822,"391":1.7948241233825684,"392":-0.2734726071357727,"393":-0.28823497891426086,"394":-0.4937512278556824,"395":-0.1756419986486435,"396":-0.9582549929618835,"397":0.024959135800600052,"398":-0.1264747977256775,"399":-0.4814091920852661,"400":0.41419878602027893,"401":-1.7961193323135376,"402":-0.6067022681236267,"403":0.9681894779205322,"404":-1.916083812713623,"405":2.422070264816284,"406":0.32658615708351135,"407":-2.9942567348480225,"408":-0.4050450026988983,"409":-0.906947910785675,"410":-0.8583352565765381,"411":-0.9793199896812439,"412":-0.8949069976806641,"413":0.23066547513008118,"414":0.61753910779953,"415":-2.807339906692505,"416":-0.6477575302124023,"417":0.32031455636024475,"418":0.7210544347763062,"419":0.27149224281311035,"420":-1.4661957025527954,"421":-0.7360677719116211,"422":-1.202071189880371,"423":0.46148979663848877,"424":-0.7139959931373596,"425":0.4334282875061035,"426":0.9734152555465698,"427":1.0098202228546143,"428":0.5586798787117004,"429":0.6061919331550598,"430":1.2958651781082153,"431":-0.0020909777376800776,"432":1.1918944120407104,"433":-0.27337706089019775,"434":-1.228027582168579,"435":0.2269163578748703,"436":-1.0698742866516113,"437":0.2507244944572449,"438":-0.9964106678962708,"439":1.4683306217193604,"440":1.3191419839859009,"441":1.5363041162490845,"442":-1.369142770767212,"443":-0.13343068957328796,"444":-1.1560382843017578,"445":1.0470572710037231,"446":0.503329336643219,"447":-0.015583307482302189,"448":0.8533312082290649,"449":-3.496405839920044,"450":0.826913058757782,"451":1.624630331993103,