{"type":"LSTM","options":{"inputSize":1,"inputRange":1,"hiddenLayers":[20,20],"outputSize":1,"learningRate":0.01,"decayRate":0.999,"smoothEps":1e-8,"regc":0.000001,"clipval":5,"maxPredictionLength":100,"dataFormatter":{"values":[[{"K1":3813,"K2":9208,"K3":528.428571428571,"K4":305,"K5":518.933154700698},{"out":245}],[{"K1":6049,"K2":12811,"K3":777,"K4":534,"K5":639.716603921872},{"out":284}],[{"K1":9175,"K2":14551,"K3":997.285714285714,"K4":712,"K5":689.543258078784},{"out":305}],[{"K1":13653,"K2":15782,"K3":1222.57142857143,"K4":1595,"K5":675.125878915149},{"out":534}],[{"K1":16393,"K2":18380,"K3":1454.57142857143,"K4":1764,"K5":579.5264898009},{"out":712}],[{"K1":17922,"K2":22489,"K3":1698.57142857143,"K4":1787,"K5":478.007272309692},{"out":1595}]],"indexTable":{"[object Object]":0},"characterTable":{"0":{"K1":3813,"K2":9208,"K3":528.428571428571,"K4":305,"K5":518.933154700698}},"characters":[{"K1":3813,"K2":9208,"K3":528.428571428571,"K4":305,"K5":518.933154700698}],"specialIndexes":[]}},"input":{"rows":2,"columns":1,"weights":{"0":-0.7554214596748352,"1":0.7763533592224121}},"hiddenLayers":[{"inputMatrix":{"rows":20,"columns":1,"weights":{"0":-0.08519845455884933,"1":0.29462704062461853,"2":-0.08117065578699112,"3":1.3391058444976807,"4":0.5430768132209778,"5":0.14617152512073517,"6":0.0260941032320261,"7":0.39129313826560974,"8":0.44161027669906616,"9":0.5998642444610596,"10":0.20783814787864685,"11":1.0973972082138062,"12":0.3776681125164032,"13":0.09954320639371872,"14":0.7562560439109802,"15":0.06814667582511902,"16":-0.21236157417297363,"17":0.29884758591651917,"18":0.3413928151130676,"19":0.42373159527778625}},"inputHidden":{"rows":20,"columns":20,"weights":{"0":0.24007226526737213,"1":0.20700514316558838,"2":0.29312485456466675,"3":-0.2781910002231598,"4":-0.08510996401309967,"5":0.3722957968711853,"6":-0.3099815547466278,"7":-0.2383868247270584,"8":0.2087637335062027,"9":0.08106290549039841,"10":-0.3152812719345093,"11":0.1423272043466568,"12":-0.27304068207740784,"13":0.2709752023220062,"14":-0.19223035871982574,"15":0.3248934745788574,"16":-0.40491947531700134,"17":-0.13620445132255554,"18":-0.11696161329746246,"19":0.040051113814115524,"20":-0.2774520814418793,"21":-0.3217352330684662,"22":-0.5918336510658264,"23":0.27090007066726685,"24":-0.15310552716255188,"25":-0.31662335991859436,"26":0.6242215037345886,"27":0.3898136615753174,"28":0.01766291819512844,"29":0.13240346312522888,"30":0.3791620135307312,"31":-0.3394772708415985,"32":0.36448583006858826,"33":-0.1578315645456314,"34":0.04109099507331848,"35":-0.6115013957023621,"36":0.4256741404533386,"37":-0.11688506603240967,"38":-0.021535314619541168,"39":0.2179412990808487,"40":0.14238902926445007,"41":0.35343000292778015,"42":0.1825980395078659,"43":-0.707980751991272,"44":0.3481932282447815,"45":0.34031325578689575,"46":-0.11785030364990234,"47":-0.4312748610973358,"48":-0.26161330938339233,"49":-0.36613044142723083,"50":-0.37833166122436523,"51":0.5969255566596985,"52":-0.3880782127380371,"53":0.08065633475780487,"54":-0.1561838835477829,"55":0.09366485476493835,"56":-0.24939566850662231,"57":0.09948968142271042,"58":-0.23278455436229706,"59":-0.24093396961688995,"60":-0.08703076839447021,"61":0.16960909962654114,"62":-0.0069124032743275166,"63":-0.9210900664329529,"64":0.3938751220703125,"65":0.22219491004943848,"66":-0.03618234768509865,"67":-0.2749324142932892,"68":-0.3700409531593323,"69":-0.45991843938827515,"70":-0.05428725853562355,"71":0.6403566598892212,"72":-0.3543916642665863,"73":-0.032663002610206604,"74":-0.05332289636135101,"75":-0.022795867174863815,"76":-0.05068046972155571,"77":0.28484153747558594,"78":-0.07734005153179169,"79":-0.23226039111614227,"80":0.14603973925113678,"81":0.27491533756256104,"82":0.2903039753437042,"83":-0.5868503451347351,"84":0.09807874262332916,"85":0.3494528532028198,"86":-0.179291233420372,"87":-0.4701767563819885,"88":-0.08953617513179779,"89":-0.1817483752965927,"90":-0.4002057611942291,"91":0.4589846730232239,"92":-0.4837712049484253,"93":0.13765203952789307,"94":-0.11257358640432358,"95":0.2561720311641693,"96":-0.3662630021572113,"97":-0.004304688889533281,"98":-0.11562974750995636,"99":-0.07199354469776154,"100":0.24032534658908844,"101":-0.05437565967440605,"102":-0.2743381857872009,"103":0.18805928528308868,"104":-0.3512716591358185,"105":0.20120005309581757,"106":0.2306758463382721,"107":0.18289563059806824,"108":0.3266124725341797,"109":0.2936610281467438,"110":0.09304779767990112,"111":-0.23384632170200348,"112":-0.1647959053516388,"113":0.19181938469409943,"114":-0.10335803031921387,"115":-0.2507247030735016,"116":-0.04493913799524307,"117":-0.3364235460758209,"118":-0.09331497550010681,"119":0.22447781264781952,"120":0.24845872819423676,"121":0.5705746412277222,"122":0.6005144119262695,"123":-0.8531270027160645,"124":0.2927868366241455,"125":0.5293516516685486,"126":-0.5634959936141968,"127":-0.8128862977027893,"128":-0.19241105020046234,"129":-0.3849080502986908,"130":-0.583320140838623,"131":0.7466845512390137,"132":-0.6416766047477722,"133":0.1533622145652771,"134":-0.17061637341976166,"135":0.48707568645477295,"136":-0.4994281232357025,"137":0.059142544865608215,"138":-0.18210092186927795,"139":-0.21566718816757202,"140":-0.21420422196388245,"141":-0.2291562408208847,"142":-0.43548667430877686,"143":0.06426257640123367,"144":-0.06593278795480728,"145":-0.2774755358695984,"146":0.4365605413913727,"147":0.29713931679725647,"148":0.11257008463144302,"149":-0.011832385323941708,"150":0.2758316695690155,"151":-0.20230919122695923,"152":0.19028182327747345,"153":-0.0973098948597908,"154":0.030013682320713997,"155":-0.43126004934310913,"156":0.34886959195137024,"157":-0.108552485704422,"158":0.09594953060150146,"159":0.19106407463550568,"160":0.23370620608329773,"161":0.24097369611263275,"162":0.16504690051078796,"163":-0.4926407039165497,"164":-0.03134451061487198,"165":0.3740919530391693,"166":-0.09935599565505981,"167":-0.24432599544525146,"168":-0.006720619276165962,"169":-0.06760232895612717,"170":-0.2421588897705078,"171":0.24749800562858582,"172":-0.32416266202926636,"173":0.25494450330734253,"174":-0.09433388710021973,"175":0.11828199028968811,"176":-0.2560827434062958,"177":-0.14689862728118896,"178":-0.13421444594860077,"179":0.019182201474905014,"180":0.01673409342765808,"181":0.21804820001125336,"182":0.1015889123082161,"183":-0.5770426392555237,"184":0.19296492636203766,"185":0.2707471549510956,"186":-0.11533703655004501,"187":-0.37958112359046936,"188":-0.12366980314254761,"189":-0.2561984956264496,"190":-0.17863395810127258,"191":0.41073185205459595,"192":-0.32927146553993225,"193":0.06643840670585632,"194":-0.16479861736297607,"195":-0.008005580864846706,"196":-0.13430191576480865,"197":0.03226025775074959,"198":-0.12644393742084503,"199":-0.21794633567333221,"200":-0.18228846788406372,"201":-0.20394153892993927,"202":-0.4820592999458313,"203":0.2828422784805298,"204":-0.16354095935821533,"205":-0.2408342808485031,"206":0.49166712164878845,"207":0.31822478771209717,"208":0.08133119344711304,"209":0.21420593559741974,"210":0.25901299715042114,"211":-0.1953284591436386,"212":0.2132229208946228,"213":-0.02538488246500492,"214":0.05381570756435394,"215":-0.5563284158706665,"216":0.300467848777771,"217":-0.0745827853679657,"218":-0.010719912126660347,"219":0.24447157979011536,"220":0.08051467686891556,"221":0.4752870202064514,"222":0.27164462208747864,"223":-0.933083713054657,"224":0.31457021832466125,"225":0.3581865131855011,"226":-0.33061483502388,"227":-0.6885445713996887,"228":-0.30521589517593384,"229":-0.43543940782546997,"230":-0.3910253942012787,"231":0.5813984274864197,"232":-0.529283881187439,"233":0.15260758996009827,"234":-0.14617861807346344,"235":0.19949954748153687,"236":-0.27551203966140747,"237":0.19149154424667358,"238":-0.04925478994846344,"239":-0.24702060222625732,"240":0.25328388810157776,"241":-0.11667755246162415,"242":-0.17793971300125122,"243":0.11457274854183197,"244":-0.37499913573265076,"245":0.17343802750110626,"246":0.1390651911497116,"247":0.23924827575683594,"248":0.3871828317642212,"249":0.32236194610595703,"250":-0.04814773425459862,"251":-0.14433060586452484,"252":-0.16024141013622284,"253":0.2370881289243698,"254":-0.1105385422706604,"255":-0.16743192076683044,"256":-0.09972965717315674,"257":-0.31797435879707336,"258":-0.14256921410560608,"259":0.3386606276035309,"260":0.3322031795978546,"261":0.09213444590568542,"262":0.13174445927143097,"263":0.012450259178876877,"264":-0.26378947496414185,"265":0.1718313843011856,"266":-0.10991216450929642,"267":0.016287244856357574,"268":0.29308679699897766,"269":0.2244742512702942,"270":-0.1067134439945221,"271":-0.06336268037557602,"272":-0.18896238505840302,"273":0.2847030758857727,"274":-0.03158271312713623,"275":-0.005507811438292265,"276":-0.2357546091079712,"277":-0.24216265976428986,"278":-0.16655637323856354,"279":0.216592475771904,"280":-0.02806686796247959,"281":0.26003721356391907,"282":-0.14499977231025696,"283":-0.2549645006656647,"284":0.0050642406567931175,"285":0.165431946516037,"286":0.19724121689796448,"287":-0.12005709111690521,"288":-0.06234532594680786,"289":-0.16690658032894135,"290":-0.18812890350818634,"291":0.19073225557804108,"292":-0.19451621174812317,"293":-0.038609325885772705,"294":-0.10624653100967407,"295":-0.14647802710533142,"296":-0.006375253666192293,"297":-0.04902174323797226,"298":-0.03919463977217674,"299":0.06551823019981384,"300":0.21729475259780884,"301":0.5351492166519165,"302":0.49689072370529175,"303":-0.8420471549034119,"304":0.31812191009521484,"305":0.4365089535713196,"306":-0.35367530584335327,"307":-0.8193895816802979,"308":-0.20552508533000946,"309":-0.42141973972320557,"310":-0.6094397306442261,"311":0.62651526927948,"312":-0.5661162734031677,"313":0.1739201843738556,"314":-0.2589377164840698,"315":0.47762158513069153,"316":-0.4572845697402954,"317":0.06319957971572876,"318":-0.15250426530838013,"319":-0.3370051681995392,"320":0.14745749533176422,"321":-0.06674036383628845,"322":-0.3672023117542267,"323":0.18116575479507446,"324":-0.23995979130268097,"325":0.10349837690591812,"326":0.37530800700187683,"327":0.18834875524044037,"328":0.34354686737060547,"329":0.2442895621061325,"330":0.04961061105132103,"331":-0.12693732976913452,"332":-0.09890507906675339,"333":0.19351232051849365,"334":-0.08687490224838257,"335":-0.303040474653244,"336":-0.11629880964756012,"337":-0.21519462764263153,"338":-0.04506835341453552,"339":0.2728388011455536,"340":0.2105828821659088,"341":0.35819804668426514,"342":0.5487713813781738,"343":-0.6342654824256897,"344":0.019124485552310944,"345":0.44916677474975586,"346":-0.5152234435081482,"347":-0.5430033206939697,"348":-0.004498584661632776,"349":-0.004316887352615595,"350":-0.4250129461288452,"351":0.3645837903022766,"352":-0.5149522423744202,"353":0.20944830775260925,"354":-0.18186359107494354,"355":0.49560633301734924,"356":-0.40283575654029846,"357":-0.06615360826253891,"358":-0.18199189007282257,"359":-0.02079254575073719,"360":0.1219370886683464,"361":0.3145323395729065,"362":0.2992945611476898,"363":-0.45639824867248535,"364":0.08768627792596817,"365":0.23771660029888153,"366":-0.2073793113231659,"367":-0.32290688157081604,"368":-0.033314235508441925,"369":-0.07117024064064026,"370":-0.3236267566680908,"371":0.32833027839660645,"372":-0.30752596259117126,"373":0.201119065284729,"374":-0.15145285427570343,"375":0.23599334061145782,"376":-0.3149805963039398,"377":-0.09479551762342453,"378":-0.12208005785942078,"379":-0.013572865165770054,"380":0.24685652554035187,"381":0.41947683691978455,"382":0.5140449404716492,"383":-0.6750823855400085,"384":0.23913158476352692,"385":0.3364122211933136,"386":-0.3864839971065521,"387":-0.618108868598938,"388":-0.09186668694019318,"389":-0.24616140127182007,"390":-0.505429208278656,"391":0.4897564649581909,"392":-0.5593428015708923,"393":0.15605713427066803,"394":-0.18047821521759033,"395":0.3639722764492035,"396":-0.3271493911743164,"397":-0.009714782238006592,"398":-0.12935444712638855,"399":-0.20085927844047546}},"inputBias":{"rows":20,"columns":1,"weights":{"0":0.35761529207229614,"1":-0.5750743746757507,"2":0.04707762971520424,"3":-0.4008428752422333,"4":-0.19091518223285675,"5":-0.15486012399196625,"6":0.18332205712795258,"7":-0.39026620984077454,"8":-0.14725211262702942,"9":-0.17463907599449158,"10":-0.1036050096154213,"11":-0.3570399284362793,"12":-0.39638927578926086,"13":-0.3186647891998291,"14":-0.43908199667930603,"15":-0.04764121398329735,"16":0.464829683303833,"17":-0.08356504142284393,"18":-0.0416945219039917,"19":-0.27323174476623535}},"forgetMatrix":{"rows":20,"columns":1,"weights":{"0":0.06674425303936005,"1":-0.3331778347492218,"2":-0.044865682721138,"3":0.7655685544013977,"4":0.4337475597858429,"5":-0.09430485963821411,"6":-0.02331853099167347,"7":-0.312183678150177,"8":0.3721533715724945,"9":0.5480341911315918,"10":-0.4375169277191162,"11":0.45729586482048035,"12":-0.0606837123632431,"13":0.0884300246834755,"14":-0.09567692875862122,"15":-0.020552847534418106,"16":-0.21061736345291138,"17":0.298977792263031,"18":-0.06694977730512619,"19":0.15386345982551575}},"forgetHidden":{"rows":20,"columns":20,"weights":{"0":0.038854584097862244,"1":0.026042556390166283,"2":0.06185895577073097,"3":-0.15277671813964844,"4":-0.04201890155673027,"5":0.059262581169605255,"6":-0.13795478641986847,"7":-0.11638332158327103,"8":0.07630988210439682,"9":-0.023795941844582558,"10":-0.053410690277814865,"11":0.09539765864610672,"12":-0.12464644759893417,"13":0.0954236313700676,"14":-0.007856751792132854,"15":0.12657402455806732,"16":-0.06410673260688782,"17":-0.019348641857504845,"18":0.02474284917116165,"19":0.00914205051958561,"20":0.06368590891361237,"21":-0.025467872619628906,"22":0.1739068478345871,"23":-0.03288310021162033,"24":-0.015468649566173553,"25":0.0068991417065262794,"26":-0.14363449811935425,"27":-0.13908611238002777,"28":0.0622636042535305,"29":0.02060764841735363,"30":-0.053291719406843185,"31":-0.018295584246516228,"32":-0.07039535790681839,"33":-0.018314000219106674,"34":0.06570714712142944,"35":0.1016807034611702,"36":-0.07846071571111679,"37":-0.0900384709239006,"38":0.03232332691550255,"39":0.03386669605970383,"40":0.0712771788239479,"41":0.21021465957164764,"42":0.38360461592674255,"43":-0.23625968396663666,"44":0.1395588368177414,"45":0.15798600018024445,"46":-0.29176202416419983,"47":-0.3023889660835266,"48":-0.0629531517624855,"49":-0.10965128988027573,"50":-0.15489283204078674,"51":0.2527596950531006,"52":-0.20152944326400757,"53":0.0585269033908844,"54":-0.060333333909511566,"55":0.3311157822608948,"56":-0.1363094002008438,"57":0.06654763221740723,"58":0.039462100714445114,"59":-0.1926845908164978,"60":-0.09249472618103027,"61":0.2317894697189331,"62":0.3451559543609619,"63":-0.4547688961029053,"64":0.3287038505077362,"65":0.10259898006916046,"66":-0.2619799077510834,"67":-0.3312487006187439,"68":-0.339002788066864,"69":-0.401149719953537,"70":-0.18758447468280792,"71":0.40898218750953674,"72":-0.194700688123703,"73":-0.0042299795895814896,"74":-0.027247199788689613,"75":0.2612868547439575,"76":0.002358851255849004,"77":0.3125360906124115,"78":0.06035041809082031,"79":-0.3173181116580963,"80":0.03054795414209366,"81":0.1281210333108902,"82":0.17027251422405243,"83":-0.3082844614982605,"84":0.14444434642791748,"85":0.0925828143954277,"86":-0.22465822100639343,"87":-0.09658027440309525,"88":-0.056895431131124496,"89":-0.1346435397863388,"90":-0.07563862949609756,"91":0.22787915170192719,"92":-0.05773633345961571,"93":-0.0020787823013961315,"94":0.021491561084985733,"95":0.12540729343891144,"96":-0.036050815135240555,"97":0.08062808960676193,"98":-0.05032912641763687,"99":-0.12426066398620605,"100":0.09680520743131638,"101":-0.02994837611913681,"102":0.000686194805894047,"103":0.0687454491853714,"104":-0.07850807160139084,"105":0.1654241681098938,"106":-0.021889440715312958,"107":-0.0897979587316513,"108":0.08865761756896973,"109":0.06959816813468933,"110":-0.04288554936647415,"111":-0.03928739205002785,"112":-0.18536148965358734,"113":0.14780862629413605,"114":0.030149711295962334,"115":0.04869578033685684,"116":-0.09880781918764114,"117":-0.024588709697127342,"118":-0.020185450091958046,"119":0.043242212384939194,"120":-0.057730864733457565,"121":0.20073486864566803,"122":0.368952214717865,"123":-0.27916866540908813,"124":0.18332362174987793,"125":0.06254725903272629,"126":-0.31257909536361694,"127":-0.3060132563114166,"128":-0.17827095091342926,"129":-0.12494169920682907,"130":-0.2158578485250473,"131":0.20724280178546906,"132":-0.17297305166721344,"133":0.0007522405358031392,"134":0.05019994452595711,"135":0.3220362961292267,"136":-0.05022325739264488,"137":0.11030939221382141,"138":0.10324637591838837,"139":-0.17753925919532776,"140":0.1471382975578308,"141":0.18740223348140717,"142":0.22705654799938202,"143":-0.05580346658825874,"144":0.08130013197660446,"145":0.0860251933336258,"146":-0.24732322990894318,"147":-0.2602297365665436,"148":-0.05655645206570625,"149":0.007320089265704155,"150":-0.1461433321237564,"151":0.05459868162870407,"152":-0.19753924012184143,"153":-0.014546968974173069,"154":-0.04480983316898346,"155":0.29012271761894226,"156":-0.12813228368759155,"157":0.055670324712991714,"158":-0.08608949929475784,"159":-0.08623368293046951,"160":-0.016155770048499107,"161":0.16657477617263794,"162":0.10271746665239334,"163":-0.2277047336101532,"164":0.15932244062423706,"165":0.13502907752990723,"166":-0.12611982226371765,"167":-0.21019190549850464,"168":-0.13405388593673706,"169":-0.14907634258270264,"170":-0.10582936555147171,"171":0.2145129293203354,"172":-0.1308009773492813,"173":0.06044892221689224,"174":-0.006223002914339304,"175":0.13409735262393951,"176":-0.15501148998737335,"177":0.016969026997685432,"178":0.06027389317750931,"179":-0.15646223723888397,"180":0.040858667343854904,"181":0.06192544102668762,"182":0.17459608614444733,"183":-0.2830978333950043,"184":0.10609607398509979,"185":0.1342986822128296,"186":-0.20056065917015076,"187":-0.22664542496204376,"188":-0.09217672795057297,"189":-0.18173399567604065,"190":-0.04369291290640831,"191":0.25654852390289307,"192":-0.19515655934810638,"193":0.05735564976930618,"194":-0.08071336895227432,"195":0.17245133221149445,"196":-0.1416868418455124,"197":0.11671285331249237,"198":0.057301394641399384,"199":-0.19023917615413666,"200":0.040087129920721054,"201":0.05460656061768532,"202":0.10656432807445526,"203":0.06403344869613647,"204":0.008011396043002605,"205":0.05253616347908974,"206":-0.13042014837265015,"207":-0.12344756722450256,"208":0.05306951329112053,"209":0.09775049239397049,"210":-0.11931393295526505,"211":-0.013158305548131466,"212":-0.10730858892202377,"213":0.04486712068319321,"214":-0.01722375489771366,"215":0.15197479724884033,"216":-0.05264181271195412,"217":-0.07808046042919159,"218":-0.04828972369432449,"219":0.03633532673120499,"220":-0.08188632875680923,"221":0.12722031772136688,"222":0.24330411851406097,"223":-0.3531515896320343,"224":0.1866210252046585,"225":0.10123350471258163,"226":-0.22055982053279877,"227":-0.2501577138900757,"228":-0.15346375107765198,"229":-0.26480552554130554,"230":-0.07413850724697113,"231":0.31847092509269714,"232":-0.15396429598331451,"233":-0.0891505554318428,"234":-0.002110018627718091,"235":0.2354656606912613,"236":-0.068428635597229,"237":0.11336607486009598,"238":0.008794521912932396,"239":-0.24395640194416046,"240":0.18333211541175842,"241":0.03466296195983887,"242":0.19210489094257355,"243":-0.0016711946809664369,"244":-0.1298084557056427,"245":0.1979750692844391,"246":-0.1632923036813736,"247":-0.10817566514015198,"248":0.15098299086093903,"249":0.029263505712151527,"250":-0.12367494404315948,"251":0.06080510467290878,"252":-0.24290765821933746,"253":0.12087924033403397,"254":-0.08976352959871292,"255":0.14901645481586456,"256":-0.11518748104572296,"257":-0.043526314198970795,"258":-0.08546876907348633,"259":-0.04209119826555252,"260":0.02621135115623474,"261":0.07766988128423691,"262":0.04976470768451691,"263":-0.0940195843577385,"264":-0.08690309524536133,"265":0.03378129377961159,"266":-0.07623087614774704,"267":-0.09340807795524597,"268":0.01735539548099041,"269":-0.0364084430038929,"270":-0.07307443767786026,"271":-0.011869251728057861,"272":-0.07785617560148239,"273":0.09593099355697632,"274":-0.007863469421863556,"275":0.001497273100540042,"276":-0.02393214777112007,"277":-0.060847725719213486,"278":0.0047433339059352875,"279":0.0702267438173294,"280":-0.01646314561367035,"281":0.021966584026813507,"282":-0.053848039358854294,"283":0.005965715274214745,"284":-0.09138429164886475,"285":-0.021601064130663872,"286":0.04998420923948288,"287":0.05291600525379181,"288":0.060329221189022064,"289":0.01754411682486534,"290":-0.02892412059009075,"291":-0.05172070860862732,"292":0.06073105335235596,"293":-0.051164623349905014,"294":-0.03664693981409073,"295":-0.05645008757710457,"296":-0.004611415322870016,"297":-0.0489417240023613,"298":0.041715241968631744,"299":-0.03687511757016182,"300":0.015087130479514599,"301":0.21124079823493958,"302":0.3031148612499237,"303":-0.25539591908454895,"304":0.15205003321170807,"305":0.1215515211224556,"306":-0.3480220139026642,"307":-0.2074652761220932,"308":-0.16977305710315704,"309":-0.20642758905887604,"310":-0.12765076756477356,"311":0.15601086616516113,"312":-0.16972874104976654,"313":0.0651654452085495,"314":0.04532596468925476,"315":0.36345717310905457,"316":-0.16045603156089783,"317":0.16199098527431488,"318":-0.024231066927313805,"319":-0.19046354293823242,"320":0.0458979532122612,"321":0.02950780838727951,"322":0.158843994140625,"323":0.05158449336886406,"324":-0.04242945462465286,"325":0.07586567103862762,"326":-0.15017244219779968,"327":-0.08669618517160416,"328":0.05617959424853325,"329":0.06199616193771362,"330":-0.09677975624799728,"331":-0.02803710103034973,"332":-0.11930874735116959,"333":0.12763512134552002,"334":-0.04629220440983772,"335":0.050001729279756546,"336":-0.14671394228935242,"337":-0.053493041545152664,"338":-0.02348569966852665,"339":0.08982347697019577,"340":0.019353944808244705,"341":0.021461879834532738,"342":0.18833887577056885,"343":-0.17031697928905487,"344":0.0738368034362793,"345":0.044005706906318665,"346":-0.1107344776391983,"347":-0.10080861300230026,"348":-0.009957138448953629,"349":-0.017682736739516258,"350":-0.11968163400888443,"351":0.136098712682724,"352":-0.13048763573169708,"353":-0.02605487033724785,"354":0.03362387418746948,"355":0.06799032539129257,"356":-0.011807373724877834,"357":0.05390379577875137,"358":-0.03626945614814758,"359":-0.14032188057899475,"360":-0.015479149296879768,"361":-0.06686477363109589,"362":-0.03224300965666771,"363":0.029535360634326935,"364":-0.07764644920825958,"365":0.08203878998756409,"366":-0.09340912103652954,"367":-0.0251479335129261,"368":0.04381862282752991,"369":0.004528583958745003,"370":-0.04982665181159973,"371":-0.005876367911696434,"372":0.030092494562268257,"373":0.05152992531657219,"374":0.028670577332377434,"375":0.012955896556377411,"376":-0.011532477103173733,"377":0.047337569296360016,"378":-0.05153905600309372,"379":-0.0009687954443506896,"380":-0.04911459982395172,"381":0.11509302258491516,"382":0.14993096888065338,"383":-0.2550554871559143,"384":0.10255539417266846,"385":0.11261092871427536,"386":-0.23536376655101776,"387":-0.18927989900112152,"388":-0.1075146347284317,"389":-0.12328948825597763,"390":-0.12424252182245255,"391":0.11491730809211731,"392":-0.10537737607955933,"393":-0.010093925520777702,"394":0.05792193114757538,"395":0.2304263859987259,"396":-0.1012682095170021,"397":0.08777206391096115,"398":-0.024809416383504868,"399":-0.04987068474292755}},"forgetBias":{"rows":20,"columns":1,"weights":{"0":0,"1":0,"2":0,"3":0,"4":0,"5":0,"6":0,"7":0,"8":0,"9":0,"10":0,"11":0,"12":0,"13":0,"14":0,"15":0,"16":0,"17":0,"18":0,"19":0}},"outputMatrix":{"rows":20,"columns":1,"weights":{"0":0.03938162326812744,"1":0.4029448926448822,"2":-0.11132346093654633,"3":1.3372448682785034,"4":0.6602134704589844,"5":0.18361838161945343,"6":-0.053136151283979416,"7":0.3537009358406067,"8":0.6191436052322388,"9":0.7179174423217773,"10":0.1311543583869934,"11":1.1933341026306152,"12":0.5098837614059448,"13":0.16145643591880798,"14":0.8077600598335266,"15":0.005534774623811245,"16":-0.2668774127960205,"17":0.4144327938556671,"18":0.34235405921936035,"19":0.5691953897476196}},"outputHidden":{"rows":20,"columns":20,"weights":{"0":0.27538618445396423,"1":0.24057944118976593,"2":0.262701153755188,"3":-0.34570208191871643,"4":-0.08993257582187653,"5":0.4289570748806,"6":-0.34529945254325867,"7":-0.36147549748420715,"8":0.13787849247455597,"9":0.16714130342006683,"10":-0.43518170714378357,"11":0.20725226402282715,"12":-0.3316572308540344,"13":0.26712673902511597,"14":-0.21785782277584076,"15":0.29925402998924255,"16":-0.4507906436920166,"17":-0.1431606113910675,"18":-0.10197979211807251,"19":0.013792402110993862,"20":-0.33926013112068176,"21":-0.2313258796930313,"22":-0.4702382981777191,"23":0.257604718208313,"24":-0.11017651110887527,"25":-0.26034635305404663,"26":0.6152641177177429,"27":0.4445389211177826,"28":0.10862631350755692,"29":0.07162623852491379,"30":0.33325350284576416,"31":-0.2674191892147064,"32":0.2604764401912689,"33":-0.0787884071469307,"34":-0.02285495400428772,"35":-0.48133614659309387,"36":0.43521222472190857,"37":-0.03384235501289368,"38":0.026605896651744843,"39":0.22072529792785645,"40":0.16540567576885223,"41":0.5467507243156433,"42":0.5572215914726257,"43":-0.8523963689804077,"44":0.30717700719833374,"45":0.5758823752403259,"46":-0.5109573602676392,"47":-0.7536758780479431,"48":-0.3361869752407074,"49":-0.4312722682952881,"50":-0.6384318470954895,"51":0.6072348356246948,"52":-0.7017090916633606,"53":0.193159818649292,"54":-0.17963111400604248,"55":0.43403786420822144,"56":-0.46289727091789246,"57":0.15842916071414948,"58":-0.13345953822135925,"59":-0.34670016169548035,"60":-0.2922055423259735,"61":0.2932838499546051,"62":0.18946494162082672,"63":-0.9906994700431824,"64":0.547909677028656,"65":0.17922388017177582,"66":-0.21332520246505737,"67":-0.4704441428184509,"68":-0.5359221696853638,"69":-0.7219639420509338,"70":-0.18971404433250427,"71":0.833055317401886,"72":-0.41870826482772827,"73":-0.18947696685791016,"74":0.01734592393040657,"75":0.1722724735736847,"76":-0.1132248267531395,"77":0.3441013991832733,"78":0.14154520630836487,"79":-0.40186968445777893,"80":0.11958637088537216,"81":0.3270339369773865,"82":0.2757849097251892,"83":-0.7042095065116882,"84":0.2641614079475403,"85":0.3440389931201935,"86":-0.4112928509712219,"87":-0.5765717029571533,"88":-0.11726994067430496,"89":-0.24800649285316467,"90":-0.392890065908432,"91":0.44988930225372314,"92":-0.47274523973464966,"93":0.12222053110599518,"94":-0.11756976693868637,"95":0.2539226710796356,"96":-0.3510470390319824,"97":0.1205107793211937,"98":0.0005387941491790116,"99":-0.21000514924526215,"100":0.23382826149463654,"101":-0.034703027456998825,"102":-0.22496093809604645,"103":0.17459900677204132,"104":-0.367364764213562,"105":0.18601945042610168,"106":0.18225756287574768,"107":0.20710131525993347,"108":0.37032467126846313,"109":0.3510235846042633,"110":-0.0925898477435112,"111":-0.23133617639541626,"112":-0.19560766220092773,"113":0.25062718987464905,"114":-0.035508278757333755,"115":-0.17769703269004822,"116":-0.24753892421722412,"117":-0.35646921396255493,"118":-0.15312756597995758,"119":0.2804543673992157,"120":0.3499322533607483,"121":0.7299193143844604,"122":0.9872289896011353,"123":-1.0271307229995728,"124":0.4258265197277069,"125":0.7022775411605835,"126":-0.89216148853302,"127":-1.0177322626113892,"128":-0.3709087073802948,"129":-0.400826632976532,"130":-0.6970398426055908,"131":0.7417470812797546,"132":-0.814528226852417,"133":0.3470431864261627,"134":-0.16889776289463043,"135":1.002911925315857,"136":-0.6533117294311523,"137":0.2059730738401413,"138":-0.12901802361011505,"139":-0.46076130867004395,"140":-0.21473164856433868,"141":-0.2594766616821289,"142":-0.34862250089645386,"143":0.10244777798652649,"144":-0.007146019022911787,"145":-0.272489070892334,"146":0.4015904664993286,"147":0.22227157652378082,"148":0.07548997551202774,"149":0.028506118804216385,"150":0.17642731964588165,"151":-0.11063937842845917,"152":0.109776072204113,"153":-0.04868056997656822,"154":0.015334151685237885,"155":-0.2985553443431854,"156":0.23431268334388733,"157":-0.13435739278793335,"158":0.061027444899082184,"159":0.14293505251407623,"160":0.16042080521583557,"161":0.23483678698539734,"162":0.24263359606266022,"163":-0.5789755582809448,"164":0.05769255384802818,"165":0.39510709047317505,"166":-0.25892916321754456,"167":-0.3707105219364166,"168":0.009335344657301903,"169":-0.0690261572599411,"170":-0.4022267758846283,"171":0.359225869178772,"172":-0.3938397467136383,"173":0.2086157202720642,"174":-0.13261395692825317,"175":0.12997612357139587,"176":-0.4003005921840668,"177":-0.012904631905257702,"178":-0.01424537505954504,"179":-0.08906832337379456,"180":0.06709329038858414,"181":0.2768508195877075,"182":0.1604541838169098,"183":-0.7189958095550537,"184":0.22133183479309082,"185":0.3414306938648224,"186":-0.25287938117980957,"187":-0.3987100422382355,"188":-0.2579258680343628,"189":-0.31651973724365234,"190":-0.32878315448760986,"191":0.6134123802185059,"192":-0.5121279358863831,"193":0.13548961281776428,"194":-0.0513707734644413,"195":0.16776444017887115,"196":-0.2857576906681061,"197":0.0810181125998497,"198":0.07246163487434387,"199":-0.1902916580438614,"200":-0.12699009478092194,"201":-0.20620930194854736,"202":-0.582247257232666,"203":0.311264306306839,"204":-0.262092262506485,"205":-0.17081861197948456,"206":0.4916815161705017,"207":0.43037155270576477,"208":0.2082427740097046,"209":0.23093535006046295,"210":0.330251008272171,"211":-0.28603965044021606,"212":0.14494280517101288,"213":0.002563505433499813,"214":0.09273124486207962,"215":-0.5720288753509521,"216":0.2436627894639969,"217":-0.22165358066558838,"218":-0.016691450029611588,"219":0.23832125961780548,"220":0.06543934345245361,"221":0.5651314854621887,"222":0.48043879866600037,"223":-0.8958242535591125,"224":0.4537971019744873,"225":0.5051628351211548,"226":-0.522617757320404,"227":-0.7755894064903259,"228":-0.41709503531455994,"229":-0.5426107048988342,"230":-0.5047416090965271,"231":0.7723363041877747,"232":-0.6894212365150452,"233":0.12106861919164658,"234":-0.05704157054424286,"235":0.46656593680381775,"236":-0.3813660442829132,"237":0.30690765380859375,"238":0.0010844403877854347,"239":-0.3902977705001831,"240":0.3706042170524597,"241":-0.02731897309422493,"242":-0.10984285920858383,"243":0.1167866438627243,"244":-0.3633008599281311,"245":0.2708333134651184,"246":0.15135470032691956,"247":0.049871448427438736,"248":0.47374841570854187,"249":0.39473602175712585,"250":-0.06464314460754395,"251":-0.1000494435429573,"252":-0.2832127511501312,"253":0.3189292550086975,"254":-0.15247634053230286,"255":-0.19795380532741547,"256":-0.24340535700321198,"257":-0.42829740047454834,"258":-0.1532597690820694,"259":0.3565259277820587,"260":0.39301806688308716,"261":0.03931739181280136,"262":0.09429983049631119,"263":0.006851079873740673,"264":-0.3050411343574524,"265":0.25608012080192566,"266":-0.14433124661445618,"267":-0.1047351285815239,"268":0.2731485366821289,"269":0.3177109956741333,"270":-0.19760249555110931,"271":-0.02694426290690899,"272":-0.29143112897872925,"273":0.3233858644962311,"274":-0.04287423565983772,"275":0.10121601074934006,"276":-0.31076502799987793,"277":-0.253021240234375,"278":-0.1677044779062271,"279":0.25202009081840515,"280":0.008566437289118767,"281":0.18845964968204498,"282":-0.1417752355337143,"283":-0.2776682674884796,"284":0.014801026321947575,"285":0.16551698744297028,"286":0.15195846557617188,"287":-0.1965855211019516,"288":-0.06851054728031158,"289":-0.048829417675733566,"290":-0.1912066489458084,"291":0.09908001124858856,"292":-0.11586316674947739,"293":-0.02857927232980728,"294":-0.19302114844322205,"295":-0.2231665998697281,"296":-0.053568270057439804,"297":0.0010094176977872849,"298":-0.12096957862377167,"299":-0.018282435834407806,"300":0.27103689312934875,"301":0.7410540580749512,"302":0.8617181777954102,"303":-0.9762061834335327,"304":0.3546537458896637,"305":0.6807957887649536,"306":-0.8364927768707275,"307":-0.9295878410339355,"308":-0.3337119221687317,"309":-0.3701028525829315,"310":-0.698162853717804,"311":0.8107972741127014,"312":-0.7031530141830444,"313":0.1670641303062439,"314":-0.20447872579097748,"315":0.8764606714248657,"316":-0.5896198153495789,"317":0.1175648421049118,"318":-0.10608106106519699,"319":-0.45085129141807556,"320":0.22838374972343445,"321":-0.058443520218133926,"322":-0.3282930552959442,"323":0.19953985512256622,"324":-0.34971925616264343,"325":0.19589672982692719,"326":0.2485862374305725,"327":0.10121966898441315,"328":0.3501768708229065,"329":0.30274325609207153,"330":-0.022202912718057632,"331":-0.12936067581176758,"332":-0.1833377182483673,"333":0.2596125602722168,"334":-0.018518738448619843,"335":-0.2166217714548111,"336":-0.18906521797180176,"337":-0.27319201827049255,"338":-0.09517981857061386,"339":0.20972566306591034,"340":0.2502916753292084,"341":0.42913851141929626,"342":0.6080328226089478,"343":-0.653733491897583,"344":0.15460866689682007,"345":0.4429207742214203,"346":-0.48107969760894775,"347":-0.5485730767250061,"348":-0.056413326412439346,"349":-0.12059620022773743,"350":-0.5482456088066101,"351":0.4424135386943817,"352":-0.5781911611557007,"353":0.21880663931369781,"354":-0.17220526933670044,"355":0.46095114946365356,"356":-0.4408837854862213,"357":-0.05622236803174019,"358":-0.12429855763912201,"359":-0.18860937654972076,"360":0.11684990674257278,"361":0.39497074484825134,"362":0.2780064344406128,"363":-0.46096885204315186,"364":0.08142199367284775,"365":0.22413019835948944,"366":-0.32454806566238403,"367":-0.3416735529899597,"368":0.006198224611580372,"369":-0.14052677154541016,"370":-0.4418430030345917,"371":0.24854439496994019,"372":-0.4082292914390564,"373":0.19476766884326935,"374":-0.18874132633209229,"375":0.30653467774391174,"376":-0.30727118253707886,"377":0.013333730399608612,"378":-0.1277209371328354,"379":-0.03401470184326172,"380":0.13319264352321625,"381":0.4661482274532318,"382":0.555870532989502,"383":-0.7951985597610474,"384":0.18764643371105194,"385":0.4499678611755371,"386":-0.6536542773246765,"387":-0.7415887713432312,"388":-0.22353532910346985,"389":-0.3209258019924164,"390":-0.5583775639533997,"391":0.4946190118789673,"392":-0.5225096344947815,"393":0.1571657359600067,"394":-0.1904962956905365,"395":0.5813668370246887,"396":-0.4067853093147278,"397":0.04902735725045204,"398":-0.023446327075362206,"399":-0.20044583082199097}},"outputBias":{"rows":20,"columns":1,"weights":{"0":0.3656010329723358,"1":-0.5822742581367493,"2":0.04202801361680031,"3":-0.4039440155029297,"4":-0.19210933148860931,"5":-0.153331458568573,"6":0.18346402049064636,"7":-0.39303070306777954,"8":-0.14934735000133514,"9":-0.17798815667629242,"10":-0.10063081979751587,"11":-0.3638356924057007,"12":-0.40109696984291077,"13":-0.3309935927391052,"14":-0.43957602977752686,"15":-0.05511671304702759,"16":0.5114075541496277,"17":-0.08640392869710922,"18":-0.0447913333773613,"19":-0.272778183221817}},"cellActivationMatrix":{"rows":20,"columns":1,"weights":{"0":0.7657607197761536,"1":0.7899819612503052,"2":1.7194844484329224,"3":-1.1235754489898682,"4":0.13600461184978485,"5":1.089103102684021,"6":-1.5401095151901245,"7":-1.44704008102417,"8":-0.009736986830830574,"9":-0.15772853791713715,"10":-1.2805511951446533,"11":0.8814122676849365,"12":-1.0134613513946533,"13":0.6432058811187744,"14":-0.1281382143497467,"15":1.5714324712753296,"16":-1.3921657800674438,"17":-0.07829412072896957,"18":-0.22719167172908783,"19":-0.3125687837600708}},"cellActivationHidden":{"rows":20,"columns":20,"weights":{"0":0.3348081111907959,"1":-0.5474686622619629,"2":-0.08104903995990753,"3":0.7881217002868652,"4":-0.6858775615692139,"5":0.10697708278894424,"6":-0.09564366191625595,"7":0.4546271562576294,"8":0.7283456921577454,"9":0.6476355791091919,"10":0.31346404552459717,"11":-0.6223675012588501,"12":-0.060369331389665604,"13":0.3930559754371643,"14":0.1965254843235016,"15":0.008313978090882301,"16":0.005497499834746122,"17":-0.5229608416557312,"18":0.05044505372643471,"19":0.31274813413619995,"20":-0.36178672313690186,"21":-0.5184688568115234,"22":-0.7409902215003967,"23":0.2761872708797455,"24":-0.07825442403554916,"25":-0.18516892194747925,"26":0.8354544043540955,"27":0.4846010208129883,"28":0.013579092919826508,"29":-0.04504193365573883,"30":0.4448843002319336,"31":-0.30480462312698364,"32":0.16826096177101135,"33":-0.10977043211460114,"34":0.19517001509666443,"35":-0.8241744041442871,"36":0.39956802129745483,"37":-0.1299920529127121,"38":0.0755242258310318,"39":0.20823241770267487,"40":-0.3321683406829834,"41":0.0005369528662413359,"42":-0.37639620900154114,"43":-0.6798804998397827,"44":0.5793023705482483,"45":0.05831344798207283,"46":0.3220745623111725,"47":0.08994944393634796,"48":-0.4974006116390228,"49":-0.6798452734947205,"50":0.0886131078004837,"51":0.47488048672676086,"52":-0.1323169767856598,"53":-0.23816819489002228,"54":-0.2897806167602539,"55":-0.42899835109710693,"56":0.20529630780220032,"57":0.21035368740558624,"58":-0.2607935667037964,"59":-0.17060059309005737,"60":0.5507360100746155,"61":0.02632569521665573,"62":0.3207980692386627,"63":0.7276551127433777,"64":-0.5280928015708923,"65":0.1543564349412918,"66":-0.22129705548286438,"67":0.016723452135920525,"68":0.6998934149742126,"69":0.7228878736495972,"70":-0.1896314173936844,"71":-0.36051785945892334,"72":0.09329231083393097,"73":0.45364195108413696,"74":0.25139692425727844,"75":0.24233238399028778,"76":-0.438699871301651,"77":-0.39280664920806885,"78":0.21767619252204895,"79":0.13468822836875916,"80":-0.5417799353599548,"81":0.06620009988546371,"82":-0.2045726776123047,"83":-0.7676472067832947,"84":0.6055970788002014,"85":-0.3334261476993561,"86":0.15653926134109497,"87":-0.07137668877840042,"88":-0.7826790809631348,"89":-0.7769421339035034,"90":0.17567677795886993,"91":0.43796512484550476,"92":0.23433348536491394,"93":-0.4841980040073395,"94":-0.30688148736953735,"95":-0.12787668406963348,"96":0.3731878399848938,"97":0.49623730778694153,"98":-0.11332200467586517,"99":-0.34835660457611084,"100":0.2581128776073456,"101":-0.34237873554229736,"102":-0.43444058299064636,"103":0.5034836530685425,"104":-0.48436763882637024,"105":0.17610642313957214,"106":0.354007750749588,"107":0.38600462675094604,"108":0.5169928669929504,"109":0.46105048060417175,"110":0.20673198997974396,"111":-0.4448965787887573,"112":-0.21181465685367584,"113":0.3853820860385895,"114":0.06543458253145218,"115":-0.345674991607666,"116":-0.04746833071112633,"117":-0.4825172424316406,"118":-0.026560837402939796,"119":0.46950703859329224,"120":0.21638675034046173,"121":-0.23683910071849823,"122":0.21227897703647614,"123":0.901289165019989,"124":-0.5564295053482056,"125":-0.1548282355070114,"126":-0.26320236921310425,"127":0.20899297297000885,"128":0.5568503141403198,"129":0.619301974773407,"130":0.11887969821691513,"131":-0.5506743788719177,"132":0.42316100001335144,"133":0.18888573348522186,"134":0.23975437879562378,"135":0.25222545862197876,"136":-0.014998158439993858,"137":-0.19071772694587708,"138":0.3051592707633972,"139":0.18071314692497253,"140":0.32770559191703796,"141":0.343726247549057,"142":0.6070136427879333,"143":0.12932899594306946,"144":-0.13642518222332,"145":0.26670196652412415,"146":-0.627280592918396,"147":-0.36811497807502747,"148":0.21008406579494476,"149":0.2582196295261383,"150":-0.2461097538471222,"151":0.027282342314720154,"152":-0.1427546590566635,"153":0.12853838503360748,"154":-0.11843765527009964,"155":0.6677398681640625,"156":-0.34493178129196167,"157":-0.1120229959487915,"158":0.04718807339668274,"159":-0.08971049636602402,"160":0.6861803531646729,"161":-0.015849972143769264,"162":0.2545510530471802,"163":0.7410696744918823,"164":-0.7440465688705444,"165":0.30462896823883057,"166":-0.27413612604141235,"167":0.04763112589716911,"168":0.738240659236908,"169":0.7615612149238586,"170":-0.2928570806980133,"171":-0.4400430917739868,"172":-0.27434977889060974,"173":0.5832833051681519,"174":0.2596220076084137,"175":0.21940627694129944,"176":-0.45135679841041565,"177":-0.5234609842300415,"178":0.10226099193096161,"179":0.27838826179504395,"180":0.591271698474884,"181":-0.0467604398727417,"182":0.20027540624141693,"183":0.7547919750213623,"184":-0.6357823014259338,"185":0.3987114727497101,"186":-0.24317489564418793,"187":-0.04316962882876396,"188":0.774439811706543,"189":0.8523953557014465,"190":-0.28180769085884094,"191":-0.45252639055252075,"192":-0.23570191860198975,"193":0.5012401342391968,"194":0.2931750416755676,"195":0.24339605867862701,"196":-0.44395703077316284,"197":-0.5628362894058228,"198":0.02872018702328205,"199":0.2786356806755066,"200":0.05954641476273537,"201":0.39722615480422974,"202":0.6610844731330872,"203":-0.5173670649528503,"204":0.29176101088523865,"205":0.04503393918275833,"206":-0.6480245590209961,"207":-0.4234580397605896,"208":-0.36620256304740906,"209":-0.26144716143608093,"210":-0.3909876048564911,"211":0.39663809537887573,"212":-0.10131385177373886,"213":-0.14224186539649963,"214":-0.19445303082466125,"215":0.6658914685249329,"216":-0.2058432400226593,"217":0.24997450411319733,"218":-0.10257548838853836,"219":-0.3870118260383606,"220":-0.46631771326065063,"221":0.0912894681096077,"222":-0.12898661196231842,"223":-0.8822856545448303,"224":0.5257898569107056,"225":-0.04185234010219574,"226":0.19164398312568665,"227":-0.11986096203327179,"228":-0.5242832899093628,"229":-0.6478068232536316,"230":0.07337887585163116,"231":0.4408075511455536,"232":-0.1480751782655716,"233":-0.3253355324268341,"234":-0.29200881719589233,"235":-0.167131707072258,"236":0.22076527774333954,"237":0.3341338634490967,"238":-0.2136203497648239,"239":-0.16345104575157166,"240":-0.2550809979438782,"241":0.22001558542251587,"242":0.24880878627300262,"243":-0.1435331106185913,"244":0.3861815631389618,"245":-0.15067370235919952,"246":-0.2722834348678589,"247":-0.10373257100582123,"248":-0.3984083831310272,"249":-0.32990577816963196,"250":0.014185481704771519,"251":0.26158425211906433,"252":0.17839886248111725,"253":-0.2574920356273651,"254":0.10826675593852997,"255":0.20915324985980988,"256":0.20675070583820343,"257":0.3992386758327484,"258":0.2536770701408386,"259":-0.39616721868515015,"260":0.5140534043312073,"261":-0.1511511504650116,"262":0.03209146112203598,"263":0.41807442903518677,"264":-0.5445384979248047,"265":0.21863298118114471,"266":0.011328770779073238,"267":0.1694543957710266,"268":0.6042848229408264,"269":0.5354210138320923,"270":-0.0019046604866161942,"271":-0.4202716648578644,"272":-0.2905166745185852,"273":0.4658695459365845,"274":0.06978006660938263,"275":-0.015776028856635094,"276":-0.2275237888097763,"277":-0.5375176072120667,"278":-0.10623539984226227,"279":0.33560481667518616,"280":0.2299714982509613,"281":0.5447571277618408,"282":1.0894359350204468,"283":-0.6690126061439514,"284":0.33977416157722473,"285":0.32455018162727356,"286":-0.9630120992660522,"287":-0.7634994387626648,"288":-0.28343379497528076,"289":-0.31902632117271423,"290":-0.5974926948547363,"291":0.550950825214386,"292":-0.26447710394859314,"293":0.03919005021452904,"294":-0.21129809319972992,"295":1.007020115852356,"296":-0.4223991334438324,"297":0.05352539196610451,"298":-0.20168684422969818,"299":-0.32383468747138977,"300":-0.21940641105175018,"301":0.3074917495250702,"302":-0.35637107491493225,"303":-0.8556939959526062,"304":0.6439741253852844,"305":0.09588401764631271,"306":0.3352924585342407,"307":-0.06170894205570221,"308":-0.5405642986297607,"309":-0.6429015398025513,"310":-0.007830115966498852,"311":0.500831127166748,"312":-0.4300982356071472,"313":-0.25961899757385254,"314":-0.3424089550971985,"315":-0.25947850942611694,"316":0.11162907630205154,"317":0.36557650566101074,"318":-0.3160899877548218,"319":-0.22308699786663055,"320":-0.2669650912284851,"321":0.43956616520881653,"322":0.47505223751068115,"323":-0.4283187985420227,"324":0.5119074583053589,"325":-0.07609973102807999,"326":-0.41495460271835327,"327":-0.3985109031200409,"328":-0.52699214220047,"329":-0.538808286190033,"330":-0.27185311913490295,"331":0.34735894203186035,"332":0.12300101667642593,"333":-0.30714133381843567,"334":0.007305800449103117,"335":0.502752959728241,"336":0.038616035133600235,"337":0.44263237714767456,"338":0.06650541722774506,"339":-0.4762897491455078,"340":-0.4591354429721832,"341":0.2941724956035614,"342":-0.05067756772041321,"343":-0.7854136824607849,"344":0.6218736171722412,"345":-0.12019049376249313,"346":0.14360906183719635,"347":-0.23014381527900696,"348":-0.7314308285713196,"349":-0.7185918092727661,"350":0.05421322211623192,"351":0.49067091941833496,"352":0.1770573854446411,"353":-0.4077628254890442,"354":-0.29800713062286377,"355":-0.018395651131868362,"356":0.24195575714111328,"357":0.4826319217681885,"358":-0.02525603584945202,"359":-0.3573428690433502,"360":0.13002349436283112,"361":0.6669813990592957,"362":0.6296924948692322,"363":-0.8602507710456848,"364":0.3398793339729309,"365":0.2263616919517517,"366":-0.4877631664276123,"367":-0.799574613571167,"368":-0.4436211884021759,"369":-0.38886120915412903,"370":-0.6010302901268005,"371":0.6059637665748596,"372":-0.18422777950763702,"373":-0.08507698774337769,"374":-0.2148040235042572,"375":0.5770367383956909,"376":-0.31962525844573975,"377":0.16947835683822632,"378":-0.1464105099439621,"379":-0.3781135380268097,"380":0.41944143176078796,"381":-0.1725759655237198,"382":0.13420940935611725,"383":0.7421901226043701,"384":-0.5401681065559387,"385":0.04663391411304474,"386":-0.06956276297569275,"387":0.17933744192123413,"388":0.525202751159668,"389":0.5716705918312073,"390":0.03197456896305084,"391":-0.519599437713623,"392":-0.022973330691456795,"393":0.35665926337242126,"394":0.27658990025520325,"395":0.002616803627461195,"396":-0.10708311200141907,"397":-0.23800967633724213,"398":0.24589891731739044,"399":0.20731762051582336}},"cellActivationBias":{"rows":20,"columns":1,"weights":{"0":-0.39929628372192383,"1":-0.01472161803394556,"2":-0.17977102100849152,"3":-0.2626176178455353,"4":0.33765506744384766,"5":-0.03906068205833435,"6":0.2707563042640686,"7":-0.03380678966641426,"8":-0.2874658405780792,"9":-0.3964068293571472,"10":0.1369391828775406,"11":0.23818369209766388,"12":-0.19713927805423737,"13":-0.17564181983470917,"14":0.14950449764728546,"15":-0.1890864074230194,"16":0.24506771564483643,"17":0.3213275969028473,"18":0.26217302680015564,"19":-0.2874377965927124}}},{"inputMatrix":{"rows":20,"columns":20,"weights":{"0":-0.26858940720558167,"1":0.07967379689216614,"2":0.06271184235811234,"3":-0.1343250721693039,"4":0.1109728291630745,"5":-0.06890930235385895,"6":0.007296076510101557,"7":-0.07584459334611893,"8":-0.1838511824607849,"9":-0.050124652683734894,"10":0.03020467609167099,"11":0.13306686282157898,"12":-0.09175726771354675,"13":-0.12741586565971375,"14":-0.06084016337990761,"15":0.1245274543762207,"16":0.2308657318353653,"17":0.22368989884853363,"18":0.12693758308887482,"19":-0.14973850548267365,"20":0.17742107808589935,"21":0.20147836208343506,"22":0.07946928590536118,"23":0.2920028567314148,"24":-0.20879830420017242,"25":0.11925101280212402,"26":0.09474994242191315,"27":-0.15964652597904205,"28":0.22326122224330902,"29":0.16973555088043213,"30":-0.281389981508255,"31":-0.29245850443840027,"32":-0.10360799729824066,"33":0.12951910495758057,"34":-0.34970149397850037,"35":-0.0253892932087183,"36":-0.09735000878572464,"37":-0.271638959646225,"38":-0.25327974557876587,"39":0.2900392711162567,"40":-0.08455575257539749,"41":0.21993973851203918,"42":-0.3398270905017853,"43":0.509695291519165,"44":-0.07388081401586533,"45":0.14655724167823792,"46":0.5285996794700623,"47":-0.07777779549360275,"48":0.031732190400362015,"49":0.10491801053285599,"50":-0.07850766181945801,"51":-0.46431058645248413,"52":-0.15743455290794373,"53":0.15224407613277435,"54":-0.39779865741729736,"55":-0.3462200164794922,"56":-0.04935213178396225,"57":-0.05036085098981857,"58":-0.26616767048835754,"59":0.23088493943214417,"60":0.13179603219032288,"61":0.14997301995754242,"62":0.15319828689098358,"63":-0.07463089376688004,"64":-0.09711526334285736,"65":0.0860380008816719,"66":-0.09801827371120453,"67":-0.1977453976869583,"68":0.05989459902048111,"69":0.08030783385038376,"70":-0.14939214289188385,"71":-0.023418962955474854,"72":-0.14050377905368805,"73":0.013892149552702904,"74":-0.22928905487060547,"75":0.22039364278316498,"76":-0.09082856774330139,"77":-0.024640651419758797,"78":-0.20309370756149292,"79":0.06747745722532272,"80":-0.949090301990509,"81":-0.24946267902851105,"82":-0.004152707289904356,"83":-0.1411895602941513,"84":0.3471553325653076,"85":-0.44646164774894714,"86":-0.022900333628058434,"87":0.15015241503715515,"88":-0.20733189582824707,"89":-0.2623514235019684,"90":0.48421791195869446,"91":0.2049083262681961,"92":0.14392845332622528,"93":-0.45534399151802063,"94":0.43018507957458496,"95":0.04963226243853569,"96":0.6910408735275269,"97":0.37548017501831055,"98":0.5724740624427795,"99":-0.25069406628608704,"100":-0.41823896765708923,"101":-0.2549329698085785,"102":0.3634246289730072,"103":-0.44640928506851196,"104":0.4101698398590088,"105":-0.21584495902061462,"106":-0.4354213774204254,"107":-0.010189937427639961,"108":-0.32137399911880493,"109":-0.3628073036670685,"110":0.41970035433769226,"111":0.40636080503463745,"112":-0.05802823230624199,"113":-0.29487502574920654,"114":0.527053952217102,"115":0.42703184485435486,"116":0.5198014378547668,"117":0.35769227147102356,"118":0.4881742596626282,"119":-0.39873290061950684,"120":-0.40670520067214966,"121":-0.2560814917087555,"122":0.1387794464826584,"123":-0.3407444953918457,"124":0.2598680257797241,"125":-0.26725322008132935,"126":-0.22201532125473022,"127":0.08713307231664658,"128":-0.26759323477745056,"129":-0.2683584690093994,"130":0.4536181688308716,"131":0.3817744255065918,"132":-0.01262403093278408,"133":-0.20578579604625702,"134":0.32184502482414246,"135":0.36808085441589355,"136":0.5237297415733337,"137":0.34315985441207886,"138":0.4046402871608734,"139":-0.2446615993976593,"140":0.2661520838737488,"141":0.4285616874694824,"142":0.2883787453174591,"143":0.07064128667116165,"144":-0.08100826293230057,"145":0.12960977852344513,"146":-0.10308093577623367,"147":-0.35998809337615967,"148":0.06567353010177612,"149":0.12011627852916718,"150":-0.3027314245700836,"151":-0.17001748085021973,"152":-0.1360238492488861,"153":0.09568104147911072,"154":-0.3701561391353607,"155":0.26000556349754333,"156":-0.2848573625087738,"157":-0.07121908664703369,"158":-0.2881849706172943,"159":0.12550479173660278,"160":-0.03970763087272644,"161":0.17639200389385223,"162":-0.37268710136413574,"163":0.463236540555954,"164":-0.1634184867143631,"165":0.21142427623271942,"166":0.532444417476654,"167":-0.029959961771965027,"168":0.0857601910829544,"169":0.10044252872467041,"170":-0.19297431409358978,"171":-0.43272802233695984,"172":-0.16883565485477448,"173":0.16509178280830383,"174":-0.34198427200317383,"175":-0.3366253674030304,"176":-0.0497531034052372,"177":-0.08508814871311188,"178":-0.26090577244758606,"179":0.30021628737449646,"180":0.02804136835038662,"181":0.2921810448169708,"182":0.23849737644195557,"183":-0.22089144587516785,"184":0.03921238332986832,"185":0.16132043302059174,"186":-0.23703983426094055,"187":-0.2879152297973633,"188":0.04675557464361191,"189":-0.09309428930282593,"190":-0.29031258821487427,"191":0.1602492779493332,"192":-0.13164913654327393,"193":0.07862535864114761,"194":-0.09925056248903275,"195":0.2518305480480194,"196":-0.14861735701560974,"197":-0.0030609790701419115,"198":-0.02540701813995838,"199":0.03817557543516159,"200":0.2588566243648529,"201":0.3684059977531433,"202":0.34976503252983093,"203":0.05134814232587814,"204":-0.11172512918710709,"205":0.21273396909236908,"206":-0.08458653092384338,"207":-0.4581141471862793,"208":0.019734041765332222,"209":0.09204133599996567,"210":-0.4698163866996765,"211":-0.12347070872783661,"212":-0.21188297867774963,"213":0.014946665614843369,"214":-0.4023357629776001,"215":0.31605610251426697,"216":-0.2676739990711212,"217":-0.14283905923366547,"218":-0.2971365451812744,"219":0.09715305268764496,"220":-0.049706440418958664,"221":0.08268505334854126,"222":0.07301393151283264,"223":0.07164713740348816,"224":-0.026257509365677834,"225":-0.20187750458717346,"226":-0.06990750133991241,"227":0.06434395909309387,"228":0.04356168583035469,"229":0.016229283064603806,"230":-0.007721093948930502,"231":-0.12366989254951477,"232":0.21318857371807098,"233":-0.13257865607738495,"234":-0.06935730576515198,"235":0.10189706087112427,"236":0.08985362946987152,"237":-0.008352991193532944,"238":0.011845959350466728,"239":0.08192139118909836,"240":-0.5105317831039429,"241":-0.3541810214519501,"242":0.2885972857475281,"243":-0.423946738243103,"244":0.35533958673477173,"245":-0.20226934552192688,"246":-0.3552672266960144,"247":0.05218701809644699,"248":-0.36132705211639404,"249":-0.3613915741443634,"250":0.44614872336387634,"251":0.4533766806125641,"252":-0.027444463223218918,"253":-0.2155551016330719,"254":0.5104185342788696,"255":0.35519152879714966,"256":0.5417144298553467,"257":0.4033818244934082,"258":0.4371948540210724,"259":-0.4190672039985657,"260":-0.47523176670074463,"261":-0.2744174599647522,"262":0.3114205002784729,"263":-0.5787501931190491,"264":0.4853655695915222,"265":-0.2822656035423279,"266":-0.3317498564720154,"267":0.10913944989442825,"268":-0.43447569012641907,"269":-0.41095173358917236,"270":0.4716016352176666,"271":0.5284930467605591,"272":-0.11813421547412872,"273":-0.24302302300930023,"274":0.4551522135734558,"275":0.3342485725879669,"276":0.4808524549007416,"277":0.4078608751296997,"278":0.49889400601387024,"279":-0.5005090832710266,"280":-0.014187725260853767,"281":0.16733141243457794,"282":-0.37573739886283875,"283":0.4381195902824402,"284":-0.1369452327489853,"285":0.12027379870414734,"286":0.5951145887374878,"287":-0.09775077551603317,"288":0.08473493903875351,"289":0.0352315790951252,"290":-0.05189937353134155,"291":-0.4539320468902588,"292":-0.1640929877758026,"293":0.1099657341837883,"294":-0.41707852482795715,"295":-0.4377894401550293,"296":-0.024897204712033272,"297":-0.062382206320762634,"298":-0.22298775613307953,"299":0.24224308133125305,"300":-0.47380200028419495,"301":-0.25781235098838806,"302":0.19649723172187805,"303":-0.3609112799167633,"304":0.3228435218334198,"305":-0.33059927821159363,"306":-0.27387771010398865,"307":0.14309127628803253,"308":-0.2222559154033661,"309":-0.3347572684288025,"310":0.3732945919036865,"311":0.3329918086528778,"312":-0.00218125618994236,"313":-0.3071138858795166,"314":0.3788594603538513,"315":0.3039815425872803,"316":0.5465493202209473,"317":0.395763099193573,"318":0.4087618887424469,"319":-0.27107366919517517,"320":0.06574995815753937,"321":0.26714450120925903,"322":-0.2036837488412857,"323":0.2645321190357208,"324":-0.13602150976657867,"325":0.058390118181705475,"326":0.4005551040172577,"327":-0.21425610780715942,"328":0.10390292853116989,"329":0.04709784314036369,"330":-0.2087404727935791,"331":-0.2221362441778183,"332":-0.19723881781101227,"333":0.06062529981136322,"334":-0.31545841693878174,"335":-0.13653038442134857,"336":-0.1050824299454689,"337":-0.1914876252412796,"338":-0.2462274134159088,"339":0.23875898122787476,"340":-0.9372033476829529,"341":-0.4737371504306793,"342":-0.317571759223938,"343":-0.05947363004088402,"344":0.3722342848777771,"345":-0.5121877789497375,"346":0.30069631338119507,"347":0.3513207733631134,"348":-0.2711468040943146,"349":-0.41252651810646057,"350":0.5963860750198364,"351":0.11905614286661148,"352":0.31106632947921753,"353":-0.40331122279167175,"354":0.38920778036117554,"355":-0.28768184781074524,"356":0.7976337671279907,"357":0.5687659978866577,"358":0.5224297642707825,"359":-0.34210658073425293,"360":-0.36491158604621887,"361":-0.19117888808250427,"362":0.3678673207759857,"363":-0.3973211944103241,"364":0.32081878185272217,"365":-0.23031193017959595,"366":-0.3642645478248596,"367":-0.026134414598345757,"368":-0.32947850227355957,"369":-0.3181716799736023,"370":0.2560637593269348,"371":0.3691009283065796,"372":-0.15606167912483215,"373":-0.17936505377292633,"374":0.34201696515083313,"375":0.4233080744743347,"376":0.4551568925380707,"377":0.3443039357662201,"378":0.3491346836090088,"379":-0.38801631331443787,"380":-0.9232314825057983,"381":-0.15264296531677246,"382":0.04036499187350273,"383":-0.21217969059944153,"384":0.3072539269924164,"385":-0.3670032024383545,"386":-0.03077179193496704,"387":0.04657594487071037,"388":-0.29744547605514526,"389":-0.35571324825286865,"390":0.3697277009487152,"391":0.1575492024421692,"392":-0.003695033024996519,"393":-0.4955891966819763,"394":0.3470383882522583,"395":0.10637011379003525,"396":0.695948600769043,"397":0.38635218143463135,"398":0.5020354390144348,"399":-0.3246382772922516}},"inputHidden":{"rows":20,"columns":20,"weights":{"0":-0.13424649834632874,"1":-0.06170642748475075,"2":-0.2881205976009369,"3":0.04273531585931778,"4":-0.1283739060163498,"5":-0.20508365333080292,"6":0.344125360250473,"7":0.13991202414035797,"8":0.2354545146226883,"9":0.005441878456622362,"10":-0.1548493355512619,"11":0.04302609711885452,"12":0.18141017854213715,"13":0.13263021409511566,"14":0.3125907778739929,"15":-0.3550419509410858,"16":0.21090452373027802,"17":-0.13798114657402039,"18":0.15521909296512604,"19":0.1425841748714447,"20":-0.24625515937805176,"21":-0.14863748848438263,"22":-0.04264768958091736,"23":0.17131772637367249,"24":-0.12808877229690552,"25":-0.3168611228466034,"26":0.3924165964126587,"27":-0.10381893068552017,"28":0.04980887472629547,"29":-0.18599720299243927,"30":0.22949804365634918,"31":-0.024413198232650757,"32":0.31045737862586975,"33":0.39170441031455994,"34":-0.0416036956012249,"35":-0.3527979254722595,"36":-0.09383334219455719,"37":-0.26470789313316345,"38":0.29028481245040894,"39":0.22843703627586365,"40":-0.966400682926178,"41":-0.3611599802970886,"42":0.371983140707016,"43":0.7601590752601624,"44":-0.874721348285675,"45":-0.9367656111717224,"46":0.978676974773407,"47":-0.7136780023574829,"48":-0.4070684015750885,"49":-0.41375240683555603,"50":0.7972297072410583,"51":0.14705206453800201,"52":0.9081225991249084,"53":0.9860551357269287,"54":-0.4095473885536194,"55":-1.0683250427246094,"56":-0.41382133960723877,"57":-1.1245766878128052,"58":0.863545835018158,"59":1.1121971607208252,"60":-0.3041330873966217,"61":-0.22865696251392365,"62":-0.13251493871212006,"63":0.2952083349227905,"64":-0.26333725452423096,"65":-0.15736834704875946,"66":0.42166703939437866,"67":-0.12147026509046555,"68":0.12787775695323944,"69":-0.161457821726799,"70":0.20081017911434174,"71":0.04942343384027481,"72":0.23151466250419617,"73":0.19853787124156952,"74":0.05818209797143936,"75":-0.36450740694999695,"76":-0.008039544336497784,"77":-0.36127203702926636,"78":0.21554753184318542,"79":0.276731014251709,"80":0.5325739979743958,"81":0.11232167482376099,"82":-0.19063019752502441,"83":-0.4869619905948639,"84":0.6588915586471558,"85":0.23530007898807526,"86":-0.21362686157226562,"87":0.5379682183265686,"88":0.22061559557914734,"89":0.18620385229587555,"90":-0.5658913850784302,"91":0.13689826428890228,"92":-0.37902745604515076,"93":-0.2732161581516266,"94":0.19815027713775635,"95":0.32951655983924866,"96":0.2075178325176239,"97":0.47657129168510437,"98":-0.26926174759864807,"99":-0.6929511427879333,"100":0.6752469539642334,"101":0.2515321671962738,"102":-0.1372959017753601,"103":-0.6205139756202698,"104":0.9972872138023376,"105":0.42758023738861084,"106":-0.510830283164978,"107":0.5596235990524292,"108":0.1307394802570343,"109":0.1749395728111267,"110":-0.5513551235198975,"111":0.301000714302063,"112":-0.5894052386283875,"113":-0.5292167067527771,"114":0.07218383997678757,"115":0.5813488960266113,"116":0.15889467298984528,"117":0.9378585815429688,"118":-0.5430329442024231,"119":-1.0618910789489746,"120":0.5147074460983276,"121":0.2751571834087372,"122":-0.16118104755878448,"123":-0.5126773118972778,"124":0.862115740776062,"125":0.35656991600990295,"126":-0.2151637226343155,"127":0.41859760880470276,"128":0.16617538034915924,"129":0.17957523465156555,"130":-0.5193144679069519,"131":0.3592603802680969,"132":-0.4408659338951111,"133":-0.3593035638332367,"134":0.09939555078744888,"135":0.2937641441822052,"136":0.13958171010017395,"137":0.7716338038444519,"138":-0.33760932087898254,"139":-0.8801465034484863,"140":-0.6273512840270996,"141":-0.3089544177055359,"142":-0.02118326537311077,"143":0.4826214015483856,"144":-0.584443211555481,"145":-0.5511285662651062,"146":0.697455883026123,"147":-0.31999853253364563,"148":0.08501140028238297,"149":-0.35294705629348755,"150":0.4021384119987488,"151":0.02476658672094345,"152":0.49939095973968506,"153":0.5345948338508606,"154":0.1445310264825821,"155":-0.6961582899093628,"156":-0.11505091935396194,"157":-0.643103837966919,"158":0.5467578768730164,"159":0.4901178777217865,"160":-1.0084172487258911,"161":-0.3313097059726715,"162":0.49135375022888184,"163":0.8881924748420715,"164":-0.9448874592781067,"165":-1.0437358617782593,"166":1.086388349533081,"167":-0.7267324924468994,"168":-0.4032977819442749,"169":-0.3795904517173767,"170":0.7684221267700195,"171":0.2791576087474823,"172":1.0626001358032227,"173":1.007170557975769,"174":-0.48047128319740295,"175":-1.0739340782165527,"176":-0.4673902988433838,"177":-1.0839365720748901,"178":0.9301028251647949,"179":1.0435523986816406,"180":-0.18089334666728973,"181":-0.011863604187965393,"182":-0.28060805797576904,"183":0.07275419682264328,"184":-0.22069677710533142,"185":-0.25553977489471436,"186":0.2621198892593384,"187":-0.02715291827917099,"188":0.35426345467567444,"189":-0.0374068059027195,"190":-0.025662943720817566,"191":0.0778530016541481,"192":0.3263852298259735,"193":0.2437869757413864,"194":0.26169389486312866,"195":-0.30420875549316406,"196":0.09911885857582092,"197":-0.337787389755249,"198":0.2738219201564789,"199":0.21410268545150757,"200":-0.645336925983429,"201":-0.3027726411819458,"202":-0.1285342574119568,"203":0.4238874614238739,"204":-0.5325582027435303,"205":-0.5037305355072021,"206":0.6422632932662964,"207":-0.410986065864563,"208":0.0475335568189621,"209":-0.3312044143676758,"210":0.44391924142837524,"211":-0.012188899330794811,"212":0.5920569896697998,"213":0.5168522596359253,"214":0.09826426953077316,"215":-0.5926834940910339,"216":-0.08782324939966202,"217":-0.6671934127807617,"218":0.5410848259925842,"219":0.6573058366775513,"220":-0.052909862250089645,"221":0.05951991677284241,"222":0.09556663781404495,"223":0.013888536021113396,"224":0.06292781233787537,"225":-0.018952541053295135,"226":0.11956751346588135,"227":-0.09386400133371353,"228":-0.16369830071926117,"229":0.039778586477041245,"230":0.08752696961164474,"231":0.06361792236566544,"232":0.03272176906466484,"233":0.024036191403865814,"234":-0.045358575880527496,"235":-0.044325556606054306,"236":-0.11673799902200699,"237":-0.02321281097829342,"238":0.007738585118204355,"239":-0.008101421408355236,"240":0.6310691237449646,"241":0.3490208685398102,"242":-0.13119153678417206,"243":-0.5054082274436951,"244":1.000990390777588,"245":0.42338287830352783,"246":-0.460292249917984,"247":0.5376337766647339,"248":0.0979568287730217,"249":0.265424907207489,"250":-0.5031206607818604,"251":0.3857572376728058,"252":-0.4753850996494293,"253":-0.4505487382411957,"254":0.14101500809192657,"255":0.5491306781768799,"256":0.12832197546958923,"257":0.9267666935920715,"258":-0.5484088063240051,"259":-1.033708095550537,"260":0.6944634318351746,"261":0.2558293342590332,"262":-0.10596214979887009,"263":-0.5976563692092896,"264":1.003498911857605,"265":0.5705506205558777,"266":-0.6173296570777893,"267":0.5323061943054199,"268":0.2308671772480011,"269":0.2610262930393219,"270":-0.6027700304985046,"271":0.24808768928050995,"272":-0.5245530009269714,"273":-0.49075666069984436,"274":0.10078898817300797,"275":0.6199758052825928,"276":0.1754506677389145,"277":0.9667086601257324,"278":-0.5842637419700623,"279":-1.1413594484329224,"280":-1.064788579940796,"281":-0.31704017519950867,"282":0.42136192321777344,"283":0.8483225703239441,"284":-0.9659383296966553,"285":-0.8839900493621826,"286":0.9200429916381836,"287":-0.7270493507385254,"288":-0.4605136513710022,"289":-0.3547194302082062,"290":0.7605192065238953,"291":0.23129354417324066,"292":0.9454619884490967,"293":1.0133299827575684,"294":-0.4112701714038849,"295":-1.007739543914795,"296":-0.49866411089897156,"297":-1.141563057899475,"298":0.8661053776741028,"299":1.042649745941162,"300":0.6135594844818115,"301":0.20084603130817413,"302":-0.15225650370121002,"303":-0.47562557458877563,"304":0.809531569480896,"305":0.40194764733314514,"306":-0.28134480118751526,"307":0.49982160329818726,"308":0.08354801684617996,"309":0.14320331811904907,"310":-0.540256142616272,"311":0.3885757625102997,"312":-0.3683454990386963,"313":-0.340955913066864,"314":0.05137495696544647,"315":0.3108706474304199,"316":0.1562628149986267,"317":0.77691650390625,"318":-0.4426432251930237,"319":-0.9880433678627014,"320":-0.8601917028427124,"321":-0.285887748003006,"322":0.27374762296676636,"323":0.7483546733856201,"324":-0.7859094738960266,"325":-0.869976282119751,"326":0.9061912894248962,"327":-0.6576172709465027,"328":-0.25677961111068726,"329":-0.4339495003223419,"330":0.6376843452453613,"331":0.1580449491739273,"332":0.8647064566612244,"333":0.9194567203521729,"334":-0.18804696202278137,"335":-0.8801173567771912,"336":-0.35028383135795593,"337":-1.1331720352172852,"338":0.7595257759094238,"339":0.9291920065879822,"340":0.4711412489414215,"341":0.21237841248512268,"342":-0.2844002842903137,"343":-0.4530164301395416,"344":0.6190263032913208,"345":0.19213080406188965,"346":-0.12579354643821716,"347":0.5508447885513306,"348":0.2793550193309784,"349":0.26070961356163025,"350":-0.6337006688117981,"351":0.2046479880809784,"352":-0.26789620518684387,"353":-0.25655126571655273,"354":0.20660625398159027,"355":0.2868083417415619,"356":0.3222353160381317,"357":0.6416110396385193,"358":-0.23566730320453644,"359":-0.7274269461631775,"360":0.5841361284255981,"361":0.2620684802532196,"362":-0.058055728673934937,"363":-0.4555107057094574,"364":0.9207126498222351,"365":0.46633273363113403,"366":-0.37298646569252014,"367":0.5127274990081787,"368":0.17253544926643372,"369":0.12651470303535461,"370":-0.5147133469581604,"371":0.3651033937931061,"372":-0.45482176542282104,"373":-0.4373428523540497,"374":0.04324738308787346,"375":0.413406640291214,"376":0.19697286188602448,"377":0.7075062394142151,"378":-0.3924950063228607,"379":-0.975943922996521,"380":0.46042025089263916,"381":0.013125061057507992,"382":-0.24643650650978088,"383":-0.4423973262310028,"384":0.4788353145122528,"385":0.303909569978714,"386":-0.18498854339122772,"387":0.45562511682510376,"388":0.1680825650691986,"389":0.1415955275297165,"390":-0.43451353907585144,"391":0.2320013791322708,"392":-0.2554172873497009,"393":-0.2516794502735138,"394":0.190228670835495,"395":0.27046138048171997,"396":0.1491258144378662,"397":0.30678659677505493,"398":-0.3493282198905945,"399":-0.6347774863243103}},"inputBias":{"rows":20,"columns":1,"weights":{"0":0.15693166851997375,"1":-0.2969363331794739,"2":0.5745847225189209,"3":-0.371955931186676,"4":0.7463993430137634,"5":0.1887410432100296,"6":0.4509162902832031,"7":-0.6069599986076355,"8":0.5928186178207397,"9":-0.3622499704360962,"10":-0.5935502052307129,"11":-0.26308473944664,"12":0.3116210699081421,"13":0.21419113874435425,"14":0.5656396150588989,"15":0.4586775004863739,"16":0.1689777374267578,"17":0.8703614473342896,"18":0.2606252133846283,"19":0.7207980155944824}},"forgetMatrix":{"rows":20,"columns":20,"weights":{"0":0.03462902083992958,"1":0.007485282141715288,"2":0.20497606694698334,"3":-0.1502862572669983,"4":0.14277642965316772,"5":0.045251116156578064,"6":-0.2882949709892273,"7":-0.06725902110338211,"8":0.000660273595713079,"9":-0.1668417900800705,"10":0.024083735421299934,"11":0.21273210644721985,"12":-0.06527093797922134,"13":0.012146763503551483,"14":0.03711308166384697,"15":0.28793030977249146,"16":-0.01300608366727829,"17":0.0871315598487854,"18":0.11021354794502258,"19":-0.09340079873800278,"20":0.0766945406794548,"21":-0.03449137508869171,"22":-0.03576526418328285,"23":0.08557330071926117,"24":0.011370252817869186,"25":0.02967718057334423,"26":-0.041270311921834946,"27":0.044066205620765686,"28":0.09929030388593674,"29":0.02205122821033001,"30":0.011605336330831051,"31":-0.050268687307834625,"32":0.026329370215535164,"33":-0.011412489227950573,"34":-0.06309887021780014,"35":-0.007816245779395103,"36":0.036951858550310135,"37":-0.008110925555229187,"38":-0.017501089721918106,"39":0.10349259525537491,"40":0.12130635231733322,"41":0.344606876373291,"42":0.03913014382123947,"43":-0.03263835236430168,"44":-0.026964014396071434,"45":0.39884063601493835,"46":0.007984258234500885,"47":-0.3730531632900238,"48":0.03673502430319786,"49":0.00703054666519165,"50":-0.4332174062728882,"51":0.054699353873729706,"52":-0.32808324694633484,"53":0.21375547349452972,"54":-0.3829394578933716,"55":0.007486120797693729,"56":-0.2982383966445923,"57":-0.20055460929870605,"58":-0.23785750567913055,"59":0.10786955058574677,"60":0.025750290602445602,"61":-0.007752688601613045,"62":0.02713855914771557,"63":0.030949760228395462,"64":-0.07317796349525452,"65":0.10340233892202377,"66":-0.11502055823802948,"67":-0.06639738380908966,"68":0.07314147800207138,"69":-0.020594464614987373,"70":-0.08803274482488632,"71":0.0013668638421222568,"72":-0.0016060412162914872,"73":0.01613423228263855,"74":0.06324775516986847,"75":0.025318173691630363,"76":-0.08870898932218552,"77":-0.04617892578244209,"78":-0.021769937127828598,"79":-0.014665055088698864,"80":-0.11756255477666855,"81":-0.061424870043992996,"82":0.3133350610733032,"83":-0.41953548789024353,"84":0.35945263504981995,"85":-0.04407992213964462,"86":-0.3450947701931,"87":-0.1347433626651764,"88":-0.2935638129711151,"89":-0.29131627082824707,"90":-0.006683487445116043,"91":0.4336794316768646,"92":-0.08761575818061829,"93":-0.10466644912958145,"94":0.04815481975674629,"95":0.2185228168964386,"96":0.010718230158090591,"97":0.2724664807319641,"98":0.2007109522819519,"99":-0.2808816134929657,"100":-0.2094729095697403,"101":0.03691974654793739,"102":0.2270035594701767,"103":-0.46742987632751465,"104":0.4177744388580322,"105":0.0842113345861435,"106":-0.3481898605823517,"107":-0.10491488873958588,"108":-0.3243524134159088,"109":-0.49965575337409973,"110":0.0006977953016757965,"111":0.4900575280189514,"112":-0.13351134955883026,"113":-0.16006039083003998,"114":0.10197340697050095,"115":0.2537958025932312,"116":-0.07509949803352356,"117":0.28736570477485657,"118":0.27116498351097107,"119":-0.3544193506240845,"120":-0.09061340242624283,"121":0.08035065978765488,"122":0.21209293603897095,"123":-0.3171079456806183,"124":0.16108641028404236,"125":0.11077284067869186,"126":-0.18182191252708435,"127":-0.10401299595832825,"128":-0.22641301155090332,"129":-0.18803875148296356,"130":-0.03790290281176567,"131":0.27840739488601685,"132":-0.12456721067428589,"133":-0.07062695920467377,"134":0.04105197265744209,"135":0.12992826104164124,"136":-0.08066928386688232,"137":0.17130020260810852,"138":0.061769112944602966,"139":-0.25902533531188965,"140":0.149925097823143,"141":0.020629843696951866,"142":0.0316648930311203,"143":0.10584335029125214,"144":-0.07435714453458786,"145":0.04488370567560196,"146":-0.03641827777028084,"147":0.018357185646891594,"148":0.05194290354847908,"149":0.10271807760000229,"150":-0.013184521347284317,"151":-0.09307441860437393,"152":-0.14569242298603058,"153":0.08878430724143982,"154":-0.04856817051768303,"155":0.03244033455848694,"156":-0.09090162068605423,"157":-0.11203435808420181,"158":-0.0775260403752327,"159":0.08055433630943298,"160":0.2504197657108307,"161":0.38313400745391846,"162":0.05638818442821503,"163":-0.08609344810247421,"164":-0.060126207768917084,"165":0.40154579281806946,"166":-0.0199577696621418,"167":-0.40086647868156433,"168":0.028182905167341232,"169":0.135682612657547,"170":-0.37655526399612427,"171":-0.05480547994375229,"172":-0.3215499818325043,"173":0.18760767579078674,"174":-0.4404447078704834,"175":0.046643663197755814,"176":-0.3450256884098053,"177":-0.12544016540050507,"178":-0.3904569447040558,"179":0.1279093623161316,"180":0.07263165712356567,"181":0.01921108365058899,"182":-0.03409995883703232,"183":0.11066582798957825,"184":-0.03444264829158783,"185":-0.0001077864581020549,"186":0.061919309198856354,"187":0.053154874593019485,"188":0.056034188717603683,"189":0.09410824626684189,"190":-0.02159217558801174,"191":-0.12632150948047638,"192":0.08393482118844986,"193":-0.026397958397865295,"194":-0.03260695934295654,"195":-0.06961643695831299,"196":-0.04243841767311096,"197":-0.09151744097471237,"198":-0.022542204707860947,"199":0.12344253808259964,"200":0.11810772120952606,"201":0.06537184119224548,"202":0.051823053508996964,"203":0.1859837770462036,"204":-0.055392973124980927,"205":0.1404988169670105,"206":0.09028755873441696,"207":-0.04314875975251198,"208":0.17163723707199097,"209":0.07649421691894531,"210":-0.10259417444467545,"211":-0.10015172511339188,"212":-0.0722176730632782,"213":0.1187596395611763,"214":-0.0770307257771492,"215":-0.02950681373476982,"216":-0.006104376167058945,"217":-0.17551341652870178,"218":-0.07456552982330322,"219":0.04929811507463455,"220":0.04835699871182442,"221":-0.05888328701257706,"222":0.05843466892838478,"223":-0.017690949141979218,"224":0.0672508031129837,"225":-0.020691683515906334,"226":-0.04632025957107544,"227":-0.030169544741511345,"228":0.056156568229198456,"229":-0.06630849093198776,"230":-0.0529826357960701,"231":-0.022075315937399864,"232":0.004476319532841444,"233":0.03599448874592781,"234":0.0208995770663023,"235":-0.001407634117640555,"236":-0.061275675892829895,"237":0.05353762209415436,"238":-0.018665043637156487,"239":-0.02920740470290184,"240":-0.28515514731407166,"241":0.0763629823923111,"242":0.3033938705921173,"243":-0.4446445405483246,"244":0.40821853280067444,"245":-0.04248307645320892,"246":-0.3969132900238037,"247":-0.09192734211683273,"248":-0.28321096301078796,"249":-0.39102110266685486,"250":-0.07375074177980423,"251":0.4796379804611206,"252":-0.07908620685338974,"253":-0.08520028740167618,"254":0.19919446110725403,"255":0.25224030017852783,"256":-0.041725337505340576,"257":0.3368561863899231,"258":0.2422076165676117,"259":-0.345710426568985,"260":-0.2571001648902893,"261":0.01812184602022171,"262":0.23114946484565735,"263":-0.5533655881881714,"264":0.3954121172428131,"265":-0.06015032157301903,"266":-0.4448273181915283,"267":-0.20062761008739471,"268":-0.46202826499938965,"269":-0.4499969482421875,"270":0.01155045535415411,"271":0.5336154699325562,"272":-0.03567557409405708,"273":-0.18984143435955048,"274":0.17844785749912262,"275":0.2909114956855774,"276":0.0645756646990776,"277":0.3124693036079407,"278":0.31595128774642944,"279":-0.39427313208580017,"280":0.17732128500938416,"281":0.43668133020401,"282":0.09505908191204071,"283":-0.12067896872758865,"284":-0.13006049394607544,"285":0.3339872658252716,"286":0.0013213405618444085,"287":-0.3606913387775421,"288":-0.024560699239373207,"289":0.03232298418879509,"290":-0.4732177257537842,"291":-0.06520454585552216,"292":-0.30845195055007935,"293":0.21509002149105072,"294":-0.33738481998443604,"295":0.006363546475768089,"296":-0.2795153260231018,"297":-0.11768117547035217,"298":-0.34714674949645996,"299":0.07744390517473221,"300":-0.10082413256168365,"301":-0.02171911671757698,"302":0.2525099813938141,"303":-0.35375916957855225,"304":0.23336607217788696,"305":0.04343423992395401,"306":-0.25297263264656067,"307":-0.08075285702943802,"308":-0.17652449011802673,"309":-0.26786163449287415,"310":-0.07811202853918076,"311":0.33908042311668396,"312":-0.10678257793188095,"313":-0.019390514120459557,"314":0.05240900069475174,"315":0.22978055477142334,"316":-0.025772741064429283,"317":0.1627895087003708,"318":0.14556697010993958,"319":-0.2949613928794861,"320":0.15037770569324493,"321":0.2914605140686035,"322":0.1103825569152832,"323":-0.05332758650183678,"324":-0.13780255615711212,"325":0.19039234519004822,"326":-0.014852920547127724,"327":-0.304361492395401,"328":0.011771666817367077,"329":0.08095012605190277,"330":-0.2325025349855423,"331":-0.12472222745418549,"332":-0.20259489119052887,"333":0.2338675856590271,"334":-0.2984158396720886,"335":0.06648965179920197,"336":-0.18369664251804352,"337":-0.13019312918186188,"338":-0.28087523579597473,"339":0.09120140224695206,"340":-0.19722580909729004,"341":-0.014866477809846401,"342":0.2506304681301117,"343":-0.2741338908672333,"344":0.20623399317264557,"345":-0.01090320572257042,"346":-0.32147738337516785,"347":-0.03838907927274704,"348":-0.19084513187408447,"349":-0.25344863533973694,"350":0.0018464770400896668,"351":0.27559489011764526,"352":0.0515357106924057,"353":0.01365023385733366,"354":0.1117899939417839,"355":0.20051534473896027,"356":-0.07539799809455872,"357":0.23400723934173584,"358":0.19877900183200836,"359":-0.27010467648506165,"360":-0.1503244787454605,"361":0.1006007045507431,"362":0.21828189492225647,"363":-0.5152146816253662,"364":0.26607903838157654,"365":-0.0077157216146588326,"366":-0.3399185538291931,"367":-0.18409191071987152,"368":-0.32215723395347595,"369":-0.27517828345298767,"370":0.02178245410323143,"371":0.3905888795852661,"372":-0.04920875281095505,"373":-0.10776685178279877,"374":0.14765961468219757,"375":0.20986562967300415,"376":-0.06051836162805557,"377":0.281553715467453,"378":0.21656730771064758,"379":-0.3117600381374359,"380":-0.24222657084465027,"381":0.05507196858525276,"382":0.3749668598175049,"383":-0.4145721197128296,"384":0.3386986255645752,"385":-0.016433442011475563,"386":-0.40009045600891113,"387":-0.021342257037758827,"388":-0.3277631103992462,"389":-0.3090026378631592,"390":-0.04239872470498085,"391":0.5210217833518982,"392":-0.11436015367507935,"393":-0.05632142350077629,"394":0.12531527876853943,"395":0.42879462242126465,"396":-0.04677146300673485,"397":0.3701838552951813,"398":0.31238704919815063,"399":-0.34727945923805237}},"forgetHidden":{"rows":20,"columns":20,"weights":{"0":0.18352289497852325,"1":0.036913901567459106,"2":-0.13593679666519165,"3":-0.11398015916347504,"4":0.13827884197235107,"5":0.020819339901208878,"6":0.046384021639823914,"7":0.11341477185487747,"8":0.12091245502233505,"9":0.05390497297048569,"10":-0.09717107564210892,"11":0.11792926490306854,"12":-0.039099957793951035,"13":-0.06753707677125931,"14":0.08280868083238602,"15":0.08521715551614761,"16":0.20171897113323212,"17":0.08844160288572311,"18":-0.08831287175416946,"19":-0.09471981227397919,"20":0.008394443430006504,"21":-0.07218541949987411,"22":0.0577520951628685,"23":0.01694021001458168,"24":0.020749088376760483,"25":-0.022830016911029816,"26":-0.05193110555410385,"27":-0.07356326282024384,"28":-0.10802166908979416,"29":-0.050026360899209976,"30":0.0696212574839592,"31":-0.03279333934187889,"32":0.04208576679229736,"33":-0.03148850426077843,"34":-0.04399619251489639,"35":-0.03491400554776192,"36":-0.06833317130804062,"37":0.03150121867656708,"38":-0.06043999269604683,"39":-0.019950425252318382,"40":-0.45929014682769775,"41":-0.10513456910848618,"42":0.11100222915410995,"43":0.26957380771636963,"44":-0.5935742855072021,"45":-0.3062175214290619,"46":0.3928704261779785,"47":-0.2502917945384979,"48":-0.18299500644207,"49":-0.16188101470470428,"50":0.24625422060489655,"51":-0.06970829516649246,"52":0.2930145561695099,"53":0.3798082768917084,"54":-0.1776542067527771,"55":-0.39908143877983093,"56":-0.15111099183559418,"57":-0.6539804339408875,"58":0.23651368916034698,"59":0.5928244590759277,"60":0.09420815855264664,"61":-0.002072086790576577,"62":-0.028117123991250992,"63":-0.025503337383270264,"64":0.13578595221042633,"65":0.0704958364367485,"66":-0.003449629992246628,"67":0.021740591153502464,"68":-0.07702562212944031,"69":-0.037592846900224686,"70":-0.07758509367704391,"71":0.012235845439136028,"72":-0.020020827651023865,"73":-0.10474584996700287,"74":0.027961306273937225,"75":0.027360687032341957,"76":0.029837338253855705,"77":0.1387656331062317,"78":-0.0324837826192379,"79":-0.13021840155124664,"80":0.08707760274410248,"81":0.12825852632522583,"82":-0.08991721272468567,"83":-0.18825122714042664,"84":0.18138018250465393,"85":0.11300460249185562,"86":0.019674675539135933,"87":0.0826217532157898,"88":0.10182595998048782,"89":-0.006595752667635679,"90":-0.18883049488067627,"91":0.1374257504940033,"92":-0.07047298550605774,"93":-0.05658097192645073,"94":0.11189871281385422,"95":0.022051293402910233,"96":0.10876846313476562,"97":0.0890415757894516,"98":-0.07849567383527756,"99":-0.13421736657619476,"100":0.105164535343647,"101":-0.000657229742500931,"102":-0.15895287692546844,"103":-0.18782201409339905,"104":0.055950649082660675,"105":0.2577091157436371,"106":-0.12394526600837708,"107":0.1547432839870453,"108":0.059814948588609695,"109":-0.07085922360420227,"110":-0.15809358656406403,"111":0.09663772583007812,"112":-0.21868996322155,"113":-0.3384687900543213,"114":0.18852917850017548,"115":0.1628183126449585,"116":0.10644803196191788,"117":0.03312345966696739,"118":-0.26963698863983154,"119":-0.2020512968301773,"120":-0.034134671092033386,"121":0.03210454061627388,"122":-0.10674770921468735,"123":-0.034775253385305405,"124":0.027478938922286034,"125":0.10701172053813934,"126":-0.09699169546365738,"127":0.02366095408797264,"128":0.1333221197128296,"129":0.03353654220700264,"130":-0.1106889545917511,"131":0.012839659117162228,"132":-0.10659710317850113,"133":-0.10561613738536835,"134":0.044259145855903625,"135":0.037712953984737396,"136":0.12552320957183838,"137":-0.058629538863897324,"138":-0.11460567265748978,"139":-0.11111626774072647,"140":-0.03926624730229378,"141":0.004674855619668961,"142":0.19275057315826416,"143":0.08607786893844604,"144":0.005738395266234875,"145":0.020260363817214966,"146":-0.05521136894822121,"147":-0.04371044784784317,"148":-0.14768007397651672,"149":0.006389149930328131,"150":0.056155625730752945,"151":-0.016778698191046715,"152":0.02445780672132969,"153":0.02161703258752823,"154":-0.09269952028989792,"155":0.006814379710704088,"156":-0.14401087164878845,"157":0.08103281259536743,"158":-0.07207999378442764,"159":-0.0916493684053421,"160":-0.40502581000328064,"161":-0.1121736541390419,"162":0.1524268388748169,"163":0.3061104714870453,"164":-0.685728132724762,"165":-0.32488590478897095,"166":0.4002830386161804,"167":-0.30210891366004944,"168":-0.25329795479774475,"169":-0.139700785279274,"170":0.39719629287719727,"171":-0.042605575174093246,"172":0.3354615271091461,"173":0.3745185434818268,"174":-0.17297905683517456,"175":-0.3692736327648163,"176":-0.20721963047981262,"177":-0.6869376301765442,"178":0.3993292450904846,"179":0.6305534839630127,"180":-0.11009259521961212,"181":-0.08263834565877914,"182":0.10418569296598434,"183":0.11657396703958511,"184":0.12217490375041962,"185":0.0839025005698204,"186":-0.00908755324780941,"187":-0.0988612174987793,"188":-0.1054103821516037,"189":-0.00031865492928773165,"190":0.17069564759731293,"191":-0.02284625545144081,"192":-0.004806949757039547,"193":-0.03907625749707222,"194":-0.11275739222764969,"195":0.03541632369160652,"196":-0.2029494047164917,"197":0.02489158883690834,"198":-0.07921228557825089,"199":0.011159934103488922,"200":-0.013036509975790977,"201":-0.01124146394431591,"202":0.14736691117286682,"203":0.10340312123298645,"204":0.07381903380155563,"205":-0.02336832694709301,"206":0.06637115776538849,"207":-0.06496641039848328,"208":-0.2248406559228897,"209":-0.046484868973493576,"210":0.06975914537906647,"211":0.05383232980966568,"212":-0.06700358539819717,"213":-0.07323203235864639,"214":-0.10800217092037201,"215":-0.07000943273305893,"216":-0.11534097790718079,"217":0.10154979676008224,"218":0.03790795058012009,"219":-0.08321608603000641,"220":-0.006091903895139694,"221":0.034964386373758316,"222":-0.05449523776769638,"223":-0.027042387053370476,"224":-0.008660159073770046,"225":0.026759164407849312,"226":-0.04119701310992241,"227":-0.049008049070835114,"228":0.024515803903341293,"229":-0.062422726303339005,"230":0.04551255330443382,"231":0.01115697156637907,"232":-0.010010427795350552,"233":-0.006611432880163193,"234":-0.03741072118282318,"235":0.024515848606824875,"236":-0.033068735152482986,"237":-0.006608736235648394,"238":-0.04659842699766159,"239":-0.0858801081776619,"240":0.08037951588630676,"241":0.057338956743478775,"242":-0.0475899875164032,"243":-0.15130364894866943,"244":0.09395886212587357,"245":0.2754594683647156,"246":-0.16909678280353546,"247":0.11459598690271378,"248":0.13616272807121277,"249":0.03586987033486366,"250":-0.08499300479888916,"251":0.07130028307437897,"252":-0.28187572956085205,"253":-0.3125869333744049,"254":0.13391561806201935,"255":0.0818575993180275,"256":0.1776806265115738,"257":0.07358620315790176,"258":-0.2405451089143753,"259":-0.1496305614709854,"260":0.10697642713785172,"261":0.07941588014364243,"262":-0.17951487004756927,"263":-0.1398012787103653,"264":0.09149878472089767,"265":0.31114819645881653,"266":-0.20970763266086578,"267":0.10273745656013489,"268":0.11028136312961578,"269":0.028730692341923714,"270":-0.11569175124168396,"271":0.060855455696582794,"272":-0.2741391062736511,"273":-0.2643935978412628,"274":0.14146801829338074,"275":0.24385933578014374,"276":0.18620434403419495,"277":0.02626795694231987,"278":-0.16738790273666382,"279":-0.18881963193416595,"280":-0.475473552942276,"281":-0.04877614602446556,"282":0.1014113649725914,"283":0.3487180173397064,"284":-0.5556701421737671,"285":-0.22977307438850403,"286":0.3429234027862549,"287":-0.3146717846393585,"288":-0.21951071918010712,"289":-0.1763238161802292,"290":0.29963192343711853,"291":0.02995084784924984,"292":0.3139886260032654,"293":0.36066752672195435,"294":-0.13762488961219788,"295":-0.39043915271759033,"296":-0.0996621698141098,"297":-0.6705942749977112,"298":0.3644942343235016,"299":0.6272005438804626,"300":0.08939038962125778,"301":-0.004599610809236765,"302":-0.1543949842453003,"303":0.0054568699561059475,"304":0.014839712530374527,"305":0.13617132604122162,"306":-0.055379416793584824,"307":-0.00593830831348896,"308":0.12495297193527222,"309":-0.021088913083076477,"310":-0.12039501965045929,"311":0.023807693272829056,"312":-0.17450720071792603,"313":-0.1872551590204239,"314":0.13044723868370056,"315":0.02048502489924431,"316":0.019774064421653748,"317":-0.04314104840159416,"318":-0.12955382466316223,"319":-0.05814320594072342,"320":-0.3296859562397003,"321":-0.07270094752311707,"322":0.05758992210030556,"323":0.2249932438135147,"324":-0.35478439927101135,"325":-0.1849987506866455,"326":0.25856080651283264,"327":-0.1938275843858719,"328":-0.08017442375421524,"329":-0.02211597003042698,"330":0.12791448831558228,"331":0.006181628908962011,"332":0.24024726450443268,"333":0.1883334070444107,"334":-0.0862150490283966,"335":-0.23160633444786072,"336":-0.12181084603071213,"337":-0.4029981791973114,"338":0.14838896691799164,"339":0.36285632848739624,"340":0.16278229653835297,"341":0.12353850156068802,"342":-0.09774111211299896,"343":-0.1382564753293991,"344":0.1610754430294037,"345":0.052639108151197433,"346":-0.08413819968700409,"347":0.09920933842658997,"348":0.1283058375120163,"349":-0.022860636934638023,"350":-0.21380841732025146,"351":0.12693403661251068,"352":-0.025789611041545868,"353":-0.09740068018436432,"354":0.08878525346517563,"355":0.09726706892251968,"356":0.06847319006919861,"357":0.1412544995546341,"358":-0.062407638877630234,"359":-0.15433482825756073,"360":0.055699922144412994,"361":-0.00770973926410079,"362":-0.12813790142536163,"363":-0.14767086505889893,"364":0.05730680748820305,"365":0.27920135855674744,"366":-0.15315324068069458,"367":0.13032345473766327,"368":0.12342159450054169,"369":0.07171696424484253,"370":-0.09478972107172012,"371":0.09609927982091904,"372":-0.21629682183265686,"373":-0.23315969109535217,"374":0.14499182999134064,"375":0.07277408242225647,"376":0.12249155342578888,"377":0.09079868346452713,"378":-0.13504603505134583,"379":-0.18408183753490448,"380":0.19160032272338867,"381":0.028103681281208992,"382":-0.12510690093040466,"383":-0.1809084713459015,"384":0.19073708355426788,"385":0.06016536056995392,"386":-0.09480541944503784,"387":0.13088461756706238,"388":0.18757076561450958,"389":-0.06309148669242859,"390":-0.15105748176574707,"391":0.1725650429725647,"392":-0.06264181435108185,"393":-0.1829034686088562,"394":0.12019138783216476,"395":0.11707735061645508,"396":0.12458368390798569,"397":0.17235158383846283,"398":-0.09115994721651077,"399":-0.2330939620733261}},"forgetBias":{"rows":20,"columns":1,"weights":{"0":0,"1":0,"2":0,"3":0,"4":0,"5":0,"6":0,"7":0,"8":0,"9":0,"10":0,"11":0,"12":0,"13":0,"14":0,"15":0,"16":0,"17":0,"18":0,"19":0}},"outputMatrix":{"rows":20,"columns":20,"weights":{"0":-0.20941638946533203,"1":0.11051130294799805,"2":0.20773088932037354,"3":-0.1670740693807602,"4":0.12535002827644348,"5":-0.06563665717840195,"6":-0.2161986529827118,"7":-0.08191951364278793,"8":-0.14599883556365967,"9":-0.08502913266420364,"10":0.07301203906536102,"11":0.09416033327579498,"12":-0.2111116200685501,"13":-0.04741225391626358,"14":0.10467788577079773,"15":0.3655588626861572,"16":0.254033625125885,"17":0.19014909863471985,"18":0.20232053101062775,"19":-0.17091219127178192,"20":0.17304275929927826,"21":0.22699204087257385,"22":-0.0026515554636716843,"23":0.2819216549396515,"24":-0.2991417348384857,"25":0.11088178306818008,"26":0.10930909961462021,"27":-0.22176826000213623,"28":0.24438227713108063,"29":0.2425927370786667,"30":-0.20390988886356354,"31":-0.3444095849990845,"32":-0.08142045885324478,"33":0.06522607803344727,"34":-0.3622133433818817,"35":0.043514102697372437,"36":-0.17903095483779907,"37":-0.21825401484966278,"38":-0.3076261579990387,"39":0.36622732877731323,"40":-0.04658021405339241,"41":0.39815884828567505,"42":-0.281036376953125,"43":0.4759986102581024,"44":-0.19637177884578705,"45":0.2208496332168579,"46":0.5514934659004211,"47":-0.2235361635684967,"48":0.09360317885875702,"49":0.16223351657390594,"50":-0.30359482765197754,"51":-0.495132714509964,"52":-0.21297506988048553,"53":0.14137570559978485,"54":-0.5715701580047607,"55":-0.37053555250167847,"56":-0.08790110051631927,"57":-0.12544533610343933,"58":-0.25246554613113403,"59":0.3554611802101135,"60":0.14559432864189148,"61":0.1941363364458084,"62":0.26932239532470703,"63":-0.0025034884456545115,"64":-0.1528817117214203,"65":0.08817334473133087,"66":-0.30549708008766174,"67":-0.32603156566619873,"68":0.15305939316749573,"69":0.08021668344736099,"70":-0.27304184436798096,"71":-0.07175089418888092,"72":-0.20852281153202057,"73":0.03639351949095726,"74":-0.20815260708332062,"75":0.27576175332069397,"76":-0.12283778190612793,"77":-0.13077318668365479,"78":-0.23180235922336578,"79":0.061635833233594894,"80":-1.1081284284591675,"81":-0.3116302788257599,"82":0.1260327249765396,"83":-0.1576155573129654,"84":0.42756229639053345,"85":-0.5724403858184814,"86":-0.13312795758247375,"87":0.131648987531662,"88":-0.30099979043006897,"89":-0.3319734036922455,"90":0.5449866056442261,"91":0.2451055943965912,"92":0.13333435356616974,"93":-0.6203038096427917,"94":0.546139121055603,"95":0.09486745297908783,"96":0.8411861062049866,"97":0.5414784550666809,"98":0.5947327613830566,"99":-0.30081287026405334,"100":-0.442249596118927,"101":-0.3302910327911377,"102":0.3806643784046173,"103":-0.5340194702148438,"104":0.47707706689834595,"105":-0.301746129989624,"106":-0.43285179138183594,"107":0.053332943469285965,"108":-0.46030232310295105,"109":-0.48223790526390076,"110":0.4372907280921936,"111":0.5914078950881958,"112":-0.15203680098056793,"113":-0.2988344728946686,"114":0.4370715916156769,"115":0.576695442199707,"116":0.4823743402957916,"117":0.4961634874343872,"118":0.5075967311859131,"119":-0.44081249833106995,"120":-0.45119577646255493,"121":-0.2287875860929489,"122":0.2938087284564972,"123":-0.2895461618900299,"124":0.39229103922843933,"125":-0.3145115375518799,"126":-0.35075291991233826,"127":0.11180321127176285,"128":-0.34978896379470825,"129":-0.38465335965156555,"130":0.4770740270614624,"131":0.3378966450691223,"132":0.013219420798122883,"133":-0.2986120581626892,"134":0.41344213485717773,"135":0.44182783365249634,"136":0.5479477047920227,"137":0.4279406666755676,"138":0.39619553089141846,"139":-0.3867533206939697,"140":0.238432377576828,"141":0.47702085971832275,"142":0.35272449254989624,"143":0.11133179813623428,"144":-0.21948611736297607,"145":0.27180880308151245,"146":-0.18415285646915436,"147":-0.5064144134521484,"148":0.07027435302734375,"149":0.17555198073387146,"150":-0.5001096725463867,"151":-0.09009835124015808,"152":-0.24072052538394928,"153":0.21079836785793304,"154":-0.4680463969707489,"155":0.2986733615398407,"156":-0.3715049922466278,"157":-0.18732427060604095,"158":-0.35393884778022766,"159":0.2582811713218689,"160":0.06431424617767334,"161":0.34602147340774536,"162":-0.28881704807281494,"163":0.5424092411994934,"164":-0.17868465185165405,"165":0.2888025939464569,"166":0.5522973537445068,"167":-0.2409881353378296,"168":0.18011611700057983,"169":0.22526901960372925,"170":-0.19888927042484283,"171":-0.4133256673812866,"172":-0.3519722521305084,"173":0.17522719502449036,"174":-0.4766231179237366,"175":-0.3529079556465149,"176":-0.15120795369148254,"177":-0.22621822357177734,"178":-0.386684387922287,"179":0.3147488832473755,"180":0.016004523262381554,"181":0.2639390230178833,"182":0.3518836498260498,"183":-0.26512062549591064,"184":0.10150374472141266,"185":0.15245184302330017,"186":-0.15683825314044952,"187":-0.3361664414405823,"188":0.04261859506368637,"189":-0.07985669374465942,"190":-0.3205808401107788,"191":0.11155470460653305,"192":-0.24373658001422882,"193":0.13847200572490692,"194":-0.18505848944187164,"195":0.19745826721191406,"196":-0.2729247510433197,"197":0.0008982737199403346,"198":-0.06881291419267654,"199":0.0062390221282839775,"200":0.28772902488708496,"201":0.4220576882362366,"202":0.33575257658958435,"203":0.08712621033191681,"204":-0.10151660442352295,"205":0.28219401836395264,"206":-0.06458419561386108,"207":-0.4916571080684662,"208":0.11980318278074265,"209":0.17944301664829254,"210":-0.5314450860023499,"211":-0.14599254727363586,"212":-0.2941800653934479,"213":0.15261150896549225,"214":-0.3995678126811981,"215":0.18475714325904846,"216":-0.3121143579483032,"217":-0.2593124210834503,"218":-0.3432295620441437,"219":0.1679164469242096,"220":-0.06965131312608719,"221":0.06534978002309799,"222":0.11032366752624512,"223":0.05264715850353241,"224":-0.007985078729689121,"225":-0.16914865374565125,"226":-0.052278872579336166,"227":-0.06116871163249016,"228":-0.07669059932231903,"229":0.0069835493341088295,"230":0.07099123299121857,"231":-0.12544570863246918,"232":0.23151719570159912,"233":-0.05329281464219093,"234":0.04317987337708473,"235":0.21655060350894928,"236":0.10401954501867294,"237":-0.004761399235576391,"238":0.09616730362176895,"239":-0.002547586802393198,"240":-0.47656211256980896,"241":-0.2619234323501587,"242":0.3381839990615845,"243":-0.5056259632110596,"244":0.496191143989563,"245":-0.26530468463897705,"246":-0.35252687335014343,"247":0.07159584760665894,"248":-0.3677166700363159,"249":-0.49565446376800537,"250":0.5031181573867798,"251":0.5253764390945435,"252":-0.05476514250040054,"253":-0.30416736006736755,"254":0.40212514996528625,"255":0.5301967263221741,"256":0.5182430744171143,"257":0.481156587600708,"258":0.534119725227356,"259":-0.3923264443874359,"260":-0.5415095090866089,"261":-0.46625691652297974,"262":0.31074920296669006,"263":-0.670827329158783,"264":0.4919227659702301,"265":-0.3690643608570099,"266":-0.35723206400871277,"267":0.02589215710759163,"268":-0.42046040296554565,"269":-0.4838859438896179,"270":0.42246490716934204,"271":0.5731756091117859,"272":0.017407910898327827,"273":-0.42743638157844543,"274":0.5585240125656128,"275":0.49453040957450867,"276":0.6540363430976868,"277":0.521949291229248,"278":0.533721923828125,"279":-0.5805173516273499,"280":-0.012061775662004948,"281":0.37734729051589966,"282":-0.300393283367157,"283":0.49893927574157715,"284":-0.09785756468772888,"285":0.19157937169075012,"286":0.5752663612365723,"287":-0.12689808011054993,"288":0.14527198672294617,"289":0.15951937437057495,"290":-0.18853692710399628,"291":-0.5009886026382446,"292":-0.23599867522716522,"293":0.18243972957134247,"294":-0.5169493556022644,"295":-0.3736669719219208,"296":-0.10004701465368271,"297":-0.11454562842845917,"298":-0.24574121832847595,"299":0.3062207102775574,"300":-0.4289647936820984,"301":-0.2797653079032898,"302":0.3688351809978485,"303":-0.38398224115371704,"304":0.3278087377548218,"305":-0.2457021325826645,"306":-0.3302164673805237,"307":0.03839676082134247,"308":-0.2714868187904358,"309":-0.37704458832740784,"310":0.4544335603713989,"311":0.3368554711341858,"312":-0.07960300147533417,"313":-0.23463773727416992,"314":0.35206684470176697,"315":0.42999058961868286,"316":0.5596939325332642,"317":0.4158135652542114,"318":0.4643819332122803,"319":-0.3225165903568268,"320":0.09672722220420837,"321":0.5057292580604553,"322":-0.16650624573230743,"323":0.4156745672225952,"324":-0.11759047210216522,"325":0.19739997386932373,"326":0.4105567932128906,"327":-0.32934820652008057,"328":0.1704186350107193,"329":0.12029854953289032,"330":-0.3625291883945465,"331":-0.3615981936454773,"332":-0.26047283411026,"333":0.08146511763334274,"334":-0.4527598023414612,"335":-0.16202940046787262,"336":-0.1225096583366394,"337":-0.1885823756456375,"338":-0.3458137512207031,"339":0.29194751381874084,"340":-1.0955487489700317,"341":-0.5080966353416443,"342":-0.3915741741657257,"343":-0.21371108293533325,"344":0.4068702757358551,"345":-0.7108999490737915,"346":0.2209908813238144,"347":0.5097801089286804,"348":-0.43835213780403137,"349":-0.43341049551963806,"350":0.7431949377059937,"351":0.17739777266979218,"352":0.40067344903945923,"353":-0.5452792048454285,"354":0.48031753301620483,"355":-0.2019098848104477,"356":0.8862272500991821,"357":0.6925944089889526,"358":0.6363717913627625,"359":-0.34399574995040894,"360":-0.40485602617263794,"361":-0.2927137315273285,"362":0.5069077014923096,"363":-0.4150008261203766,"364":0.43024176359176636,"365":-0.2541671097278595,"366":-0.3823046088218689,"367":-0.09894395619630814,"368":-0.2950328588485718,"369":-0.3527114987373352,"370":0.39611831307411194,"371":0.431091845035553,"372":-0.14637646079063416,"373":-0.283690482378006,"374":0.39177119731903076,"375":0.6474588513374329,"376":0.5151343941688538,"377":0.3726094961166382,"378":0.45155057311058044,"379":-0.3790839612483978,"380":-1.1056900024414062,"381":-0.3016613721847534,"382":0.050075434148311615,"383":-0.2023872435092926,"384":0.3246243894100189,"385":-0.4235088527202606,"386":-0.10839854925870895,"387":0.013592004776000977,"388":-0.38867971301078796,"389":-0.303421288728714,"390":0.5174710154533386,"391":0.3036814033985138,"392":-0.03286328539252281,"393":-0.5162184834480286,"394":0.4640285074710846,"395":0.21123406291007996,"396":0.7504701018333435,"397":0.5091772079467773,"398":0.6197323203086853,"399":-0.2825983464717865}},"outputHidden":{"rows":20,"columns":20,"weights":{"0":0.039862047880887985,"1":0.13386324048042297,"2":-0.41104021668434143,"3":-0.05850249528884888,"4":0.02484109066426754,"5":-0.07329583168029785,"6":0.23734109103679657,"7":0.26149535179138184,"8":0.30157652497291565,"9":0.05688249692320824,"10":-0.23367413878440857,"11":0.2056935429573059,"12":0.21409504115581512,