{"type":"LSTM","options":{"inputSize":1,"inputRange":1,"hiddenLayers":[20,20],"outputSize":1,"learningRate":0.01,"decayRate":0.999,"smoothEps":1e-8,"regc":0.000001,"clipval":5,"maxPredictionLength":100,"dataFormatter":{"values":[[{"K0":12,"K1":6.88,"K2":2.8,"K3":-2.37,"K4":-6.97,"K5":-11.79,"K6":-19.71,"K7":-26.95,"K8":-33.83,"K9":-39.84},{"rise":-37.35,"fall":10.06,"peak":-9.71,"trough":-13.83}],[{"K0":475,"K1":482.12,"K2":489.67,"K3":499.93,"K4":511.09,"K5":519.03,"K6":530.19,"K7":537.19,"K8":547.23,"K9":556.23},{"rise":552.52,"fall":477.89,"peak":515.06,"trough":515.42}],[{"K0":345,"K1":354.5,"K2":367.1,"K3":379.46,"K4":391.56,"K5":399.56,"K6":409.13,"K7":420.24,"K8":429.6,"K9":440.69},{"rise":436.43,"fall":349.11,"peak":395.31,"trough":392.69}],[{"K0":975,"K1":965.7,"K2":951.61,"K3":940.92,"K4":926.31,"K5":914.96,"K6":899.9,"K7":889.7,"K8":877.81,"K9":863.45},{"rise":868.95,"fall":970.8,"peak":920.59,"trough":919.73}],[{"K0":774,"K1":770.27,"K2":767.66,"K3":764.21,"K4":761.02,"K5":758.96,"K6":755.16,"K7":752.54,"K8":750.26,"K9":746.88},{"rise":748.12,"fall":772.62,"peak":759.93,"trough":760.41}],[{"K0":156,"K1":148.93,"K2":139.82,"K3":134.19,"K4":127.63,"K5":121.69,"K6":112.5,"K7":104.24,"K8":97.52,"K9":88.52},{"rise":91.89,"fall":152.97,"peak":124.4,"trough":122.45}],[{"K0":179,"K1":163.16,"K2":154.06,"K3":140.91,"K4":125.68,"K5":112.88,"K6":97.56,"K7":82.16,"K8":66.66,"K9":57.78},{"rise":62,"fall":173.34,"peak":119.27,"trough":117.7}],[{"K0":403,"K1":390.67,"K2":380.5,"K3":370.59,"K4":359.81,"K5":351.49,"K6":343.61,"K7":331.94,"K8":319.1,"K9":309.07},{"rise":313.36,"fall":398.28,"peak":355.94,"trough":355.8}],[{"K0":576,"K1":556.33,"K2":540,"K3":525.59,"K4":513.33,"K5":493.54,"K6":478.58,"K7":459.69,"K8":448.41,"K9":429.08},{"rise":436.01,"fall":568.47,"peak":503.16,"trough":502.51}],[{"K0":480,"K1":472.77,"K2":464.91,"K3":457,"K4":452.5,"K5":446.8,"K6":441.62,"K7":435.48,"K8":428.05,"K9":423.92},{"rise":425.9,"fall":477.04,"peak":449.58,"trough":451.65}],[{"K0":708,"K1":701.95,"K2":691.9,"K3":682.7,"K4":676.36,"K5":669.07,"K6":662.26,"K7":651.63,"K8":641.93,"K9":634.98},{"rise":638.04,"fall":705.18,"peak":672.67,"trough":671.58}]],"indexTable":{"[object Object]":0},"characterTable":{"0":{"K0":12,"K1":6.88,"K2":2.8,"K3":-2.37,"K4":-6.97,"K5":-11.79,"K6":-19.71,"K7":-26.95,"K8":-33.83,"K9":-39.84}},"characters":[{"K0":12,"K1":6.88,"K2":2.8,"K3":-2.37,"K4":-6.97,"K5":-11.79,"K6":-19.71,"K7":-26.95,"K8":-33.83,"K9":-39.84}],"specialIndexes":[]}},"input":{"rows":2,"columns":1,"weights":{"0":0.503882884979248,"1":0.21665170788764954}},"hiddenLayers":[{"inputMatrix":{"rows":20,"columns":1,"weights":{"0":0.31931763887405396,"1":0.30919498205184937,"2":0.13909786939620972,"3":0.8613512516021729,"4":0.13870441913604736,"5":-0.6075865030288696,"6":0.6216393113136292,"7":0.2101069688796997,"8":0.2959557771682739,"9":0.4406753480434418,"10":0.17365670204162598,"11":0.24338801205158234,"12":0.276714026927948,"13":0.8330959677696228,"14":0.31514376401901245,"15":0.2248333990573883,"16":0.2853049337863922,"17":0.13778090476989746,"18":1.9312034845352173,"19":0.11416693776845932}},"inputHidden":{"rows":20,"columns":20,"weights":{"0":0.028514208272099495,"1":0.04188996180891991,"2":-0.045874953269958496,"3":0.5093293786048889,"4":-0.09083851426839828,"5":0.35251644253730774,"6":0.07795830070972443,"7":-0.08223902434110641,"8":-0.08682531118392944,"9":0.020421253517270088,"10":-0.12674903869628906,"11":-0.15092094242572784,"12":0.0525481291115284,"13":0.45960676670074463,"14":-0.11759863048791885,"15":0.1555744856595993,"16":-0.002682714257389307,"17":-0.04923379048705101,"18":0.37793368101119995,"19":-0.07152919471263885,"20":0.05336284637451172,"21":-0.010493387468159199,"22":-0.07183288037776947,"23":0.29789966344833374,"24":-0.052738409489393234,"25":0.26185551285743713,"26":-0.007432278245687485,"27":0.007284774444997311,"28":-0.06720200926065445,"29":-0.04446551576256752,"30":-0.014244657009840012,"31":-0.14530585706233978,"32":0.07444153726100922,"33":0.27078214287757874,"34":-0.04399644583463669,"35":-0.005550915375351906,"36":0.07991134375333786,"37":-0.047567300498485565,"38":0.07827182114124298,"39":0.06774254143238068,"40":0.23931747674942017,"41":-0.16440492868423462,"42":0.333920955657959,"43":0.7354044914245605,"44":-0.3560533821582794,"45":0.7850109934806824,"46":0.37004467844963074,"47":-0.37685319781303406,"48":0.12256283313035965,"49":-0.15548188984394073,"50":-0.6026599407196045,"51":-0.6168423891067505,"52":-0.3216331899166107,"53":0.7873669266700745,"54":-0.5968436002731323,"55":0.5800238847732544,"56":0.3004315495491028,"57":-0.536060094833374,"58":0.30386602878570557,"59":-0.30688899755477905,"60":0.14955981075763702,"61":0.22507882118225098,"62":0.031034067273139954,"63":1.080603003501892,"64":-0.27987033128738403,"65":0.634408712387085,"66":0.5378290414810181,"67":-0.4296623468399048,"68":0.282497763633728,"69":0.1760573536157608,"70":-0.31296390295028687,"71":-0.5693399906158447,"72":-0.04856608435511589,"73":1.1184331178665161,"74":-0.5484696626663208,"75":0.6136350631713867,"76":0.3061175048351288,"77":-0.3515184819698334,"78":0.8016928434371948,"79":-0.14737944304943085,"80":0.11639506369829178,"81":0.03747779130935669,"82":0.14257194101810455,"83":0.6912327408790588,"84":-0.34143736958503723,"85":0.6626186966896057,"86":0.3211875557899475,"87":-0.3075043559074402,"88":0.1591469943523407,"89":-0.04452064260840416,"90":-0.3353978991508484,"91":-0.48635029792785645,"92":-0.14608441293239594,"93":0.7876730561256409,"94":-0.3514960706233978,"95":0.4166545271873474,"96":0.18362608551979065,"97":-0.24385535717010498,"98":0.3557838201522827,"99":-0.2933293282985687,"100":0.4504999816417694,"101":-0.13060152530670166,"102":0.4601035714149475,"103":1.0291695594787598,"104":-0.6301944851875305,"105":0.9356799125671387,"106":0.8086980581283569,"107":-0.7275369167327881,"108":0.43798357248306274,"109":0.1012987345457077,"110":-0.8384889960289001,"111":-0.9470281600952148,"112":-0.28593483567237854,"113":1.0421158075332642,"114":-0.8951682448387146,"115":0.89910888671875,"116":0.6677033305168152,"117":-0.7407078742980957,"118":0.5435355305671692,"119":-0.5782637596130371,"120":-0.19736284017562866,"121":0.3284017741680145,"122":-0.32201308012008667,"123":0.5875905752182007,"124":0.16620902717113495,"125":-0.2485620081424713,"126":0.0500582680106163,"127":0.15214483439922333,"128":-0.07712090015411377,"129":0.24293434619903564,"130":0.3481195271015167,"131":0.1676698625087738,"132":0.2045830488204956,"133":0.5811808705329895,"134":0.15429164469242096,"135":-0.23788172006607056,"136":-0.15320195257663727,"137":0.34430187940597534,"138":0.7477194666862488,"139":0.3328673839569092,"140":0.10052302479743958,"141":0.048640407621860504,"142":0.1368691325187683,"143":0.8620283603668213,"144":-0.22812896966934204,"145":0.6803439855575562,"146":0.19922414422035217,"147":-0.3349778354167938,"148":0.015401541255414486,"149":-0.04440230131149292,"150":-0.23409463465213776,"151":-0.3317224979400635,"152":0.003511168295517564,"153":0.7201067209243774,"154":-0.3732403814792633,"155":0.3022615611553192,"156":0.2752496898174286,"157":-0.14901837706565857,"158":0.5870214700698853,"159":-0.20889568328857422,"160":-0.09156932681798935,"161":0.15114623308181763,"162":-0.1175045594573021,"163":-0.05545280873775482,"164":0.13216224312782288,"165":-0.07370084524154663,"166":-0.18650922179222107,"167":0.17060966789722443,"168":-0.16786552965641022,"169":-0.03740039840340614,"170":0.09369046241044998,"171":0.20413781702518463,"172":0.09667226672172546,"173":-0.07900376617908478,"174":0.13359762728214264,"175":-0.0610048770904541,"176":-0.14698538184165955,"177":0.15747421979904175,"178":0.08912256360054016,"179":0.0931427851319313,"180":0.15025171637535095,"181":-0.010662833228707314,"182":0.09840787947177887,"183":0.4167550504207611,"184":-0.2591182291507721,"185":0.35298970341682434,"186":0.25400885939598083,"187":-0.38738498091697693,"188":0.18210196495056152,"189":-0.16950830817222595,"190":-0.4137672483921051,"191":-0.4766666889190674,"192":-0.07396280020475388,"193":0.407725065946579,"194":-0.4711916446685791,"195":0.4579029679298401,"196":0.16991542279720306,"197":-0.2066257894039154,"198":0.593255877494812,"199":-0.26849284768104553,"200":0.2030373364686966,"201":0.020648183301091194,"202":0.289792001247406,"203":0.8945494890213013,"204":-0.3609175682067871,"205":0.8519203066825867,"206":0.39586949348449707,"207":-0.4654794931411743,"208":0.1508040726184845,"209":-0.03659689426422119,"210":-0.5435413122177124,"211":-0.6389762759208679,"212":-0.2150857150554657,"213":0.8399783968925476,"214":-0.4384455680847168,"215":0.431425005197525,"216":0.36759063601493835,"217":-0.4366368055343628,"218":0.4737985134124756,"219":-0.26629671454429626,"220":0.21546286344528198,"221":0.06447256356477737,"222":0.03972276300191879,"223":0.9631620049476624,"224":-0.24716506898403168,"225":0.6743005514144897,"226":0.3610827326774597,"227":-0.36727020144462585,"228":0.08693187683820724,"229":0.09388598054647446,"230":-0.3440655767917633,"231":-0.5547780990600586,"232":-0.01181549858301878,"233":0.8967962265014648,"234":-0.4377468228340149,"235":0.39748886227607727,"236":0.3245338201522827,"237":-0.22492627799510956,"238":0.6506351828575134,"239":-0.09341597557067871,"240":0.11764919757843018,"241":0.012648576870560646,"242":0.1475897580385208,"243":0.5490700602531433,"244":-0.14678102731704712,"245":0.42903831601142883,"246":0.17157261073589325,"247":-0.2101624310016632,"248":-0.0023367730900645256,"249":-0.05468989908695221,"250":-0.25555309653282166,"251":-0.3222711682319641,"252":-0.05005034804344177,"253":0.5744341015815735,"254":-0.2165050208568573,"255":0.1786602884531021,"256":0.08795934170484543,"257":-0.16659586131572723,"258":0.2641306221485138,"259":-0.08854148536920547,"260":0.13668805360794067,"261":0.25558707118034363,"262":-0.0906091034412384,"263":1.1047908067703247,"264":-0.1317032426595688,"265":0.4471675753593445,"266":0.6367381811141968,"267":-0.3812274932861328,"268":0.1489502340555191,"269":0.12931115925312042,"270":-0.3177547752857208,"271":-0.47017407417297363,"272":0.07175005227327347,"273":1.0411263704299927,"274":-0.445162832736969,"275":0.5039584636688232,"276":0.31283310055732727,"277":-0.25521156191825867,"278":0.9896676540374756,"279":0.028472058475017548,"280":0.01811257191002369,"281":0.24163088202476501,"282":-0.09483522921800613,"283":0.8072434067726135,"284":-0.01593822054564953,"285":0.4283146560192108,"286":0.25204235315322876,"287":-0.21526595950126648,"288":-0.06488335132598877,"289":0.1651153564453125,"290":-0.06774243712425232,"291":-0.27399498224258423,"292":0.1332201212644577,"293":0.8621566295623779,"294":-0.24897442758083344,"295":0.21061015129089355,"296":0.09047755599021912,"297":-0.062115538865327835,"298":0.8577273488044739,"299":0.02101234160363674,"300":0.038564085960388184,"301":0.1484796404838562,"302":-0.06915350258350372,"303":0.8052971363067627,"304":-0.21011507511138916,"305":0.5613915324211121,"306":0.3654087781906128,"307":-0.216774582862854,"308":0.04163816571235657,"309":0.1472780406475067,"310":-0.2771592438220978,"311":-0.38429707288742065,"312":-0.02817646414041519,"313":0.800751268863678,"314":-0.28371599316596985,"315":0.31839632987976074,"316":0.22738432884216309,"317":-0.11404535174369812,"318":0.686165988445282,"319":-0.11119694262742996,"320":-0.05817917361855507,"321":0.11691323667764664,"322":-0.030108828097581863,"323":0.5724596381187439,"324":-0.1377699375152588,"325":0.3218391537666321,"326":0.18035736680030823,"327":-0.1483294665813446,"328":0.08238361775875092,"329":-0.04643850773572922,"330":-0.10146600008010864,"331":-0.19840271770954132,"332":-0.047305647283792496,"333":0.5936877131462097,"334":-0.21587367355823517,"335":0.24537064135074615,"336":0.11474088579416275,"337":-0.11257898062467575,"338":0.3305302858352661,"339":0.035622358322143555,"340":0.22783620655536652,"341":-0.0406288281083107,"342":0.3490441143512726,"343":0.880239725112915,"344":-0.4161362648010254,"345":0.7665354013442993,"346":0.38644275069236755,"347":-0.3252628743648529,"348":0.12073409557342529,"349":-0.01453324779868126,"350":-0.42796987295150757,"351":-0.5026660561561584,"352":-0.1525566130876541,"353":0.8820037841796875,"354":-0.4443884491920471,"355":0.463328093290329,"356":0.3709685802459717,"357":-0.4420386254787445,"358":0.4029588997364044,"359":-0.24347436428070068,"360":0.33555129170417786,"361":-0.04716518148779869,"362":0.14154382050037384,"363":1.181490421295166,"364":-0.48589515686035156,"365":0.6996642351150513,"366":0.8683174252510071,"367":-0.5582579970359802,"368":0.2549288272857666,"369":0.14743269979953766,"370":-0.4693949222564697,"371":-0.80174320936203,"372":-0.09403392672538757,"373":1.2013071775436401,"374":-0.7330918312072754,"375":0.6871931552886963,"376":0.5423932075500488,"377":-0.40092340111732483,"378":1.388685703277588,"379":-0.31055426597595215,"380":0.186637744307518,"381":-0.010660272091627121,"382":0.15737055242061615,"383":0.7325310111045837,"384":-0.31083351373672485,"385":0.6149216890335083,"386":0.26243531703948975,"387":-0.40267184376716614,"388":0.16673675179481506,"389":-0.019682353362441063,"390":-0.44416213035583496,"391":-0.49141016602516174,"392":-0.14949996769428253,"393":0.6712578535079956,"394":-0.3699605166912079,"395":0.49880099296569824,"396":0.2943946123123169,"397":-0.36535555124282837,"398":0.32481464743614197,"399":-0.2424701452255249}},"inputBias":{"rows":20,"columns":1,"weights":{"0":-0.5907036662101746,"1":-0.43106648325920105,"2":-0.6724191308021545,"3":0.5162442922592163,"4":-0.6275433897972107,"5":-0.4384402334690094,"6":-0.18963249027729034,"7":-0.5419520139694214,"8":-0.5984011292457581,"9":-0.4660165011882782,"10":-0.6139373183250427,"11":-0.44216662645339966,"12":-0.6196953654289246,"13":0.5142701864242554,"14":-0.35583922266960144,"15":-0.40055108070373535,"16":-0.5785477757453918,"17":-0.6420770287513733,"18":1.4370845556259155,"19":-0.6658904552459717}},"forgetMatrix":{"rows":20,"columns":1,"weights":{"0":0.13440953195095062,"1":-0.027796322479844093,"2":-0.08116039633750916,"3":-0.40520235896110535,"4":0.06481435894966125,"5":-0.4892386496067047,"6":-0.013592644594609737,"7":0.04064874351024628,"8":0.022271061316132545,"9":0.12098729610443115,"10":-0.10516971349716187,"11":-0.043037671595811844,"12":-0.0004082493542227894,"13":-0.32896843552589417,"14":-0.018758194521069527,"15":-0.060107551515102386,"16":-0.04654385894536972,"17":-0.044855378568172455,"18":0.10816297680139542,"19":-0.005238933023065329}},"forgetHidden":{"rows":20,"columns":20,"weights":{"0":-0.0317734032869339,"1":-0.005383674520999193,"2":-0.01200801134109497,"3":0.15201392769813538,"4":0.049076762050390244,"5":0.06292549520730972,"6":0.045376040041446686,"7":0.009635190479457378,"8":0.01415427029132843,"9":0.022470815107226372,"10":0.0548601970076561,"11":-0.06921974569559097,"12":0.04989076033234596,"13":0.027688615024089813,"14":-0.07304222136735916,"15":0.014935825020074844,"16":0.08315981924533844,"17":0.006049879360944033,"18":0.0020937470253556967,"19":-0.0270057525485754,"20":-0.06582096964120865,"21":0.013389136642217636,"22":-0.08191749453544617,"23":0.1056741327047348,"24":-0.026031630113720894,"25":-0.03827926144003868,"26":-0.04033796489238739,"27":-0.035475119948387146,"28":0.055965159088373184,"29":-0.027291342616081238,"30":-0.0737636387348175,"31":0.04821717366576195,"32":0.0629284530878067,"33":-0.028703732416033745,"34":-0.02470776066184044,"35":0.018891863524913788,"36":0.04672013595700264,"37":0.04086047038435936,"38":0.046943020075559616,"39":-0.03535814955830574,"40":-0.011434132233262062,"41":0.015734603628516197,"42":0.06646043807268143,"43":0.240461528301239,"44":-0.002657464938238263,"45":0.12417886406183243,"46":0.015049558132886887,"47":-0.12012581527233124,"48":0.05392920970916748,"49":0.08066856116056442,"50":-0.0791148841381073,"51":-0.17585419118404388,"52":0.006386734079569578,"53":0.23124165832996368,"54":-0.03615604341030121,"55":0.17129063606262207,"56":0.01193660032004118,"57":-0.06462426483631134,"58":0.013512792065739632,"59":-0.04344303533434868,"60":0.22834603488445282,"61":0.04122382029891014,"62":0.09923330694437027,"63":0.8264930844306946,"64":-0.1913031041622162,"65":0.5547921657562256,"66":0.42329341173171997,"67":-0.303958535194397,"68":0.1463138610124588,"69":0.05589010939002037,"70":-0.387798011302948,"71":-0.44571653008461,"72":-0.11613554507493973,"73":0.8099053502082825,"74":-0.479989230632782,"75":0.4222649335861206,"76":0.3490222692489624,"77":-0.2207651138305664,"78":0.7321831583976746,"79":-0.23511862754821777,"80":0.04064101725816727,"81":-0.04848085716366768,"82":0.08597946912050247,"83":0.2952263057231903,"84":0.01208465825766325,"85":0.2168743759393692,"86":0.06778039783239365,"87":-0.12501661479473114,"88":0.049996618181467056,"89":0.04821380227804184,"90":-0.027160439640283585,"91":-0.021844474598765373,"92":0.0007248963229358196,"93":0.2325325608253479,"94":-0.023704951629042625,"95":0.00903329811990261,"96":0.042461782693862915,"97":-0.11383318901062012,"98":0.10388807207345963,"99":-0.04058460518717766,"100":0.3207646310329437,"101":-0.18791326880455017,"102":0.36959177255630493,"103":0.679787814617157,"104":-0.3628615736961365,"105":0.6364366412162781,"106":0.3292618691921234,"107":-0.3790762722492218,"108":0.20083144307136536,"109":0.010734678246080875,"110":-0.3777661621570587,"111":-0.5367260575294495,"112":-0.16656459867954254,"113":0.7245197296142578,"114":-0.5446321964263916,"115":0.5021435022354126,"116":0.2630463242530823,"117":-0.41420426964759827,"118":0.07758305966854095,"119":-0.37321463227272034,"120":-0.1282343864440918,"121":0.02135012112557888,"122":-0.08458590507507324,"123":-0.08476494997739792,"124":0.06120625510811806,"125":-0.06288798898458481,"126":-0.014399928040802479,"127":0.008280206471681595,"128":-0.07579100131988525,"129":-0.025109708309173584,"130":0.036017950624227524,"131":0.021357135847210884,"132":-0.015554032288491726,"133":-0.06393754482269287,"134":0.018901797011494637,"135":-0.06971472501754761,"136":-0.05705557391047478,"137":0.02868218533694744,"138":0.06085621193051338,"139":0.07872354239225388,"140":0.07389677315950394,"141":0.023375805467367172,"142":0.0851266160607338,"143":0.2090252786874771,"144":-0.10352573543787003,"145":0.08855708688497543,"146":0.06216810643672943,"147":-0.02055661380290985,"148":0.0320662260055542,"149":-0.00271247117780149,"150":-0.11462835967540741,"151":-0.0885213315486908,"152":-0.06091538444161415,"153":0.20825941860675812,"154":-0.07679025083780289,"155":0.04025706648826599,"156":-0.013314870186150074,"157":-0.04696814343333244,"158":0.16019639372825623,"159":-0.06858005374670029,"160":0.028892936185002327,"161":-0.01179406139999628,"162":0.04111339896917343,"163":-0.04917607083916664,"164":0.06481901556253433,"165":-0.040722236037254333,"166":-0.04321537911891937,"167":-0.011516585946083069,"168":0.03679661080241203,"169":0.047304265201091766,"170":0.05082281306385994,"171":-0.05685899779200554,"172":-0.054813798516988754,"173":-0.050819527357816696,"174":0.09581787884235382,"175":0.06111002713441849,"176":-0.0011034179478883743,"177":0.04244834557175636,"178":-0.0620674304664135,"179":0.05815630033612251,"180":-0.009198148734867573,"181":-0.03070531226694584,"182":-0.043417591601610184,"183":0.005892827175557613,"184":-0.06206762418150902,"185":-0.016524216160178185,"186":-0.01925390213727951,"187":0.06746464222669601,"188":0.05040232464671135,"189":-0.07907891273498535,"190":-0.05731414631009102,"191":-0.06922122836112976,"192":-0.020454658195376396,"193":0.07799447327852249,"194":-0.00835657399147749,"195":-0.0027270170394331217,"196":-0.04504447802901268,"197":-0.05705611780285835,"198":-0.015791041776537895,"199":-0.006651364266872406,"200":0.04450974240899086,"201":-0.02939276397228241,"202":0.012296531349420547,"203":0.3699643909931183,"204":-0.1592666655778885,"205":0.3211864233016968,"206":0.15675748884677887,"207":-0.08412492275238037,"208":-0.0019873797427862883,"209":-0.08005410432815552,"210":-0.16138491034507751,"211":-0.22770871222019196,"212":-0.12866955995559692,"213":0.49873465299606323,"214":-0.14109590649604797,"215":0.18803945183753967,"216":0.021786104887723923,"217":-0.09260599315166473,"218":0.10478106886148453,"219":-0.14792132377624512,"220":0.07394400238990784,"221":0.010842043906450272,"222":0.11689408123493195,"223":0.5279263257980347,"224":-0.08935283124446869,"225":0.347314715385437,"226":0.18177726864814758,"227":-0.1842450350522995,"228":-0.0031737936660647392,"229":-0.003540049074217677,"230":-0.16451315581798553,"231":-0.24848799407482147,"232":-0.059318479150533676,"233":0.5553065538406372,"234":-0.1492706686258316,"235":0.10770276188850403,"236":0.0495481938123703,"237":-0.1049787774682045,"238":0.10545117408037186,"239":-0.008154726587235928,"240":-0.027040326967835426,"241":-0.030714213848114014,"242":-0.06625749170780182,"243":0.0514199435710907,"244":-0.053648125380277634,"245":0.08020583540201187,"246":0.0751599445939064,"247":-0.030746636912226677,"248":-0.06966076046228409,"249":0.07583337277173996,"250":-0.03580285981297493,"251":-0.011354762129485607,"252":0.008944528177380562,"253":0.12467394769191742,"254":0.05339174345135689,"255":0.09160654246807098,"256":-0.03415783867239952,"257":-0.040609654039144516,"258":0.032821860164403915,"259":0.07018938660621643,"260":0.16731441020965576,"261":-0.04087522253394127,"262":0.11885755509138107,"263":0.8307708501815796,"264":-0.2453424632549286,"265":0.4527636170387268,"266":0.34808817505836487,"267":-0.21424584090709686,"268":0.09751637279987335,"269":-0.0159954521805048,"270":-0.29321372509002686,"271":-0.41080594062805176,"272":-0.07941438257694244,"273":0.8202600479125977,"274":-0.3653995096683502,"275":0.41368260979652405,"276":0.17385022342205048,"277":-0.1863527148962021,"278":0.7799543738365173,"279":-0.0949474349617958,"280":0.09820939600467682,"281":0.038242340087890625,"282":0.022764189168810844,"283":0.3020787537097931,"284":-0.09575729817152023,"285":0.19783049821853638,"286":0.026551105082035065,"287":-0.06061907112598419,"288":0.012727165594696999,"289":-0.0364346019923687,"290":-0.03204108402132988,"291":-0.0589764341711998,"292":0.062452081590890884,"293":0.24729673564434052,"294":-0.1570868343114853,"295":0.0934891402721405,"296":0.009954645298421383,"297":-0.1006484106183052,"298":0.17744694650173187,"299":0.014104914851486683,"300":0.056988976895809174,"301":-0.03838829696178436,"302":0.003991207107901573,"303":0.3900364935398102,"304":-0.023784426972270012,"305":0.2386043667793274,"306":0.16507481038570404,"307":-0.07011570036411285,"308":0.03420373052358627,"309":-0.05303005501627922,"310":-0.13364240527153015,"311":-0.12500472366809845,"312":-0.04873427003622055,"313":0.3265840709209442,"314":-0.08155342191457748,"315":0.06402166187763214,"316":0.02173553965985775,"317":-0.1307627409696579,"318":0.1085207387804985,"319":-0.017603926360607147,"320":-0.044803686439991,"321":-0.0488981157541275,"322":0.06570512801408768,"323":0.1645708978176117,"324":-0.08211742341518402,"325":0.125577911734581,"326":0.07197806984186172,"327":0.016683820635080338,"328":0.030208155512809753,"329":0.03409393131732941,"330":-0.003649946302175522,"331":-0.04724883660674095,"332":0.02186913602054119,"333":0.10841250419616699,"334":0.0034791843499988317,"335":0.09999565035104752,"336":0.08641355484724045,"337":-0.008345471695065498,"338":0.019654406234622,"339":-0.0646115243434906,"340":0.08431126922369003,"341":0.009617535397410393,"342":0.11904808133840561,"343":0.3549541234970093,"344":-0.15791548788547516,"345":0.2975904047489166,"346":0.17979027330875397,"347":-0.15480352938175201,"348":0.052458781749010086,"349":0.01688075065612793,"350":-0.18301349878311157,"351":-0.1408093124628067,"352":-0.08457901328802109,"353":0.3163512349128723,"354":-0.18030890822410583,"355":0.1347634345293045,"356":0.13404075801372528,"357":-0.025033975020051003,"358":0.15369468927383423,"359":-0.0074048275128006935,"360":-0.17830748856067657,"361":0.09101372212171555,"362":-0.25504058599472046,"363":-0.104848712682724,"364":0.25400251150131226,"365":-0.44497236609458923,"366":-0.04573873057961464,"367":0.355922669172287,"368":-0.05640653148293495,"369":0.33659064769744873,"370":0.44419044256210327,"371":0.43800124526023865,"372":0.2586338222026825,"373":-0.08327340334653854,"374":0.30086809396743774,"375":-0.41088905930519104,"376":-0.29973679780960083,"377":0.24015016853809357,"378":0.2396784871816635,"379":0.262376606464386,"380":0.022913390770554543,"381":0.012025915086269379,"382":0.08697057515382767,"383":0.2590332329273224,"384":0.0024924552999436855,"385":0.11304318904876709,"386":0.11923384666442871,"387":-0.12118873745203018,"388":0.024566296488046646,"389":0.07513739168643951,"390":-0.0986589789390564,"391":-0.14672191441059113,"392":0.02636452205479145,"393":0.13431774079799652,"394":-0.11850481480360031,"395":0.0944233387708664,"396":0.11597876995801926,"397":-0.04259131848812103,"398":0.04580070823431015,"399":-0.11054147034883499}},"forgetBias":{"rows":20,"columns":1,"weights":{"0":0,"1":0,"2":0,"3":0,"4":0,"5":0,"6":0,"7":0,"8":0,"9":0,"10":0,"11":0,"12":0,"13":0,"14":0,"15":0,"16":0,"17":0,"18":0,"19":0}},"outputMatrix":{"rows":20,"columns":1,"weights":{"0":0.3796454071998596,"1":0.3031918406486511,"2":0.09890162199735641,"3":0.6281559467315674,"4":0.1763213723897934,"5":-0.598351001739502,"6":0.6483458876609802,"7":0.2993415594100952,"8":0.28191283345222473,"9":0.5066757202148438,"10":0.1474917083978653,"11":0.15569236874580383,"12":0.3331427276134491,"13":0.5972582101821899,"14":0.4026176929473877,"15":0.19982118904590607,"16":0.22812500596046448,"17":0.09981817752122879,"18":2.023158311843872,"19":0.20232869684696198}},"outputHidden":{"rows":20,"columns":20,"weights":{"0":-0.023077640682458878,"1":0.05294705182313919,"2":-0.05567840114235878,"3":0.6392022371292114,"4":0.025949787348508835,"5":0.3963289260864258,"6":-0.03774545341730118,"7":-0.10787548124790192,"8":-0.11692672967910767,"9":-0.005020574666559696,"10":-0.031202802434563637,"11":-0.16678676009178162,"12":0.01063479669392109,"13":0.6354915499687195,"14":-0.173863023519516,"15":0.15436618030071259,"16":-0.023418955504894257,"17":-0.012437520548701286,"18":0.45846518874168396,"19":0.01662057638168335,"20":-0.034982793033123016,"21":0.10128407180309296,"22":-0.019723357632756233,"23":0.3036191165447235,"24":-0.036605898290872574,"25":0.1895693838596344,"26":-0.0004492559819482267,"27":-0.10681919008493423,"28":-0.012147311121225357,"29":0.05388600751757622,"30":-0.019806891679763794,"31":-0.08888447284698486,"32":-0.02216625027358532,"33":0.3552074730396271,"34":-0.0015714738983660936,"35":0.037744998931884766,"36":0.007288086693733931,"37":-0.08727488666772842,"38":0.2804151177406311,"39":-0.04800435155630112,"40":0.3360667824745178,"41":-0.12090972810983658,"42":0.36986327171325684,"43":0.8111207485198975,"44":-0.4602305293083191,"45":0.8727397918701172,"46":0.46006903052330017,"47":-0.4323960840702057,"48":0.22844669222831726,"49":-0.22502501308918,"50":-0.6063584089279175,"51":-0.7281131744384766,"52":-0.33588603138923645,"53":0.9517671465873718,"54":-0.5326886177062988,"55":0.5353777408599854,"56":0.40842553973197937,"57":-0.482268750667572,"58":0.3747696578502655,"59":-0.4830132722854614,"60":0.24844832718372345,"61":0.105135977268219,"62":0.11646951735019684,"63":1.241672396659851,"64":-0.4423152804374695,"65":0.7914236783981323,"66":0.7565436959266663,"67":-0.6633492708206177,"68":0.38662999868392944,"69":0.159062922000885,"70":-0.6023622155189514,"71":-0.7248450517654419,"72":-0.0816684290766716,"73":1.1696971654891968,"74":-0.7551159858703613,"75":0.786329448223114,"76":0.4675222635269165,"77":-0.5488248467445374,"78":0.9754011034965515,"79":-0.22649480402469635,"80":0.2554672956466675,"81":-0.06665895134210587,"82":0.2791708707809448,"83":0.7850745320320129,"84":-0.32805466651916504,"85":0.7852898240089417,"86":0.23737837374210358,"87":-0.3011002540588379,"88":0.16418644785881042,"89":-0.04343248903751373,"90":-0.45202863216400146,"91":-0.480994313955307,"92":-0.06865217536687851,"93":0.8773588538169861,"94":-0.43996089696884155,"95":0.36432719230651855,"96":0.3000282049179077,"97":-0.42064520716667175,"98":0.5973555445671082,"99":-0.22110772132873535,"100":0.7191653847694397,"101":-0.4137994945049286,"102":0.6265371441841125,"103":1.0073966979980469,"104":-0.7912366390228271,"105":1.0882989168167114,"106":0.7931709885597229,"107":-0.875477135181427,"108":0.6111132502555847,"109":0.1206948310136795,"110":-0.9548937082290649,"111":-1.096863031387329,"112":-0.5651401281356812,"113":1.039682149887085,"114":-1.0079442262649536,"115":1.0666199922561646,"116":0.7520505785942078,"117":-0.8643273711204529,"118":0.3014882206916809,"119":-0.8247209787368774,"120":-0.21064533293247223,"121":0.2858518064022064,"122":-0.36919090151786804,"123":0.5702987313270569,"124":0.371074914932251,"125":-0.45807039737701416,"126":-0.006503566168248653,"127":0.3252716362476349,"128":-0.10319900512695312,"129":0.30517545342445374,"130":0.4160003066062927,"131":0.2715456783771515,"132":0.30775636434555054,"133":0.5327555537223816,"134":0.1485460251569748,"135":-0.300519198179245,"136":-0.16190990805625916,"137":0.3699224889278412,"138":0.7577581405639648,"139":0.42625513672828674,"140":0.16531968116760254,"141":0.09053602069616318,"142":0.1023026779294014,"143":0.9280949831008911,"144":-0.22923479974269867,"145":0.7487069964408875,"146":0.24053989350795746,"147":-0.32370221614837646,"148":0.17267268896102905,"149":0.000512705824803561,"150":-0.3098800480365753,"151":-0.47128212451934814,"152":-0.03801307827234268,"153":0.8767595887184143,"154":-0.41012781858444214,"155":0.4279220402240753,"156":0.1806582808494568,"157":-0.2238960564136505,"158":0.6764690279960632,"159":-0.11885958909988403,"160":-0.17834261059761047,"161":0.04761127382516861,"162":-0.06142382696270943,"163":-0.018813861533999443,"164":0.1809173971414566,"165":-0.1307884007692337,"166":-0.1748584359884262,"167":0.17402850091457367,"168":-0.04086419194936752,"169":0.025419052690267563,"170":0.20324808359146118,"171":0.22639527916908264,"172":0.0939684584736824,"173":0.06624846160411835,"174":0.1319899708032608,"175":-0.12865856289863586,"176":-0.18363188207149506,"177":0.08954311162233353,"178":0.09144829213619232,"179":0.1617669314146042,"180":0.13266919553279877,"181":-0.1114201471209526,"182":0.16301162540912628,"183":0.5150574445724487,"184":-0.23741549253463745,"185":0.4572412669658661,"186":0.29919856786727905,"187":-0.4069293439388275,"188":0.10392583906650543,"189":-0.1488836109638214,"190":-0.39990612864494324,"191":-0.4669435918331146,"192":-0.10210905969142914,"193":0.5549201369285583,"194":-0.4641781747341156,"195":0.42639487981796265,"196":0.3216291069984436,"197":-0.2581557333469391,"198":0.6567659974098206,"199":-0.2658268213272095,"200":0.3746216595172882,"201":-0.16327019035816193,"202":0.3217097520828247,"203":0.9791457653045654,"204":-0.5184345841407776,"205":0.8470075726509094,"206":0.3678944408893585,"207":-0.5061350464820862,"208":0.16177283227443695,"209":-0.08106227964162827,"210":-0.5777252316474915,"211":-0.5952088236808777,"212":-0.24315756559371948,"213":1.0003411769866943,"214":-0.6342917680740356,"215":0.623084306716919,"216":0.3223196268081665,"217":-0.5335978865623474,"218":0.5860006213188171,"219":-0.36541497707366943,"220":0.2397966980934143,"221":0.0995800644159317,"222":0.13419100642204285,"223":1.0819647312164307,"224":-0.39544302225112915,"225":0.8032219409942627,"226":0.4973561763763428,"227":-0.4166087508201599,"228":0.2401789426803589,"229":0.10568983107805252,"230":-0.4068540334701538,"231":-0.6191532015800476,"232":-0.15823017060756683,"233":1.0008652210235596,"234":-0.5842825174331665,"235":0.5051307082176208,"236":0.36716312170028687,"237":-0.3187131881713867,"238":0.717119574546814,"239":-0.24043810367584229,"240":0.08925926685333252,"241":0.012769931927323341,"242":0.08949921280145645,"243":0.6599894165992737,"244":-0.12188068777322769,"245":0.5342223048210144,"246":0.1403159648180008,"247":-0.12286970764398575,"248":0.007988277822732925,"249":-0.09778343886137009,"250":-0.22657477855682373,"251":-0.2143295705318451,"252":-0.07637949287891388,"253":0.6499919891357422,"254":-0.29608872532844543,"255":0.22760388255119324,"256":0.18789836764335632,"257":-0.15829281508922577,"258":0.3911881446838379,"259":-0.19322511553764343,"260":0.15887339413166046,"261":0.24737875163555145,"262":0.04151087626814842,"263":1.217170000076294,"264":-0.33104434609413147,"265":0.6125666499137878,"266":0.75285804271698,"267":-0.5434854626655579,"268":0.3382022976875305,"269":0.21706289052963257,"270":-0.3832654058933258,"271":-0.6276031732559204,"272":-0.06914116442203522,"273":1.2917309999465942,"274":-0.6528304219245911,"275":0.6168051958084106,"276":0.3791326880455017,"277":-0.3476570248603821,"278":1.1061564683914185,"279":-0.11303700506687164,"280":0.009428354911506176,"281":0.11696431785821915,"282":-0.15004947781562805,"283":0.960339367389679,"284":-0.0838746502995491,"285":0.534153163433075,"286":0.2767772376537323,"287":-0.2669847309589386,"288":0.025945385918021202,"289":0.13817250728607178,"290":-0.21009349822998047,"291":-0.32564598321914673,"292":0.10165964812040329,"293":0.858830451965332,"294":-0.2704465389251709,"295":0.310855507850647,"296":0.1525256484746933,"297":-0.1084572896361351,"298":0.9545403718948364,"299":0.03541284799575806,"300":0.14947867393493652,"301":0.15369071066379547,"302":0.05567479878664017,"303":0.9715009331703186,"304":-0.1409253031015396,"305":0.7248594760894775,"306":0.29572275280952454,"307":-0.3173484802246094,"308":0.09285281598567963,"309":0.1721741259098053,"310":-0.30837103724479675,"311":-0.4221768081188202,"312":0.07017736881971359,"313":0.9910207986831665,"314":-0.38756728172302246,"315":0.30227866768836975,"316":0.15116484463214874,"317":-0.18200543522834778,"318":0.8092286586761475,"319":-0.12661869823932648,"320":0.008608492091298103,"321":0.03891843557357788,"322":0.01079469546675682,"323":0.5318686962127686,"324":-0.024676643311977386,"325":0.39643046259880066,"326":0.09656231850385666,"327":-0.06027170270681381,"328":0.00765887089073658,"329":0.024334371089935303,"330":-0.15781517326831818,"331":-0.25990569591522217,"332":0.044938936829566956,"333":0.6412894129753113,"334":-0.29344815015792847,"335":0.2181973159313202,"336":0.039975035935640335,"337":-0.12873825430870056,"338":0.4721921682357788,"339":-0.11280421912670135,"340":0.31122225522994995,"341":-0.12033788114786148,"342":0.2729347050189972,"343":0.9597142934799194,"344":-0.392076700925827,"345":0.9380322098731995,"346":0.2939833402633667,"347":-0.5066371560096741,"348":0.135530486702919,"349":-0.04540560394525528,"350":-0.48925572633743286,"351":-0.6275511980056763,"352":-0.1983748823404312,"353":1.0257242918014526,"354":-0.5489494204521179,"355":0.45561107993125916,"356":0.4078202247619629,"357":-0.42306020855903625,"358":0.5096779465675354,"359":-0.3741743266582489,"360":0.21760964393615723,"361":0.052367549389600754,"362":0.08544378727674484,"363":1.4044960737228394,"364":-0.4549091160297394,"365":0.6619277596473694,"366":0.9860420227050781,"367":-0.4940946698188782,"368":0.23297327756881714,"369":0.3833547532558441,"370":-0.5307102203369141,"371":-0.6713449358940125,"372":-0.09194599092006683,"373":1.4095515012741089,"374":-0.8764529824256897,"375":0.8015589118003845,"376":0.5020395517349243,"377":-0.43658196926116943,"378":1.7511314153671265,"379":-0.277711421251297,"380":0.2383735626935959,"381":-0.024111438542604446,"382":0.30469486117362976,"383":0.8793396949768066,"384":-0.2750650644302368,"385":0.6843215227127075,"386":0.3533209562301636,"387":-0.38947850465774536,"388":0.12724831700325012,"389":-0.0875638797879219,"390":-0.3886188566684723,"391":-0.49648749828338623,"392":-0.16728566586971283,"393":0.761681854724884,"394":-0.4739779233932495,"395":0.4557840824127197,"396":0.22635909914970398,"397":-0.41495150327682495,"398":0.45072171092033386,"399":-0.21957847476005554}},"outputBias":{"rows":20,"columns":1,"weights":{"0":-0.5844964981079102,"1":-0.4271167814731598,"2":-0.6645813584327698,"3":0.5402382612228394,"4":-0.6206567287445068,"5":-0.4435967206954956,"6":-0.19411827623844147,"7":-0.5382965803146362,"8":-0.5960262417793274,"9":-0.46977365016937256,"10":-0.6079859137535095,"11":-0.4422413110733032,"12":-0.6107778549194336,"13":0.5398591160774231,"14":-0.3603312373161316,"15":-0.4019315838813782,"16":-0.5768231153488159,"17":-0.6368909478187561,"18":1.6422687768936157,"19":-0.6524554491043091}},"cellActivationMatrix":{"rows":20,"columns":1,"weights":{"0":0.10730262100696564,"1":0.13709312677383423,"2":-0.23456260561943054,"3":0.8317727446556091,"4":-0.08739879727363586,"5":-0.6690265536308289,"6":0.6578302979469299,"7":-0.21828067302703857,"8":0.2290361523628235,"9":0.18325434625148773,"10":0.13101495802402496,"11":-0.08118678629398346,"12":0.05546855553984642,"13":0.8107331991195679,"14":-0.3657898008823395,"15":0.21482102572917938,"16":0.2594001293182373,"17":-0.009301546961069107,"18":1.198989987373352,"19":0.17366302013397217}},"cellActivationHidden":{"rows":20,"columns":20,"weights":{"0":0.14591197669506073,"1":0.08194667845964432,"2":0.00007186850416474044,"3":0.7202005982398987,"4":-0.14305730164051056,"5":0.4759414494037628,"6":0.505786657333374,"7":-0.26131027936935425,"8":0.15109647810459137,"9":0.15752241015434265,"10":-0.39435696601867676,"11":-0.4678150713443756,"12":-0.02485622651875019,"13":0.794544517993927,"14":-0.56621915102005,"15":0.4530186057090759,"16":0.2509216070175171,"17":-0.27093496918678284,"18":0.36231622099876404,"19":-0.13659444451332092,"20":-0.1709960699081421,"21":0.11880366504192352,"22":-0.16105853021144867,"23":-0.5149389505386353,"24":0.38296476006507874,"25":-0.5417336821556091,"26":-0.24396494030952454,"27":0.29309943318367004,"28":-0.2193729728460312,"29":-0.028041692450642586,"30":0.4080669581890106,"31":0.5527546405792236,"32":0.12898507714271545,"33":-0.47208449244499207,"34":0.4635220766067505,"35":-0.4911600649356842,"36":-0.32255998253822327,"37":0.27416834235191345,"38":0.31143078207969666,"39":0.20574404299259186,"40":0.4503803551197052,"41":-0.26704397797584534,"42":0.3934866786003113,"43":0.6848068833351135,"44":-0.5685810446739197,"45":0.7481566667556763,"46":0.6352530717849731,"47":-0.7381724715232849,"48":0.35078513622283936,"49":0.05778389796614647,"50":-0.8818991184234619,"51":-0.8983005881309509,"52":-0.3556467294692993,"53":0.7949144840240479,"54":-0.8687674403190613,"55":0.8893496990203857,"56":0.5663990378379822,"57":-0.6078655123710632,"58":-0.22790920734405518,"59":-0.5196760892868042,"60":0.17469128966331482,"61":0.11438189446926117,"62":-0.1387840062379837,"63":0.9749622344970703,"64":-0.1697150021791458,"65":0.4647153913974762,"66":0.5919661521911621,"67":-0.3147580921649933,"68":0.2748870849609375,"69":0.35109299421310425,"70":-0.06117124482989311,"71":-0.39271634817123413,"72":0.07709842920303345,"73":0.9862985610961914,"74":-0.5248143076896667,"75":0.41494542360305786,"76":0.37755560874938965,"77":-0.1747434288263321,"78":0.7134040594100952,"79":-0.012859828770160675,"80":-0.2547514736652374,"81":0.021410979330539703,"82":-0.10122773051261902,"83":-0.8332051634788513,"84":0.42254504561424255,"85":-0.7455729246139526,"86":-0.7115198969841003,"87":0.4736005663871765,"88":-0.23554158210754395,"89":-0.24583330750465393,"90":0.5513397455215454,"91":0.797623336315155,"92":0.12377451360225677,"93":-1.0015971660614014,"94":0.7593116164207458,"95":-0.6706827282905579,"96":-0.4712037146091461,"97":0.434014230966568,"98":-0.30282413959503174,"99":0.2171897292137146,"100":0.44371917843818665,"101":0.01583912968635559,"102":0.34527161717414856,"103":1.078590750694275,"104":-0.6285398006439209,"105":0.9455074667930603,"106":1.0860515832901,"107":-0.9605199098587036,"108":0.5315059423446655,"109":0.5172271132469177,"110":-0.9601337313652039,"111":-1.1708312034606934,"112":-0.1894942671060562,"113":1.0712323188781738,"114":-1.1688035726547241,"115":1.1516045331954956,"116":0.9139090776443481,"117":-0.7487494349479675,"118":0.29653987288475037,"119":-0.46188509464263916,"120":-0.4118254780769348,"121":0.5813309550285339,"122":-0.7190312147140503,"123":0.5725008845329285,"124":0.5989577770233154,"125":-0.4108530879020691,"126":0.017084749415516853,"127":0.5277475714683533,"128":-0.23682348430156708,"129":0.6836214065551758,"130":0.6221537590026855,"131":0.41430237889289856,"132":0.5804201364517212,"133":0.6278114318847656,"134":0.19537284970283508,"135":-0.36105599999427795,"136":-0.35279929637908936,"137":0.5918485522270203,"138":0.832221508026123,"139":0.6983155608177185,"140":-0.14279699325561523,"141":-0.0679595023393631,"142":-0.09246756881475449,"143":-0.9665223956108093,"144":0.3615897297859192,"145":-0.6330769658088684,"146":-0.6194740533828735,"147":0.4619078040122986,"148":-0.2215944528579712,"149":-0.3019268810749054,"150":0.40435412526130676,"151":0.6791961789131165,"152":0.048283908516168594,"153":-0.9701492786407471,"154":0.6994665265083313,"155":-0.6710929274559021,"156":-0.4247451722621918,"157":0.35938385128974915,"158":-0.4400753974914551,"159":0.16522574424743652,"160":-0.07549192011356354,"161":0.1601037085056305,"162":-0.10790890455245972,"163":0.6736521124839783,"164":-0.040678054094314575,"165":0.4339771568775177,"166":0.2707662284374237,"167":-0.15071998536586761,"168":0.03206712380051613,"169":0.24828584492206573,"170":-0.14775387942790985,"171":-0.2453988492488861,"172":0.1402076780796051,"173":0.6717827320098877,"174":-0.325350284576416,"175":0.33113905787467957,"176":0.06541455537080765,"177":-0.0788818970322609,"178":0.3773648142814636,"179":0.004028025083243847,"180":-0.3133537471294403,"181":0.1835748702287674,"182":-0.26916512846946716,"183":-0.36689770221710205,"184":0.4858529269695282,"185":-0.6598148345947266,"186":-0.45448753237724304,"187":0.5106886029243469,"188":-0.29754120111465454,"189":-0.1820794939994812,"190":0.5734244585037231,"191":0.5306435823440552,"192":0.23907598853111267,"193":-0.41357794404029846,"194":0.494926393032074,"195":-0.6084323525428772,"196":-0.35465794801712036,"197":0.49241045117378235,"198":-0.05288034677505493,"199":0.33883535861968994,"200":-0.2728305160999298,"201":-0.025278262794017792,"202":-0.1903175711631775,"203":-1.0191478729248047,"204":0.4322795271873474,"205":-0.7096518278121948,"206":-0.7237095236778259,"207":0.7067255973815918,"208":-0.3531187176704407,"209":-0.3358308672904968,"210":0.7307970523834229,"211":0.859274685382843,"212":0.13730040192604065,"213":-1.040515422821045,"214":0.8051074743270874,"215":-0.8780596256256104,"216":-0.5972775816917419,"217":0.4285837709903717,"218":-0.31916019320487976,"219":0.29731595516204834,"220":-0.26687559485435486,"221":-0.07902736961841583,"222":-0.1408757120370865,"223":-1.0107991695404053,"224":0.39262428879737854,"225":-0.639679491519928,"226":-0.8586975932121277,"227":0.5478942394256592,"228":-0.36355462670326233,"229":-0.27466973662376404,"230":0.47629591822624207,"231":0.7641733288764954,"232":0.02786257304251194,"233":-1.0430833101272583,"234":0.8686632513999939,"235":-0.7800400257110596,"236":-0.42197227478027344,"237":0.32722947001457214,"238":-0.5338894128799438,"239":0.15109601616859436,"240":-0.28797245025634766,"241":0.011268769390881062,"242":-0.24018003046512604,"243":-0.6266822218894958,"244":0.31315070390701294,"245":-0.5970454812049866,"246":-0.4821682572364807,"247":0.4504454731941223,"248":-0.15301284193992615,"249":-0.20171494781970978,"250":0.5732054114341736,"251":0.5996549129486084,"252":0.029249882325530052,"253":-0.6948415637016296,"254":0.5873368978500366,"255":-0.6239443421363831,"256":-0.3582697808742523,"257":0.42204537987709045,"258":-0.03963986039161682,"259":0.2836957275867462,"260":-0.06783667951822281,"261":0.2089453488588333,"262":-0.20322470366954803,"263":1.0633128881454468,"264":-0.089652419090271,"265":0.33695632219314575,"266":0.5935126543045044,"267":-0.1758689433336258,"268":0.09702447056770325,"269":0.4620633125305176,"270":0.030722545459866524,"271":-0.097707599401474,"272":0.03314565494656563,"273":1.0278898477554321,"274":-0.27283498644828796,"275":0.22026309370994568,"276":0.2073473185300827,"277":-0.060475144535303116,"278":0.8409290313720703,"279":0.09153132885694504,"280":0.02179909497499466,"281":-0.27065226435661316,"282":0.2280081808567047,"283":-0.9855086207389832,"284":0.049462392926216125,"285":-0.477887362241745,"286":-0.6656029224395752,"287":0.3060949444770813,"288":-0.19924868643283844,"289":-0.40331295132637024,"290":0.176496684551239,"291":0.4985349178314209,"292":-0.22311748564243317,"293":-1.1488507986068726,"294":0.607481062412262,"295":-0.5153126120567322,"296":-0.3035890460014343,"297":0.06599120795726776,"298":-0.7146704196929932,"299":-0.09020745754241943,"300":0.0707494392991066,"301":0.2338671088218689,"302":-0.06436848640441895,"303":1.1197872161865234,"304":-0.2165178507566452,"305":0.514218270778656,"306":0.6768015623092651,"307":-0.35079243779182434,"308":0.20123472809791565,"309":0.38743117451667786,"310":-0.2658577859401703,"311":-0.5918972492218018,"312":0.046465758234262466,"313":1.0599510669708252,"314":-0.5977047085762024,"315":0.5483208298683167,"316":0.37272971868515015,"317":-0.20328091084957123,"318":0.5506895780563354,"319":0.002874988131225109,"320":0.15893691778182983,"321":0.1331719309091568,"322":-0.01288595050573349,"323":0.8682368397712708,"324":-0.2083909511566162,"325":0.5181810259819031,"326":0.5497567653656006,"327":-0.3255299925804138,"328":0.0870518609881401,"329":0.3385382890701294,"330":-0.2636595070362091,"331":-0.5045602917671204,"332":0.11437775939702988,"333":0.9753068685531616,"334":-0.5880427360534668,"335":0.4942791163921356,"336":0.24543428421020508,"337":-0.15187205374240875,"338":0.4744719862937927,"339":-0.05303730070590973,"340":-0.31135162711143494,"341":-0.048238836228847504,"342":-0.17046362161636353,"343":-0.8825506567955017,"344":0.5198537707328796,"345":-0.8247905969619751,"346":-0.6365757584571838,"347":0.6277461647987366,"348":-0.28781378269195557,"349":-0.17548316717147827,"350":0.5816276669502258,"351":0.895634114742279,"352":0.15830330550670624,"353":-0.9971439838409424,"354":0.7986515760421753,"355":-0.829556405544281,"356":-0.5307187438011169,"357":0.4459598958492279,"358":-0.18488623201847076,"359":0.33483827114105225,"360":-0.9760167598724365,"361":0.878979504108429,"362":-1.265387773513794,"363":-0.26661384105682373,"364":1.2639784812927246,"365":-1.2601652145385742,"366":-0.1662582904100418,"367":1.0331428050994873,"368":-0.5487645864486694,"369":0.5726673007011414,"370":1.4712752103805542,"371":1.119970440864563,"372":1.0989723205566406,"373":-0.30948957800865173,"374":0.7855146527290344,"375":-0.959650456905365,"376":-0.8795925378799438,"377":1.2462553977966309,"378":1.0272870063781738,"379":1.280960202217102,"380":-0.408426970243454,"381":0.015075945295393467,"382":-0.19191713631153107,"383":-0.8149455189704895,"384":0.5271259546279907,"385":-0.6631134748458862,"386":-0.6309316158294678,"387":0.5851567983627319,"388":-0.2589211165904999,"389":-0.27505168318748474,"390":0.593098521232605,"391":0.8393127918243408,"392":0.19861914217472076,"393":-0.864412248134613,"394":0.6843554973602295,"395":-0.7889991998672485,"396":-0.5194645524024963,"397":0.42605268955230713,"398":-0.11800609529018402,"399":0.22769010066986084}},"cellActivationBias":{"rows":20,"columns":1,"weights":{"0":-0.01864311657845974,"1":0.2731255888938904,"2":-0.11722930520772934,"3":0.9485452771186829,"4":0.0023174185771495104,"5":0.21157599985599518,"6":0.35340893268585205,"7":-0.11115844547748566,"8":-0.041213225573301315,"9":0.09638156741857529,"10":-0.05619797855615616,"11":-0.21074627339839935,"12":0.12815673649311066,"13":0.972726583480835,"14":-0.24702169001102448,"15":0.2270243614912033,"16":0.06373052299022675,"17":-0.019079627469182014,"18":1.1160671710968018,"19":0.0704914778470993}}},{"inputMatrix":{"rows":20,"columns":20,"weights":{"0":-0.368251234292984,"1":0.3605867326259613,"2":-0.28201061487197876,"3":0.3911823034286499,"4":0.2104247361421585,"5":0.22466740012168884,"6":-0.30032312870025635,"7":0.2273843139410019,"8":-0.26261693239212036,"9":-0.03213341534137726,"10":0.3194233179092407,"11":0.27705320715904236,"12":0.3108563721179962,"13":0.40492379665374756,"14":0.21677318215370178,"15":-0.3086428940296173,"16":-0.25583019852638245,"17":0.2644336521625519,"18":0.41718873381614685,"19":0.24140751361846924,"20":-0.25666236877441406,"21":0.37428078055381775,"22":-0.383787602186203,"23":0.19353944063186646,"24":0.29880833625793457,"25":-0.04750288277864456,"26":-0.3111574947834015,"27":0.33016109466552734,"28":-0.25363847613334656,"29":0.05051162838935852,"30":0.30544689297676086,"31":0.39991506934165955,"32":0.33510342240333557,"33":0.2581237256526947,"34":0.3377764821052551,"35":-0.27311307191848755,"36":-0.31047943234443665,"37":0.3319047689437866,"38":0.44610658288002014,"39":0.3574673533439636,"40":0.1651463657617569,"41":-0.07198303937911987,"42":0.3935212790966034,"43":0.7896567583084106,"44":-0.3338406980037689,"45":0.760028600692749,"46":-0.13772568106651306,"47":-0.32387322187423706,"48":-0.031592439860105515,"49":-0.3093649446964264,"50":-0.38770171999931335,"51":-0.30027270317077637,"52":-0.3401288390159607,"53":0.6619399189949036,"54":-0.257404088973999,"55":0.30469104647636414,"56":0.29030171036720276,"57":-0.4690222144126892,"58":-0.5283340811729431,"59":-0.2793930768966675,"60":0.33758866786956787,"61":-0.37430045008659363,"62":0.6239084005355835,"63":0.4886622428894043,"64":-0.5330045223236084,"65":0.6758247017860413,"66":0.004719813819974661,"67":-0.46573761105537415,"68":0.2222980260848999,"69":-0.5903466939926147,"70":-0.4861169457435608,"71":-0.5149689316749573,"72":-0.4232966899871826,"73":0.494474858045578,"74":-0.2947177290916443,"75":0.3622508645057678,"76":0.384541779756546,"77":-0.5703158974647522,"78":-0.44089463353157043,"79":-0.495758056640625,"80":0.4487929046154022,"81":-0.32331234216690063,"82":0.6933303475379944,"83":0.47257471084594727,"84":-0.5816294550895691,"85":0.6767302751541138,"86":0.11271517723798752,"87":-0.4385705888271332,"88":0.3340282440185547,"89":-0.4388659596443176,"90":-0.6116868257522583,"91":-0.5047828555107117,"92":-0.3908924460411072,"93":0.4524175524711609,"94":-0.35123342275619507,"95":0.4813256561756134,"96":0.4407462477684021,"97":-0.6420952677726746,"98":-0.6008983254432678,"99":-0.5218329429626465,"100":-0.008591548539698124,"101":0.013794485479593277,"102":0.14303918182849884,"103":0.5710218548774719,"104":-0.010736417956650257,"105":0.4896697402000427,"106":-0.1324656903743744,"107":-0.03572005033493042,"108":-0.18525226414203644,"109":-0.32178524136543274,"110":-0.14863334596157074,"111":-0.0911787897348404,"112":-0.03228481858968735,"113":0.505010187625885,"114":-0.047001972794532776,"115":-0.0024127266369760036,"116":-0.08524318784475327,"117":-0.10027774423360825,"118":-0.27415063977241516,"119":0.015592658892273903,"120":-0.21593989431858063,"121":0.3430028557777405,"122":-0.19941070675849915,"123":0.4843745827674866,"124":0.24072030186653137,"125":0.29407933354377747,"126":-0.26118338108062744,"127":0.28700172901153564,"128":-0.2758280336856842,"129":0.050298068672418594,"130":0.24715778231620789,"131":0.20684963464736938,"132":0.31866297125816345,"133":0.4276386797428131,"134":0.19347847998142242,"135":-0.25930002331733704,"136":-0.25431084632873535,"137":0.1616160124540329,"138":0.23297317326068878,"139":0.30381444096565247,"140":-0.006804173346608877,"141":0.070283904671669,"142":0.16835416853427887,"143":0.6167868375778198,"144":-0.045049037784338,"145":0.5407005548477173,"146":-0.11490020155906677,"147":-0.17330917716026306,"148":-0.13575758039951324,"149":-0.3566020131111145,"150":-0.07426690310239792,"151":-0.10176509618759155,"152":-0.09665162116289139,"153":0.5637442469596863,"154":-0.06435669213533401,"155":0.12530891597270966,"156":0.03761152923107147,"157":-0.1056177020072937,"158":0.03723493218421936,"159":0.009757750667631626,"160":-0.24266168475151062,"161":0.33036142587661743,"162":-0.44269952178001404,"163":0.6567732095718384,"164":0.3751169741153717,"165":-0.013422416523098946,"166":-0.1260557472705841,"167":0.29151660203933716,"168":-0.3286586105823517,"169":0.2119741439819336,"170":0.3518516421318054,"171":0.24724657833576202,"172":0.333595335483551,"173":0.5954855680465698,"174":0.14569862186908722,"175":-0.2695732116699219,"176":-0.25932973623275757,"177":0.3724929988384247,"178":1.3968994617462158,"179":0.4362299144268036,"180":-0.33351966738700867,"181":0.3115718364715576,"182":-0.3040564954280853,"183":0.12498421221971512,"184":0.31287050247192383,"185":-0.16187784075737,"186":-0.24571816623210907,"187":0.2959209382534027,"188":-0.35749268531799316,"189":0.07816647738218307,"190":0.33286336064338684,"191":0.39496591687202454,"192":0.23724129796028137,"193":0.1560935229063034,"194":0.3310517966747284,"195":-0.34053361415863037,"196":-0.3477187156677246,"197":0.4167149066925049,"198":0.4730329215526581,"199":0.3863849937915802,"200":-0.04586666822433472,"201":0.07562167942523956,"202":0.050967272371053696,"203":0.5811156034469604,"204":0.04552853852510452,"205":0.3985574543476105,"206":-0.24418222904205322,"207":0.006483161356300116,"208":-0.15125103294849396,"209":-0.3695244789123535,"210":0.02212006226181984,"211":-0.057631053030490875,"212":0.05731991305947304,"213":0.5632559657096863,"214":-0.032608505338430405,"215":0.08121684193611145,"216":-0.09119037538766861,"217":-0.0819624587893486,"218":0.011493712663650513,"219":-0.03441653773188591,"220":-0.2739948630332947,"221":0.29778382182121277,"222":-0.42024025321006775,"223":0.010087018832564354,"224":0.3731735348701477,"225":-0.2464555948972702,"226":-0.4230031967163086,"227":0.3326934278011322,"228":-0.34566688537597656,"229":0.06505214422941208,"230":0.3998205363750458,"231":0.31001225113868713,"232":0.3933321535587311,"233":0.15760542452335358,"234":0.3429649770259857,"235":-0.27467963099479675,"236":-0.4054073095321655,"237":0.3940751254558563,"238":0.1744290590286255,"239":0.3848826587200165,"240":-0.06572099030017853,"241":0.29672521352767944,"242":-0.12274608761072159,"243":0.9977819323539734,"244":0.040924157947301865,"245":0.2806987762451172,"246":0.6566841006278992,"247":-0.09347280859947205,"248":-0.06968967616558075,"249":-0.18113096058368683,"250":0.010165497660636902,"251":-0.12344031035900116,"252":0.17632703483104706,"253":1.1282985210418701,"254":-0.2596864104270935,"255":0.1329861879348755,"256":0.11017879098653793,"257":0.058668218553066254,"258":2.207473039627075,"259":0.05859065428376198,"260":0.23553352057933807,"261":-0.06505857408046722,"262":0.335263729095459,"263":0.9814726114273071,"264":-0.4924124479293823,"265":0.8012246489524841,"266":0.4404914975166321,"267":-0.49420085549354553,"268":0.17639349400997162,"269":-0.1843062788248062,"270":-0.45612266659736633,"271":-0.5526070594787598,"272":-0.26341694593429565,"273":0.8726752996444702,"274":-0.47140589356422424,"275":0.5104775428771973,"276":0.4153078496456146,"277":-0.5413904190063477,"278":1.584535002708435,"279":-0.42480796575546265,"280":0.3017556667327881,"281":-0.004562016110867262,"282":0.5413298606872559,"283":1.0414775609970093,"284":-0.41819101572036743,"285":0.2678123116493225,"286":0.4563085436820984,"287":-0.5144153237342834,"288":0.08706612884998322,"289":0.08040712773799896,"290":-0.5900417566299438,"291":-0.5989356637001038,"292":-0.226289764046669,"293":0.9104930758476257,"294":-0.5043507814407349,"295":0.5219374299049377,"296":0.24213144183158875,"297":-0.5702104568481445,"298":1.016282558441162,"299":-0.3624665439128876,"300":0.15494821965694427,"301":0.09147229790687561,"302":0.2763274610042572,"303":0.9066751003265381,"304":-0.20805509388446808,"305":0.7487950921058655,"306":0.0940856784582138,"307":-0.2631954848766327,"308":-0.070918969810009,"309":-0.22992445528507233,"310":-0.2962915599346161,"311":-0.27929985523223877,"312":-0.1354588270187378,"313":0.8015244007110596,"314":-0.2602158486843109,"315":0.30198565125465393,"316":0.1875273883342743,"317":-0.2513517141342163,"318":0.8503597974777222,"319":-0.25086653232574463,"320":-0.2803267538547516,"321":0.4051394462585449,"322":-0.4195348918437958,"323":0.4699733555316925,"324":0.2778152525424957,"325":-0.0019182264804840088,"326":-0.12992441654205322,"327":0.20656423270702362,"328":-0.23667339980602264,"329":-0.0023340019397437572,"330":0.33676373958587646,"331":0.2861994504928589,"332":0.39236173033714294,"333":0.4358965754508972,"334":0.2806708812713623,"335":-0.20179972052574158,"336":-0.2950737476348877,"337":0.2603713572025299,"338":1.0875509977340698,"339":0.32608821988105774,"340":0.31137844920158386,"341":0.052631113678216934,"342":0.41239219903945923,"343":1.149478793144226,"344":-0.35912975668907166,"345":0.8537632822990417,"346":0.6005886197090149,"347":-0.49739912152290344,"348":0.09395308047533035,"349":-0.1656600683927536,"350":-0.4109286069869995,"351":-0.5217053294181824,"352":-0.26952576637268066,"353":0.9846800565719604,"354":-0.46469923853874207,"355":0.4569207429885864,"356":0.3662829101085663,"357":-0.5110071897506714,"358":2.0383129119873047,"359":-0.3671734929084778,"360":-0.26023679971694946,"361":0.35535556077957153,"362":-0.39544379711151123,"363":0.23372285068035126,"364":0.36284151673316956,"365":-0.18349428474903107,"366":-0.25251564383506775,"367":0.24452470242977142,"368":-0.32552072405815125,"369":0.2294391542673111,"370":0.30564311146736145,"371":0.24376052618026733,"372":0.3280312716960907,"373":0.23057618737220764,"374":0.23964016139507294,"375":-0.34579145908355713,"376":-0.3914342224597931,"377":0.27318134903907776,"378":0.5388170480728149,"379":0.2654963731765747,"380":-0.2727048099040985,"381":0.3548066318035126,"382":-0.3220875561237335,"383":0.14134010672569275,"384":0.3602810800075531,"385":-0.08938197046518326,"386":-0.43007007241249084,"387":0.38212621212005615,"388":-0.3375612795352936,"389":0.011969080194830894,"390":0.3983774483203888,"391":0.32630085945129395,"392":0.30425024032592773,"393":0.22973057627677917,"394":0.3815179169178009,"395":-0.3948996663093567,"396":-0.33130526542663574,"397":0.4212460517883301,"398":0.288705438375473,"399":0.336629718542099}},"inputHidden":{"rows":20,"columns":20,"weights":{"0":-0.017545003443956375,"1":0.08988339453935623,"2":-0.14666366577148438,"3":0.28041988611221313,"4":-0.4013253450393677,"5":-0.13569970428943634,"6":0.007121733855456114,"7":-0.11420721560716629,"8":-0.008675875142216682,"9":0.12365283817052841,"10":-0.11484106630086899,"11":0.02759607322514057,"12":-0.07076171785593033,"13":0.18235765397548676,"14":0.05144065245985985,"15":0.02801152504980564,"16":0.02853740006685257,"17":-0.17300502955913544,"18":-0.03881020098924637,"19":-0.06659341603517532,"20":-0.031322214752435684,"21":0.14323827624320984,"22":0.023379961028695107,"23":0.1895972639322281,"24":-0.1465943455696106,"25":-0.08994840085506439,"26":-0.0666511058807373,"27":-0.1500706672668457,"28":-0.07004048675298691,"29":0.23594579100608826,"30":-0.020465880632400513,"31":0.16438405215740204,"32":-0.12705940008163452,"33":0.11798463016748428,"34":0.2156982719898224,"35":0.1227082833647728,"36":0.14549927413463593,"37":-0.11997818946838379,"38":-0.11372842639684677,"39":-0.13845477998256683,"40":-0.38550710678100586,"41":0.3313358426094055,"42":-0.8729600310325623,"43":1.0071916580200195,"44":-1.2194455862045288,"45":-0.7279860377311707,"46":-0.6182622909545898,"47":-0.5230693221092224,"48":-0.5307928919792175,"49":-0.08623581379652023,"50":-0.5612480044364929,"51":0.048726942390203476,"52":0.42033714056015015,"53":0.5205609798431396,"54":-0.172737717628479,"55":0.44287508726119995,"56":-0.18558034300804138,"57":-0.26107749342918396,"58":-0.12693238258361816,"59":-0.20709609985351562,"60":-0.41950705647468567,"61":0.16716648638248444,"62":-0.7433797717094421,"63":0.9872782826423645,"64":-1.0554569959640503,"65":-0.38733822107315063,"66":-0.3337937295436859,"67":-0.3345344662666321,"68":-0.2609291672706604,"69":-0.263275146484375,"70":-0.36890727281570435,"71":-0.06313978880643845,"72":0.3757672905921936,"73":0.5082015991210938,"74":-0.805806040763855,"75":0.3776782155036926,"76":-0.3033209443092346,"77":-0.3384472131729126,"78":-0.016762085258960724,"79":-0.11402132362127304,"80":-0.2624618411064148,"81":0.14739035069942474,"82":-0.6311132907867432,"83":0.6242532730102539,"84":-0.8512398600578308,"85":-0.48942142724990845,"86":-0.3451700210571289,"87":-0.3385096490383148,"88":-0.24758976697921753,"89":-0.36791446805000305,"90":-0.323280394077301,"91":-0.1179017648100853,"92":0.39958611130714417,"93":0.4292919933795929,"94":-0.8391516804695129,"95":0.4010486304759979,"96":-0.32625868916511536,"97":-0.4598503112792969,"98":0.08698675781488419,"99":-0.041209787130355835,"100":-0.1851818710565567,"101":0.23293709754943848,"102":-0.5156209468841553,"103":0.6099372506141663,"104":-0.8441703915596008,"105":-0.4157525300979614,"106":-0.3134879767894745,"107":-0.21861135959625244,"108":-0.43104833364486694,"109":-0.08763609081506729,"110":-0.16715461015701294,"111":-0.03510654717683792,"112":0.6919455528259277,"113":-0.008797148242592812,"114":0.4762583374977112,"115":0.08371628820896149,"116":-0.1436484158039093,"117":0.2663456201553345,"118":-0.04381833225488663,"119":-0.17826181650161743,"120":-0.09725361317396164,"121":0.1182762160897255,"122":-0.21983776986598969,"123":0.3807889223098755,"124":-0.47207099199295044,"125":-0.22355042397975922,"126":-0.23356714844703674,"127":-0.13300026953220367,"128":-0.3041827380657196,"129":-0.00804862566292286,"130":-0.08933352679014206,"131":0.11033540964126587,"132":0.20420579612255096,"133":0.1580239236354828,"134":0.2983279228210449,"135":0.08483441174030304,"136":0.01932838186621666,"137":-0.014376753009855747,"138":-0.15996545553207397,"139":-0.12262475490570068,"140":-0.10008686035871506,"141":0.06589964777231216,"142":-0.3247821629047394,"143":0.6666417121887207,"144":-0.6970046758651733,"145":-0.23249821364879608,"146":-0.29817986488342285,"147":-0.11759971082210541,"148":-0.2629731595516205,"149":0.04438154399394989,"150":-0.18782846629619598,"151":0.054031264036893845,"152":0.7904932498931885,"153":-0.08266228437423706,"154":0.44808974862098694,"155":-0.08328618109226227,"156":-0.10485770553350449,"157":0.36295416951179504,"158":-0.02919645793735981,"159":-0.03512526676058769,"160":0.01356070302426815,"161":0.10407357662916183,"162":0.029305730015039444,"163":0.013758375309407711,"164":-0.11085057258605957,"165":-0.12512631714344025,"166":-0.1757093220949173,"167":-0.017552783712744713,"168":-0.19536249339580536,"169":0.00477795023471117,"170":0.040748756378889084,"171":0.1139470785856247,"172":0.38346734642982483,"173":-0.059533216059207916,"174":0.5468488931655884,"175":-0.04506579041481018,"176":-0.08570938557386398,"177":0.2338799685239792,"178":-0.18903394043445587,"179":-0.06530352681875229,"180":-0.017328152433037758,"181":0.10403569787740707,"182":0.07231239974498749,"183":0.13073042035102844,"184":-0.03456103801727295,"185":0.06035645678639412,"186":0.02027849107980728,"187":-0.09264332056045532,"188":0.009181005880236626,"189":0.1294691264629364,"190":-0.033669810742139816,"191":0.155702605843544,"192":-0.08909399062395096,"193":-0.012441595084965229,"194":0.1591864973306656,"195":0.08261000365018845,"196":0.18249721825122833,"197":-0.07908142358064651,"198":-0.1729997992515564,"199":-0.12421471625566483,"200":-0.2078910768032074,"201":0.04346967115998268,"202":-0.44908440113067627,"203":0.5381954312324524,"204":-0.6990568041801453,"205":-0.2639118731021881,"206":-0.16571128368377686,"207":-0.06786154210567474,"208":-0.3290746212005615,"209":-0.04556844383478165,"210":-0.13773113489151,"211":0.06281934678554535,"212":0.629234790802002,"213":-0.038873378187417984,"214":0.4587218761444092,"215":-0.04946465045213699,"216":-0.012228000909090042,"217":0.18335536122322083,"218":-0.09599783271551132,"219":-0.0720699205994606,"220":-0.036337293684482574,"221":0.1865043044090271,"222":-0.025867842137813568,"223":0.2102496325969696,"224":-0.04050424322485924,"225":0.051916707307100296,"226":0.042683228850364685,"227":-0.16132120788097382,"228":-0.001402905909344554,"229":0.23099584877490997,"230":-0.1447959989309311,"231":0.1309371441602707,"232":-0.24176593124866486,"233":0.13775889575481415,"234":0.22899381816387177,"235":-0.000995136215351522,"236":0.17221780121326447,"237":-0.1141023337841034,"238":-0.09506551176309586,"239":-0.18298585712909698,"240":0.19805924594402313,"241":0.023083675652742386,"242":-0.03806731849908829,"243":0.04840444400906563,"244":-0.09863867610692978,"245":-0.025157419964671135,"246":-0.0385020449757576,"247":0.13500458002090454,"248":-0.1284555047750473,"249":-0.25465911626815796,"250":0.10276100039482117,"251":-0.06461753696203232,"252":1.3564088344573975,"253":-0.4502822756767273,"254":1.0727685689926147,"255":-0.3332669138908386,"256":-0.31074827909469604,"257":0.8638617992401123,"258":-0.05811009928584099,"259":0.11751559376716614,"260":-0.15452344715595245,"261":0.16522251069545746,"262":-0.665915846824646,"263":0.943727970123291,"264":-1.0874089002609253,"265":-0.3909616470336914,"266":-0.3691737949848175,"267":-0.275551438331604,"268":-0.3691166341304779,"269":-0.23598624765872955,"270":-0.25010839104652405,"271":-0.0074835969135165215,"272":0.9009747505187988,"273":0.4418905973434448,"274":-0.16285569965839386,"275":0.19415974617004395,"276":-0.18900465965270996,"277":-0.05219294875860214,"278":-0.18419873714447021,"279":-0.20885390043258667,"280":-0.06538008898496628,"281":-0.045520007610321045,"282":-0.5919784307479858,"283":0.9210901260375977,"284":-1.1912834644317627,"285":-0.2917034924030304,"286":-0.11108999699354172,"287":-0.08855616301298141,"288":-0.1467890739440918,"289":-0.20004138350486755,"290":-0.042212143540382385,"291":-0.1708700805902481,"292":0.6431812644004822,"293":0.2644598186016083,"294":-0.45311349630355835,"295":0.055958569049835205,"296":-0.2319643199443817,"297":0.04574931040406227,"298":0.2022608369588852,"299":0.005861074198037386,"300":-0.06289319694042206,"301":0.13030482828617096,"302":-0.5997600555419922,"303":0.7267655730247498,"304":-0.9217866659164429,"305":-0.3206027150154114,"306":-0.3425607681274414,"307":-0.24534361064434052,"308":-0.4358850419521332,"309":-0.12904012203216553,"310":-0.18542493879795074,"311":-0.04995789751410484,"312":1.1796901226043701,"313":0.19259466230869293,"314":0.2840944528579712,"315":0.15791864693164825,"316":-0.20316572487354279,"317":0.2530522644519806,"318":-0.03345976397395134,"319":-0.15723252296447754,"320":0.09290961176156998,"321":0.02834748476743698,"322":-0.006201061420142651,"323":0.14840446412563324,"324":-0.1744547039270401,"325":0.1007973924279213,"326":0.02530098706483841,"327":0.05044517666101456,"328":-0.04014257714152336,"329":-0.03201863542199135,"330":0.010745744220912457,"331":0.10301434993743896,"332":0.24027453362941742,"333":-0.07218550145626068,"334":0.3157201111316681,"335":-0.12616822123527527,"336":-0.0706896185874939,"337":0.12517184019088745,"338":-0.05925075709819794,"339":-0.010698878206312656,"340":-0.13296063244342804,"341":0.17241069674491882,"342":-0.5873305201530457,"343":0.7833683490753174,"344":-0.9977141618728638,"345":-0.29823946952819824,"346":-0.3040502965450287,"347":-0.1889515221118927,"348":-0.30200880765914917,"349":-0.1531391739845276,"350":-0.17739656567573547,"351":-0.12057287245988846,"352":1.016912579536438,"353":0.3331218659877777,"354":-0.09591643512248993,"355":0.22806179523468018,"356":-0.3476809561252594,"357":-0.08515044301748276,"358":-0.1612657606601715,"359":-0.105107381939888,"360":-0.15576286613941193,"361":0.14559032022953033,"362":-0.09299614280462265,"363":0.1535131186246872,"364":-0.04904806241393089,"365":-0.11035867780447006,"366":-0.013689815998077393,"367":-0.1853613257408142,"368":-0.02670888975262642,"369":0.23992817103862762,"370":-0.026100315153598785,"371":0.1697625368833542,"372":-0.19793225824832916,"373":0.06846195459365845,"374":0.15369240939617157,"375":0.11297237128019333,"376":0.21498291194438934,"377":-0.06587770581245422,"378":-0.11262097209692001,"379":-0.05503236502408981,"380":-0.1490081548690796,"381":0.07265853881835938,"382":-0.035845350474119186,"383":0.13371239602565765,"384":-0.1250748485326767,"385":-0.0023332310374826193,"386":0.03462206944823265,"387":-0.0019892656709998846,"388":-0.07266569882631302,"389":0.14774160087108612,"390":-0.06913303583860397,"391":0.19717472791671753,"392":-0.24331209063529968,"393":0.046077705919742584,"394":0.09803186357021332,"395":0.017890190705657005,"396":0.18644355237483978,"397":-0.1498267501592636,"398":-0.03574887290596962,"399":-0.015260989777743816}},"inputBias":{"rows":20,"columns":1,"weights":{"0":-0.7346866130828857,"1":-0.7814394235610962,"2":-0.8779373168945312,"3":-0.7479158043861389,"4":-0.8594358563423157,"5":-0.8793318271636963,"6":-0.8706042170524597,"7":-0.6653703451156616,"8":-0.562752902507782,"9":-0.5844727158546448,"10":-0.7855099439620972,"11":-0.7546709775924683,"12":0.7857494354248047,"13":-0.19888609647750854,"14":0.14591525495052338,"15":-0.3960178792476654,"16":-0.35178717970848083,"17":0.20878911018371582,"18":-0.6043968200683594,"19":-0.8131214380264282}},"forgetMatrix":{"rows":20,"columns":20,"weights":{"0":-0.09344346821308136,"1":0.10902552306652069,"2":-0.15026946365833282,"3":-0.05541396141052246,"4":0.12347543239593506,"5":-0.09136658906936646,"6":-0.025417672470211983,"7":0.08872803300619125,"8":0.017116719856858253,"9":-0.0283086895942688,"10":0.16905467212200165,"11":0.18476319313049316,"12":0.03125041723251343,"13":-0.06359390169382095,"14":0.06381390988826752,"15":-0.10058236122131348,"16":-0.1428355723619461,"17":0.13935117423534393,"18":-0.0010800800519064069,"19":0.16269277036190033,"20":-0.09782440215349197,"21":0.08006931096315384,"22":-0.09512128680944443,"23":-0.12442496418952942,"24":0.07311750948429108,"25":-0.05818890035152435,"26":-0.11947277933359146,"27":0.1420973390340805,"28":0.014094962738454342,"29":0.09023873507976532,"30":0.1205252856016159,"31":0.07710779458284378,"32":0.055822744965553284,"33":-0.05198152735829353,"34":0.05957945063710213,"35":-0.11062940955162048,"36":-0.028345363214612007,"37":0.03661926090717316,"38":-0.003495284589007497,"39":0.05530160292983055,"40":0.2232966274023056,"41":-0.11425328999757767,"42":0.33305808901786804,"43":0.5004916787147522,"44":-0.29872238636016846,"45":0.5710711479187012,"46":0.05134381726384163,"47":-0.2726311683654785,"48":0.028087107464671135,"49":-0.17804904282093048,"50":-0.3417227566242218,"51":-0.4338264763355255,"52":-0.17351654171943665,"53":0.4803276062011719,"54":-0.23767243325710297,"55":0.329206645488739,"56":0.1903654932975769,"57":-0.33552560210227966,"58":-0.37363654375076294,"59":-0.36196649074554443,"60":0.19712039828300476,"61":-0.303401917219162,"62":0.4245903193950653,"63":0.6453914642333984,"64":-0.34371238946914673,"65":0.6967591643333435,"66":0.20370854437351227,"67":-0.35874494910240173,"68":0.22414104640483856,"69":-0.13589908182621002,"70":-0.5206562876701355,"71":-0.512579083442688,"72":-0.24302446842193604,"73":0.5351541042327881,"74":-0.4266211986541748,"75":0.4672031104564667,"76":0.2631343901157379,"77":-0.46806269884109497,"78":-0.32682403922080994,"79":-0.4622778594493866,"80":0.3573169708251953,"81":-0.3328385055065155,"82":0.599798321723938,"83":0.5759393572807312,"84":-0.5414732098579407,"85":0.8762792944908142,"86":0.2555329501628876,"87":-0.44755733013153076,"88":0.2463442087173462,"89":-0.282921701669693,"90":-0.6992020010948181,"91":-0.6115409135818481,"92":-0.47487136721611023,"93":0.48489880561828613,"94":-0.4812474846839905,"95":0.5788214802742004,"96":0.47727087140083313,"97":-0.6199709177017212,"98":-0.45959630608558655,"99":-0.5114520192146301,"100":0.02824508585035801,"101":-0.06974759697914124,"102":0.0976247489452362,"103":0.25802022218704224,"104":-0.1031348928809166,"105":0.1466342955827713,"106":-0.053191397339105606,"107":-0.06493140757083893,"108":-0.0157926045358181,"109":-0.10961375385522842,"110":-0.08936349302530289,"111":-0.20147749781608582,"112":-0.12399508059024811,"113":0.15558858215808868,"114":-0.1740017682313919,"115":0.15557782351970673,"116":0.14414328336715698,"117":-0.09460874646902084,"118":-0.23038847744464874,"119":-0.10908816754817963,"120":-0.06007920205593109,"121":0.07561590522527695,"122":-0.08836423605680466,"123":0.035815268754959106,"124":0.021850930526852608,"125":0.027058152481913567,"126":0.01038745790719986,"127":0.09607420861721039,"128":-0.09966762363910675,"129":-0.029035450890660286,"130":0.13307397067546844,"131":0.16119712591171265,"132":0.052895400673151016,"133":0.02481185831129551,"134":0.041675128042697906,"135":-0.10312875360250473,"136":-0.13058556616306305,"137":0.09585902839899063,"138":0.05607035756111145,"139":0.11548060923814774,"140":-0.09692352265119553,"141":0.14284145832061768,"142":-0.09116379171609879,"143":-0.07951857894659042,"144":0.23529541492462158,"145":-0.07581979036331177,"146":-0.13202780485153198,"147":0.1739359200000763,"148":-0.1367296576499939,"149":0.0997934564948082,"150":0.14823374152183533,"151":0.18868078291416168,"152":0.1974761039018631,"153":-0.13352560997009277,"154":0.0884130448102951,"155":-0.24981246888637543,"156":-0.16715484857559204,"157":0.1908971667289734,"158":0.1599627137184143,"159":0.1546362340450287,"160":-0.03033222258090973,"161":0.1051831841468811,"162":-0.2460455596446991,"163":0.10737472772598267,"164":0.2023680955171585,"165":-0.038545433431863785,"166":0.056330300867557526,"167":0.13802281022071838,"168":-0.043496377766132355,"169":0.03137557953596115,"170":0.2095697671175003,"171":0.11723175644874573,"172":0.18937847018241882,"173":0.06875451654195786,"174":0.037900522351264954,"175":-0.19184963405132294,"176":-0.02290046215057373,"177":0.22158034145832062,"178":0.2962511479854584,"179":0.1646362841129303,"180":-0.11634981632232666,"181":0.06960272789001465,"182":-0.1376323252916336,"183":0.1252441108226776,"184":0.07366467267274857,"185":-0.024559441953897476,"186":-0.07968021184206009,"187":0.026642238721251488,"188":-0.054678045213222504,"189":0.09817606210708618,"190":-0.012852729298174381,"191":0.02365095354616642,"192":0.08773152530193329,"193":0.12722064554691315,"194":-0.004377872683107853,"195":-0.07275088876485825,"196":-0.0668187364935875,"197":-0.013054933398962021,"198":0.02446126565337181,"199":0.039307985454797745,"200":-0.08415056020021439,"201":0.12427931278944016,"202":-0.09166888892650604,"203":-0.07653500139713287,"204":0.058264754712581635,"205":0.0692039355635643,"206":0.004943425301462412,"207":0.1469281166791916,"208":-0.10338366776704788,"209":-0.10949692875146866,"210":0.03548525646328926,"211":0.038726504892110825,"212":0.11343636363744736,"213":0.005446329712867737,"214":0.11538833379745483,"215":-0.07914223521947861,"216":0.0030967751517891884,"217":0.032297514379024506,"218":0.057946931570768356,"219":0.029630817472934723,"220":-0.11796388775110245,"221":0.08968116343021393,"222":-0.0421004556119442,"223":-0.008516993373632431,"224":0.11201348900794983,"225":-0.05250510945916176,"226":-0.026957515627145767,"227":0.1271645426750183,"228":-0.0911320298910141,"229":0.09023406356573105,"230":0.11476700752973557,"231":0.12057233601808548,"232":0.02857726253569126,"233":-0.007913642562925816,"234":0.12958462536334991,"235":-0.08898103982210159,"236":-0.07838144898414612,"237":0.09070823341608047,"238":0.035348206758499146,"239":0.057522211223840714,"240":-0.25969046354293823,"241":0.19345830380916595,"242":-0.5545368194580078,"243":0.2794412076473236,"244":0.40701809525489807,"245":-0.3333042860031128,"246":0.3015791177749634,"247":0.3015243709087372,"248":0.044005680829286575,"249":0.49139925837516785,"250":0.3864087462425232,"251":0.26286786794662476,"252":0.3684590756893158,"253":0.34734925627708435,"254":0.03988346457481384,"255":-0.13423527777194977,"256":-0.17710445821285248,"257":0.3562992811203003,"258":1.7509723901748657,"259":0.4759905934333801,"260":-0.24816735088825226,"261":0.23066356778144836,"262":-0.3968292474746704,"263":0.05881160497665405,"264":0.22425539791584015,"265":0.011515705846250057,"266":0.05222452059388161,"267":0.23465277254581451,"268":-0.047447409480810165,"269":0.251679003238678,"270":0.21634000539779663,"271":0.18325752019882202,"272":0.23093166947364807,"273":-0.10012883692979813,"274":0.22303299605846405,"275":-0.2503642737865448,"276":-0.14547450840473175,"277":0.2565457820892334,"278":0.7910637855529785,"279":0.3321903347969055,"280":-0.24972093105316162,"281":0.28221777081489563,"282":-0.4033825695514679,"283":0.7014186978340149,"284":0.29960691928863525,"285":0.08554992079734802,"286":0.10889118909835815,"287":0.24330422282218933,"288":0.0038685721810907125,"289":0.6773135662078857,"290":0.2610766887664795,"291":0.21294523775577545,"292":0.4065033495426178,"293":0.5916778445243835,"294":0.2387697547674179,"295":-0.2127493917942047,"296":-0.31680241227149963,"297":0.3646126985549927,"298":1.4187051057815552,"299":0.331502765417099,"300":-0.16818451881408691,"301":0.12075789272785187,"302":-0.32238534092903137,"303":-0.2074582874774933,"304":0.24363571405410767,"305":-0.11392278969287872,"306":-0.0010648752795532346,"307":0.2661081552505493,"308":-0.12490619719028473,"309":0.21251557767391205,"310":0.3330632746219635,"311":0.2943751811981201,"312":0.1843263953924179,"313":-0.2251483052968979,"314":0.2475392371416092,"315":-0.33500850200653076,"316":-0.24633507430553436,"317":0.22596962749958038,"318":0.39326921105384827,"319":0.2636452615261078,"320":0.03875551000237465,"321":-0.007285845000296831,"322":-0.10955477505922318,"323":0.1713738590478897,"324":-0.012136424891650677,"325":-0.06865483522415161,"326":-0.015684207901358604,"327":0.024291202425956726,"328":0.055581580847501755,"329":-0.038604237139225006,"330":0.000014032279068487696,"331":0.06718786060810089,"332":-0.016284439712762833,"333":0.12309354543685913,"334":0.08056385815143585,"335":-0.07209103554487228,"336":-0.09262928366661072,"337":0.05410325527191162,"338":0.18500599265098572,"339":0.06112809106707573,"340":-0.18782679736614227,"341":0.29137033224105835,"342":-0.4695124626159668,"343":0.01072775200009346,"344":0.28844791650772095,"345":-0.12119008600711823,"346":0.20970302820205688,"347":0.31307750940322876,"348":-0.04454973712563515,"349":0.3530419170856476,"350":0.34824636578559875,"351":0.3211936056613922,"352":0.36936888098716736,"353":0.0918741449713707,"354":0.09335406869649887,"355":-0.18531711399555206,"356":-0.11328951269388199,"357":0.3756350874900818,"358":1.4186859130859375,"359":0.42139533162117004,"360":-0.14077189564704895,"361":0.09669040888547897,"362":-0.14191988110542297,"363":-0.00003296437716926448,"364":0.03678944334387779,"365":-0.0774201825261116,"366":-0.09946274757385254,"367":0.03337539732456207,"368":-0.10860583931207657,"369":0.03646441176533699,"370":0.03329773619771004,"371":0.12357523292303085,"372":0.1148485317826271,"373":0.023586755618453026,"374":0.12245484441518784,"375":-0.01276509277522564,"376":-0.1387569159269333,"377":0.14986863732337952,"378":0.02255682647228241,"379":0.08632702380418777,"380":-0.09961854666471481,"381":0.03841395676136017,"382":-0.009386604651808739,"383":-0.07828143984079361,"384":0.05197945237159729,"385":-0.0065846736542880535,"386":-0.012435419484972954,"387":0.1467449963092804,"388":-0.032314274460077286,"389":-0.023471660912036896,"390":0.04587662220001221,"391":0.0395992249250412,"392":0.08208559453487396,"393":-0.041412029415369034,"394":0.055495649576187134,"395":-0.17833782732486725,"396":-0.07361352443695068,"397":0.14136295020580292,"398":0.06175770238041878,"399":0.02294330485165119}},"forgetHidden":{"rows":20,"columns":20,"weights":{"0":0.03629251942038536,"1":0.03215032443404198,"2":0.013564575463533401,"3":0.010872275568544865,"4":-0.034023258835077286,"5":0.006494428962469101,"6":0.03203403577208519,"7":-0.07827935367822647,"8":0.022430408746004105,"9":0.06404538452625275,"10":-0.07333072274923325,"11":0.08664996922016144,"12":-0.09973250329494476,"13":0.0454610213637352,"14":0.03826777637004852,"15":-0.04739129915833473,"16":0.043957795947790146,"17":-0.021319400519132614,"18":0.04107857868075371,"19":-0.047267403453588486,"20":-0.057987552136182785,"21":-0.04116439074277878,"22":0.08541150391101837,"23":0.04313831776380539,"24":0.06276782602071762,"25":-0.035224925726652145,"26":0.014709644950926304,"27":0.008546781726181507,"28":-0.0472690723836422,"29":0.032772619277238846,"30":-0.042021289467811584,"31":-0.03249400481581688,"32":-0.02302170731127262,"33":0.06569112092256546,"34":-0.06939348578453064,"35":-0.061522241681814194,"36":-0.042248211801052094,"37":-0.09232766926288605,"38":-0.03876955434679985,"39":-0.08014648407697678,"40":-0.007001322694122791,"41":-0.0169537290930748,"42":-0.204301655292511,"43":0.37470316886901855,"44":-0.4316261112689972,"45":-0.140263631939888,"46":0.00935699325054884,"47":-0.0032954306807368994,"48":-0.04015060141682625,"49":-0.03589187562465668,"50":-0.006859716959297657,"51":0.050676848739385605,"52":0.07359381765127182,"53":0.09273220598697662,"54":-0.23574404418468475,"55":-0.00041439017513766885,"56":0.021261699497699738,"57":-0.0940234586596489,"58":-0.024600261822342873,"59":0.038417086005210876,"60":-0.20425286889076233,"61":0.11179988086223602,"62":-0.2720886468887329,"63":0.4471833407878876,"64":-0.5058233141899109,"65":-0.15752069652080536,"66":-0.10321826487779617,"67":-0.17607533931732178,"68":-0.15311098098754883,"69":0.02418927662074566,"70":-0.1633411943912506,"71":0.02043728344142437,"72":0.013822805136442184,"73":0.3021961748600006,"74":-0.21986375749111176,"75":0.18030661344528198,"76":0.019383639097213745,"77":-0.21582664549350739,"78":0.00970490649342537,"79":-0.1288125216960907,"80":-0.10751887410879135,"81":0.09399740397930145,"82":-0.4773563742637634,"83":0.6258180141448975,"84":-0.6073421835899353,"85":-0.21043744683265686,"86":-0.2302905172109604,"87":-0.14381147921085358,"88":-0.11468028277158737,"89":-0.04450922831892967,"90":-0.13093262910842896,"91":0.03533550351858139,"92":0.1287137120962143,"93":0.24915236234664917,"94":-0.24556192755699158,"95":0.23619471490383148,"96":0.07160472869873047,"97":-0.21956674754619598,"98":0.023456906899809837,"99":-0.040274590253829956,"100":0.10880031436681747,"101":-0.017817262560129166,"102":-0.09320291876792908,"103":0.014054089784622192,"104":-0.1699325293302536,"105":-0.029496263712644577,"106":0.09029006212949753,"107":0.10315946489572525,"108":0.05408268794417381,"109":-0.07070459425449371,"110":0.08615043014287949,"111":-0.09031111747026443,"112":0.23523269593715668,"113":-0.13134434819221497,"114":0.08745208382606506,"115":-0.04828061908483505,"116":-0.08786163479089737,"117":0.2455974966287613,"118":-0.036054827272892,"119":0.01843252032995224,"120":0.057806532829999924,"121":-0.031214388087391853,"122":0.05241567641496658,"123":0.0038654247764497995,"124":-0.06482723355293274,"125":-0.031688377261161804,"126":0.025236234068870544,"127":0.0819200649857521,"128":0.04949738830327988,"129":-0.0550515353679657,"130":0.09871229529380798,"131":-0.027456054463982582,"132":0.020325761288404465,"133":-0.02914576418697834,"134":-0.07058551907539368,"135":-0.09475288540124893,"136":-0.031203003600239754,"137":0.08400079607963562,"138":0.06849799305200577,"139":0.037133634090423584,"140":0.001974766841158271,"141":-0.0035825236700475216,"142":0.06122073158621788,"143":-0.026059968397021294,"144":-0.10947331041097641,"145":0.0022021192125976086,"146":0.011621573008596897,"147":-0.01149554830044508,"148":0.01598179340362549,"149":-0.049874741584062576,"150":-0.017198074609041214,"151":-0.07228602468967438,"152":-0.1677294373512268,"153":0.00898691639304161,"154":-0.11992520093917847,"155":0.08016269654035568,"156":0.03172948956489563,"157":-0.04244912043213844,"158":-0.014850111678242683,"159":-0.05864584073424339,"160":0.12559181451797485,"161":-0.051611363887786865,"162":0.10044649243354797,"163":0.023973898962140083,"164":0.06472649425268173,"165":-0.012156541459262371,"166":0.043211255222558975,"167":-0.01467301044613123,"168":-0.058014243841171265,"169":0.0018578331219032407,"170":0.0844484269618988,"171":-0.03174757584929466,"172":-0.0173795148730278,"173":-0.07416754961013794,"174":0.03453664481639862,"175":0.009598572738468647,"176":0.021356873214244843,"177":0.0580701008439064,"178":-0.043714046478271484,"179":-0.011083440855145454,"180":-0.004672715440392494,"181":-0.003670608391985297,"182":-0.0585135817527771,"183":0.03606670722365379,"184":-0.042486291378736496,"185":0.059283703565597534,"186":0.014567699283361435,"187":0.050416164100170135,"188":-0.03710116446018219,"189":0.015998125076293945,"190":0.026870256289839745,"191":0.08957652002573013,"192":-0.06573553383350372,"193":0.0600915290415287,"194":-0.026333536952733994,"195":0.05239291116595268,"196":-0.01172803808003664,"197":0.03841913118958473,"198":-0.07847831398248672,"199":-0.03939443081617355,"200":0.07771963626146317,"201":0.03808886930346489,"202":0.021002642810344696,"203":0.01602107286453247,"204":0.013273128308355808,"205":0.027750065550208092,"206":0.10661628097295761,"207":0.0749887153506279,"208":-0.03332142159342766,"209":0.05942855775356293,"210":0.033673807978630066,"211":0.06913009285926819,"212":-0.013497299514710903,"213":0.04876041039824486,"214":-0.019667355343699455,"215":-0.07727252691984177,"216":0.03562907874584198,"217":-0.06213871017098427,"218":0.002484797267243266,"219":-0.004539318848401308,"220":0.03384042903780937,"221":0.07925524562597275,"222":-0.05985668674111366,"223":0.08736728131771088,"224":-0.05301951617002487,"225":-0.07769149541854858,"226":-0.0686744675040245,"227":-0.09265615046024323,"228":0.02739008329808712,"229":-0.03894239664077759,"230":0.016432741656899452,"231":0.08766503632068634,"232":0.005830436944961548,"233":0.05629883334040642,"234":-0.06387769430875778,"235":-0.017106780782341957,"236":0.00220328476279974,"237":-0.07492968440055847,"238":-0.08518572151660919,"239":0.013380594551563263,"240":0.12101291865110397,"241":-0.044084012508392334,"242":0.20540249347686768,"243":-0.1044171154499054,"244":0.24040745198726654,"245":0.2247372269630432,"246":-0.021660946309566498,"247":0.11845603585243225,"248":-0.043808143585920334,"249":-0.024769863113760948,"250":0.019089654088020325,"251":-0.036169327795505524,"252":0.11301428079605103,"253":0.06258571892976761,"254":-0.10659325867891312,"255":0.1021813154220581,"256":-0.06353869289159775,"257":-0.14467859268188477,"258":-0.07452627271413803,"259":-0.02608562260866165,"260":0.10915150493383408,"261":-0.06849369406700134,"262":-0.018802043050527573,"263":0.20792287588119507,"264":-0.27240127325057983,"265":0.05194336175918579,"266":0.07653576880693436,"267":-0.020613139495253563,"268":0.15013864636421204,"269":-0.050145216286182404,"270":-0.045569971203804016,"271":0.04125364497303963,"272":-0.3392578065395355,"273":0.33019256591796875,"274":-0.49315011501312256,"275":0.16168908774852753,"276":-0.04109583795070648,"277":-0.3723023533821106,"278":-0.03951575234532356,"279":0.03152136877179146,"280":0.010892217047512531,"281":0.09342817217111588,"282":-0.24911989271640778,"283":0.31433239579200745,"284":-0.4459265470504761,"285":-0.026103930547833443,"286":-0.07459349185228348,"287":-0.13200967013835907,"288":-0.20641571283340454,"289":0.022425157949328423,"290":-0.0395948700606823,"291":0.17960818111896515,"292":-0.181248277425766,"293":0.43787744641304016,"294":-0.4711361229419708,"295":0.2685065269470215,"296":-0.0654275044798851,"297":-0.6291838884353638,"298":-0.1333562433719635,"299":-0.10353458672761917,"300":0.012574038468301296,"301":-0.07103574275970459,"302":-0.012676296755671501,"303":0.10704341530799866,"304":-0.10209646075963974,"305":0.10129856318235397,"306":-0.0032551605254411697,"307":0.012284950353205204,"308":0.1714780628681183,"309":-0.032502420246601105,"310":0.042766641825437546,"311":0.03110441565513611,"312":-0.28213217854499817,"313":0.21662166714668274,"314":-0.31617996096611023,"315":0.09340447187423706,"316":0.07067001610994339,"317":-0.19430367648601532,"318":0.016325857490301132,"319":-0.0024834887590259314,"320":-0.08639460057020187,"321":0.08961354196071625,"322":0.08470125496387482,"323":0.07241717725992203,"324":-0.02451346069574356,"325":0.00531805818900466,"326":0.0705823302268982,"327":0.003053035819903016,"328":0.03616899996995926,"329":-0.05203288793563843,"330":0.05882910266518593,"331":0.031883858144283295,"332":0.027679506689310074,"333":-0.0483592264354229,"334":0.10748236626386642,"335":-0.06548143923282623,"336":-0.06392952054738998,"337":-0.021599136292934418,"338":0.016087744385004044,"339":0.05114031210541725,"340":0.0816325843334198,"341":0.015046479180455208,"342":0.0764433965086937,"343":-0.04777936637401581,"344":0.053083837032318115,"345":0.17565512657165527,"346":0.02124685049057007,"347":0.08070620894432068,"348":0.045355625450611115,"349":-0.038362178951501846,"350":0.08773305267095566,"351":-0.049808040261268616,"352":0.10025562345981598,"353":0.037261463701725006,"354":-0.20391890406608582,"355":0.05723893269896507,"356":-0.037864670157432556,"357":-0.06575783342123032,"358":-0.13493797183036804,"359":0.06165870279073715,"360":-0.013763932511210442,"361":-0.04038923233747482,"362":-0.0011868774890899658,"363":-0.005217124707996845,"364":-0.046230416744947433,"365":0.03615880385041237,"366":0.053536053746938705,"367":0.04218006506562233,"368":-0.0034208172000944614,"369":0.03133971616625786,"370":0.05434530973434448,"371":0.0853002667427063,"372":-0.0964001938700676,"373":0.008227446116507053,"374":-0.055365677922964096,"375":0.03727051243185997,"376":0.10483016073703766,"377":0.0032047065906226635,"378":-0.04005926474928856,"379":-0.010821142233908176,"380":0.05268815532326698,"381":-0.06334635615348816,"382":0.0026128641329705715,"383":0.032634034752845764,"384":0.008860400877892971,"385":-0.03015604242682457,"386":0.0231704730540514,"387":-0.04659171402454376,"388":0.02525915764272213,"389":0.0020748700480908155,"390":-0.025290850549936295,"391":-0.05101851001381874,"392":-0.07590575516223907,"393":0.07462865859270096,"394":0.04940884932875633,"395":0.02309180423617363,"396":0.07759861648082733,"397":-0.04793164134025574,"398":0.025767892599105835,"399":0.015242904424667358}},"forgetBias":{"rows":20,"columns":1,"weights":{"0":0,"1":0,"2":0,"3":0,"4":0,"5":0,"6":0,"7":0,"8":0,"9":0,"10":0,"11":0,"12":0,"13":0,"14":0,"15":0,"16":0,"17":0,"18":0,"19":0}},"outputMatrix":{"rows":20,"columns":20,"weights":{"0":-0.22961755096912384,"1":0.36146923899650574,"2":-0.3856489658355713,"3":0.3624804615974426,"4":0.29253193736076355,"5":0.22998207807540894,"6":-0.33058515191078186,"7":0.3505806028842926,"8":-0.37461864948272705,"9":-0.024141404777765274,"10":0.3378816843032837,"11":0.27430546283721924,"12":0.25735345482826233,"13":0.4343772828578949,"14":0.3287392854690552,"15":-0.2393014281988144,"16":-0.30056560039520264,"17":0.2676863670349121,"18":0.33018758893013,"19":0.34894436597824097,"20":-0.2890037000179291,"21":0.30234602093696594,"22":-0.39174526929855347,"23":0.21304021775722504,"24":0.43696555495262146,"25":-0.11964736133813858,"26":-0.37321874499320984,"27":0.3572842478752136,"28":-0.26255401968955994,"29":0.1635335236787796,"30":0.38319891691207886,"31":0.35393914580345154,"32":0.35719844698905945,"33":0.16495980322360992,"34":0.3908277750015259,"35":-0.38396191596984863,"36":-0.43751877546310425,"37":0.32250943779945374,"38":0.4601157307624817,"39":0.4479115605354309,"40":0.14062802493572235,"41":-0.20908138155937195,"42":0.4559401571750641,"43":0.7924074530601501,"44":-0.37654855847358704,"45":0.9457027912139893,"46":-0.08752653747797012,"47":-0.3666191101074219,"48":0.004051825497299433,"49":-0.3880356252193451,"50":-0.4931758642196655,"51":-0.42009207606315613,"52":-0.3234603703022003,"53":0.7254239320755005,"54":-0.3637174069881439,"55":0.35493019223213196,"56":0.22660499811172485,"57":-0.5006296038627625,"58":-0.6125269532203674,"59":-0.3983672559261322,"60":0.51542067527771,"61":-0.4811640679836273,"62":0.6334956288337708,"63":0.5848383903503418,"64":-0.6092731952667236,"65":0.7826344966888428,"66":0.1557711362838745,"67":-0.5408260226249695,"68":0.2724307179450989,"69":-0.6900586485862732,"70":-0.6573286056518555,"71":-0.6357598900794983,"72":-0.594748318195343,"73":0.42911452054977417,"74":-0.5072391629219055,"75":0.5566016435623169,"76":0.4046764075756073,"77":-0.643092691898346,"78":-0.5938048958778381,"79":-0.5233263373374939,"80":0.41000989079475403,"81":-0.43182384967803955,"82":0.7273577451705933,"83":0.46726831793785095,"84":-0.5800200700759888,"85":0.8055819272994995,"86":0.1857476383447647,"87":-0.6491276621818542,"88":0.4031531810760498,"89":-0.6500738859176636,"90":-0.709316074848175,"91":-0.6339879631996155,"92":-0.4999503791332245,"93":0.45583441853523254,"94":-0.511635422706604,"95":0.620562732219696,"96":0.5197523832321167,"97":-0.7233197093009949,"98":-0.7894254922866821,"99":-0.6252643465995789,"100":-0.00906822644174099,"101":0.04523823410272598,"102":0.1648114174604416,"103":0.6042613983154297,"104":-0.07337548583745956,"105":0.5972713828086853,"106":-0.13399280607700348,"107":-0.04085635021328926,"108":-0.11919457465410233,"109":-0.29063254594802856,"110":-0.18874850869178772,"111":-0.08662290126085281,"112":0.005259618628770113,"113":0.6614829897880554,"114":0.012276997789740562,"115":0.058349672704935074,"116":-0.03642554208636284,"117":-0.04779404029250145,"118":-0.32269224524497986,"119":-0.08809267729520798,"120":-0.29809677600860596,"121":0.22632171213626862,"122":-0.32119855284690857,"123":0.41820240020751953,"124":0.2550337016582489,"125":0.25077152252197266,"126":-0.294883668422699,"127":0.2888476252555847,"128":-0.31058457493782043,"129":0.010606608353555202,"130":0.23244300484657288,"131":0.26952803134918213,"132":0.25235775113105774,"133":0.4272119402885437,"134":0.272013396024704,"135":-0.1758486032485962,"136":-0.3563139736652374,"137":0.2247501015663147,"138":0.36212053894996643,"139":0.357383668422699,"140":0.055967532098293304,"141":0.18328605592250824,"142":0.06778224557638168,"143":0.6209569573402405,"144":-0.14653681218624115,"145":0.4898701310157776,"146":-0.07965481281280518,"147":-0.06633439660072327,"148":-0.15909814834594727,"149":-0.3249579668045044,"150":-0.15989701449871063,"151":-0.03504692390561104,"152":-0.048969022929668427,"153":0.5757334232330322,"154":-0.13344666361808777,"155":0.03875189647078514,"156":-0.06032184883952141,"157":-0.032978083938360214,"158":-0.0003797135432250798,"159":-0.1333564817905426,"160":-0.26452571153640747,"161":0.48204830288887024,"162":-0.39034321904182434,"163":0.6413731575012207,"164":0.3282966613769531,"165":0.0608743317425251,"166":-0.031342100352048874,"167":0.30481645464897156,"168":-0.3253946304321289,"169":0.1980782300233841,"170":0.24923884868621826,"171":0.27171915769577026,"172":0.3490108251571655,"173":0.5998706817626953,"174":0.2630375325679779,"175":-0.24228474497795105,"176":-0.3227282166481018,"177":0.3635186553001404,"178":1.5231103897094727,"179":0.357805073261261,"180":-0.33510738611221313,"181":0.3506285846233368,"182":-0.39280810952186584,"183":0.2580621838569641,"184":0.26911982893943787,"185":-0.19686605036258698,"186":-0.24337033927440643,"187":0.3665095269680023,"188":-0.25403058528900146,"189":0.0731283575296402,"190":0.36629605293273926,"191":0.25552839040756226,"192":0.2934432029724121,"193":0.1890573501586914,"194":0.36283406615257263,"195":-0.25440436601638794,"196":-0.3551963269710541,"197":0.341907799243927,"198":0.4195365011692047,"199":0.28850120306015015,"200":-0.08302539587020874,"201":0.1750413030385971,"202":0.07072310149669647,"203":0.6018022298812866,"204":-0.0735098347067833,"205":0.5561211705207825,"206":-0.25909245014190674,"207":-0.00647083530202508,"208":-0.2576192319393158,"209":-0.3102071285247803,"210":0.019936485216021538,"211":0.03487936407327652,"212":0.023414064198732376,"213":0.5102673172950745,"214":0.06492751836776733,"215":-0.08038931339979172,"216":-0.07706108689308167,"217":-0.051827460527420044,"218":-0.11072511970996857,"219":0.005732162855565548,"220":-0.27554580569267273,"221":0.24579180777072906,"222":-0.3951363265514374,"223":0.1640789955854416,"224":0.3879042863845825,"225":-0.2518385052680969,"226":-0.39883190393447876,"227":0.40814638137817383,"228":-0.3105846643447876,"229":0.16916653513908386,"230":0.31406742334365845,"231":0.38029056787490845,"232":0.39000847935676575,"233":0.13689768314361572,"234":0.2838399410247803,"235":-0.34184542298316956,"236":-0.35669803619384766,"237":0.3268624246120453,"238":0.2779923677444458,"239":0.41099271178245544,"240":-0.016251785680651665,"241":0.38738635182380676,"242":-0.14244720339775085,"243":1.1318600177764893,"244":0.06130868196487427,"245":0.2032775729894638,"246":0.6456924080848694,"247":-0.050143223255872726,"248":-0.1533614993095398,"249":-0.10003405809402466,"250":0.04537579417228699,"251":-0.10712670534849167,"252":0.2100902944803238,"253":1.1538854837417603,"254":-0.3705860674381256,"255":0.180216446518898,"256":0.11478029936552048,"257":0.009613589383661747,"258":2.6183314323425293,"259":0.058425385504961014,"260":0.24238470196723938,"261":0.004031181801110506,"262":0.43626168370246887,"263":1.1149274110794067,"264":-0.453766793012619,"265":0.938003659248352,"266":0.5299855470657349,"267":-0.5756006836891174,"268":0.09960465133190155,"269":-0.243534654378891,"270":-0.6055858135223389,"271":-0.49369293451309204,"272":-0.25555917620658875,"273":1.0319410562515259,"274":-0.5415917634963989,"275":0.5178731083869934,"276":0.42568954825401306,"277":-0.4795832633972168,"278":1.595719575881958,"279":-0.435438871383667,"280":0.357719749212265,"281":-0.013176748529076576,"282":0.44461360573768616,"283":1.0614593029022217,"284":-0.4398399293422699,"285":0.4809247851371765,"286":0.4958781898021698,"287":-0.5725276470184326,"288":0.10910574346780777,"289":0.0550888255238533,"290":-0.572202742099762,"291":-0.6410053372383118,"292":-0.18807511031627655,"293":0.9027649760246277,"294":-0.5754894614219666,"295":0.6354693174362183,"296":0.2855922281742096,"297":-0.5890645980834961,"298":1.063557505607605,"299":-0.3589959144592285,"300":0.16794322431087494,"301":0.023203575983643532,"302":0.2804727554321289,"303":0.9306973218917847,"304":-0.32315710186958313,"305":0.764988899230957,"306":0.18033470213413239,"307":-0.23734527826309204,"308":-0.02894894964993,"309":-0.3115392029285431,"310":-0.22098574042320251,"311":-0.31467124819755554,"312":-0.037487391382455826,"313":0.9391666650772095,"314":-0.3451564311981201,"315":0.3019064664840698,"316":0.18604713678359985,"317":-0.30303409695625305,"318":0.8273310661315918,"319":-0.20467892289161682,"320":-0.27562642097473145,"321":0.4042040705680847,"322":-0.46296530961990356,"323":0.4378790557384491,"324":0.2820475995540619,"325":0.030897831544280052,"326":-0.0846557468175888,"327":0.35342323780059814,"328":-0.27327626943588257,"329":0.020021064206957817,"330":0.3554922342300415,"331":0.34552302956581116,"332":0.3587033748626709,"333":0.4235175848007202,"334":0.2992168068885803,"335":-0.23098328709602356,"336":-0.24374237656593323,"337":0.33721718192100525,"338":1.2393723726272583,"339":0.40969881415367126,"340":0.3215053975582123,"341":0.08659253269433975,"342":0.2985314428806305,"343":1.1437963247299194,"344":-0.481477290391922,"345":0.9181076884269714,"346":0.6499583721160889,"347":-0.46264195442199707,"348":0.11329706013202667,"349":-0.2019498646259308,"350":-0.45535099506378174,"351":-0.5921016931533813,"352":-0.15111826360225677,"353":1.0757782459259033,"354":-0.6300709247589111,"355":0.49762412905693054,"356":0.38138455152511597,"357":-0.4704867899417877,"358":2.0176284313201904,"359":-0.2710075378417969,"360":-0.21711601316928864,"361":0.3447118103504181,"362":-0.3570394515991211,