{"type":"LSTM","options":{"inputSize":1,"inputRange":1,"hiddenLayers":[20,20],"outputSize":1,"learningRate":0.01,"decayRate":0.999,"smoothEps":1e-8,"regc":0.000001,"clipval":5,"maxPredictionLength":100,"dataFormatter":{"indexTable":{"[object Object]":0},"characterTable":{"0":{"K0":12,"K1":6.88,"K2":2.8,"K3":-2.37,"K4":-6.97,"K5":-11.79,"K6":-19.71,"K7":-26.95,"K8":-33.83,"K9":-39.84}},"values":[[{"K0":12,"K1":6.88,"K2":2.8,"K3":-2.37,"K4":-6.97,"K5":-11.79,"K6":-19.71,"K7":-26.95,"K8":-33.83,"K9":-39.84},{"rise":-37.35,"fall":10.06,"peak":-9.71,"trough":-13.83}],[{"K0":475,"K1":482.12,"K2":489.67,"K3":499.93,"K4":511.09,"K5":519.03,"K6":530.19,"K7":537.19,"K8":547.23,"K9":556.23},{"rise":552.52,"fall":477.89,"peak":515.06,"trough":515.42}],[{"K0":345,"K1":354.5,"K2":367.1,"K3":379.46,"K4":391.56,"K5":399.56,"K6":409.13,"K7":420.24,"K8":429.6,"K9":440.69},{"rise":436.43,"fall":349.11,"peak":395.31,"trough":392.69}],[{"K0":975,"K1":965.7,"K2":951.61,"K3":940.92,"K4":926.31,"K5":914.96,"K6":899.9,"K7":889.7,"K8":877.81,"K9":863.45},{"rise":868.95,"fall":970.8,"peak":920.59,"trough":919.73}],[{"K0":774,"K1":770.27,"K2":767.66,"K3":764.21,"K4":761.02,"K5":758.96,"K6":755.16,"K7":752.54,"K8":750.26,"K9":746.88},{"rise":748.12,"fall":772.62,"peak":759.93,"trough":760.41}],[{"K0":156,"K1":148.93,"K2":139.82,"K3":134.19,"K4":127.63,"K5":121.69,"K6":112.5,"K7":104.24,"K8":97.52,"K9":88.52},{"rise":91.89,"fall":152.97,"peak":124.4,"trough":122.45}],[{"K0":179,"K1":163.16,"K2":154.06,"K3":140.91,"K4":125.68,"K5":112.88,"K6":97.56,"K7":82.16,"K8":66.66,"K9":57.78},{"rise":62,"fall":173.34,"peak":119.27,"trough":117.7}],[{"K0":403,"K1":390.67,"K2":380.5,"K3":370.59,"K4":359.81,"K5":351.49,"K6":343.61,"K7":331.94,"K8":319.1,"K9":309.07},{"rise":313.36,"fall":398.28,"peak":355.94,"trough":355.8}],[{"K0":576,"K1":556.33,"K2":540,"K3":525.59,"K4":513.33,"K5":493.54,"K6":478.58,"K7":459.69,"K8":448.41,"K9":429.08},{"rise":436.01,"fall":568.47,"peak":503.16,"trough":502.51}],[{"K0":480,"K1":472.77,"K2":464.91,"K3":457,"K4":452.5,"K5":446.8,"K6":441.62,"K7":435.48,"K8":428.05,"K9":423.92},{"rise":425.9,"fall":477.04,"peak":449.58,"trough":451.65}],[{"K0":708,"K1":701.95,"K2":691.9,"K3":682.7,"K4":676.36,"K5":669.07,"K6":662.26,"K7":651.63,"K8":641.93,"K9":634.98},{"rise":638.04,"fall":705.18,"peak":672.67,"trough":671.58}]],"characters":[{"K0":12,"K1":6.88,"K2":2.8,"K3":-2.37,"K4":-6.97,"K5":-11.79,"K6":-19.71,"K7":-26.95,"K8":-33.83,"K9":-39.84}],"specialIndexes":[]}},"input":{"rows":2,"columns":1,"weights":{"0":0.6397229433059692,"1":0.2228948026895523}},"hiddenLayers":[{"inputMatrix":{"rows":20,"columns":1,"weights":{"0":0.31540730595588684,"1":0.30682072043418884,"2":0.13654933869838715,"3":0.8626196980476379,"4":0.1365126669406891,"5":-0.6022399067878723,"6":0.6153846383094788,"7":0.2074989378452301,"8":0.2922881543636322,"9":0.4346282482147217,"10":0.17093320190906525,"11":0.24025224149227142,"12":0.27329370379447937,"13":0.8334053158760071,"14":0.31170374155044556,"15":0.22216974198818207,"16":0.2817378640174866,"17":0.1354401707649231,"18":1.9158145189285278,"19":0.11210256069898605}},"inputHidden":{"rows":20,"columns":20,"weights":{"0":0.028258122503757477,"1":0.041287295520305634,"2":-0.04524942860007286,"3":0.5031276345252991,"4":-0.08992374688386917,"5":0.3489103615283966,"6":0.07685136049985886,"7":-0.08136680722236633,"8":-0.08586760610342026,"9":0.02006528712809086,"10":-0.12546643614768982,"11":-0.14935657382011414,"12":0.05186375603079796,"13":0.4538647532463074,"14":-0.11627859622240067,"15":0.1538558155298233,"16":-0.00263901986181736,"17":-0.048788443207740784,"18":0.37251973152160645,"19":-0.07086846977472305,"20":0.05290181189775467,"21":-0.01037958450615406,"22":-0.07097014039754868,"23":0.29501327872276306,"24":-0.052313193678855896,"25":0.25924503803253174,"26":-0.007144398521631956,"27":0.007016254588961601,"28":-0.06643563508987427,"29":-0.04405231773853302,"30":-0.014267847873270512,"31":-0.14391076564788818,"32":0.07352878153324127,"33":0.26821431517601013,"34":-0.043756693601608276,"35":-0.00526515394449234,"36":0.0791790708899498,"37":-0.04720557481050491,"38":0.07776949554681778,"39":0.0668829157948494,"40":0.23669487237930298,"41":-0.16282270848751068,"42":0.33033499121665955,"43":0.7261722683906555,"44":-0.35211947560310364,"45":0.7764875292778015,"46":0.3654786944389343,"47":-0.3727085292339325,"48":0.12119884043931961,"49":-0.15395820140838623,"50":-0.5961034297943115,"51":-0.6099050045013428,"52":-0.31823787093162537,"53":0.7775633335113525,"54":-0.5899300575256348,"55":0.5734673738479614,"56":0.29714491963386536,"57":-0.5301592350006104,"58":0.298443078994751,"59":-0.30361074209213257,"60":0.14792068302631378,"61":0.2226201295852661,"62":0.030682075768709183,"63":1.0688012838363647,"64":-0.2769199013710022,"65":0.6271965503692627,"66":0.5319281816482544,"67":-0.4250727891921997,"68":0.2795473337173462,"69":0.1740904003381729,"70":-0.3096856474876404,"71":-0.563439130783081,"72":-0.048028312623500824,"73":1.1066313982009888,"74":-0.5425688028335571,"75":0.6070785522460938,"76":0.3028392493724823,"77":-0.3475845754146576,"78":0.79323410987854,"79":-0.1457403153181076,"80":0.11513994634151459,"81":0.03684549033641815,"82":0.14120210707187653,"83":0.6824363470077515,"84":-0.3378312885761261,"85":0.6554065346717834,"86":0.31711021065711975,"87":-0.30403566360473633,"88":0.15734395384788513,"89":-0.04419110342860222,"90":-0.33179181814193726,"91":-0.4809146523475647,"92":-0.14456072449684143,"93":0.7778264284133911,"94":-0.34736374020576477,"95":0.41187453269958496,"96":0.18155375123023987,"97":-0.2412327527999878,"98":0.34971848130226135,"99":-0.290261834859848,"100":0.4455825984477997,"101":-0.1294410228729248,"102":0.4551941752433777,"103":1.016372799873352,"104":-0.623216450214386,"105":0.9254900813102722,"106":0.7992593050003052,"107":-0.7193886041641235,"108":0.433066189289093,"109":0.10003425925970078,"110":-0.82930988073349,"111":-0.9365217685699463,"112":-0.28286734223365784,"113":1.029211401939392,"114":-0.8849119544029236,"115":0.8888932466506958,"116":0.6603879928588867,"117":-0.7328400611877441,"118":0.5350069999694824,"119":-0.5720881223678589,"120":-0.19523197412490845,"121":0.3247956931591034,"122":-0.31840699911117554,"123":0.5812494158744812,"124":0.16440598666667938,"125":-0.24581791460514069,"126":0.04958926513791084,"127":0.15050570666790009,"128":-0.07630133628845215,"129":0.24031174182891846,"130":0.34418562054634094,"131":0.16586682200431824,"132":0.20228826999664307,"133":0.5752800107002258,"134":0.15256470441818237,"135":-0.23525911569595337,"136":-0.15156282484531403,"137":0.34056323766708374,"138":0.7398759126663208,"139":0.32926130294799805,"140":0.09943553805351257,"141":0.04792528599500656,"142":0.13549929857254028,"143":0.8515691161155701,"144":-0.22567027807235718,"145":0.6731318235397339,"146":0.19660863280296326,"147":-0.3312495946884155,"148":0.015211078338325024,"149":-0.044037677347660065,"150":-0.2316359430551529,"151":-0.328035444021225,"152":0.003385201096534729,"153":0.7111706733703613,"154":-0.36900973320007324,"155":0.29879286885261536,"156":0.272176057100296,"157":-0.1473848819732666,"158":0.5788535475730896,"159":-0.20670628547668457,"160":-0.0905858501791954,"161":0.1494017243385315,"162":-0.11618822813034058,"163":-0.05521540343761444,"164":0.13068702816963196,"165":-0.07287625223398209,"166":-0.18463997542858124,"167":0.16880662739276886,"168":-0.16606248915195465,"169":-0.03703043609857559,"170":0.09262502938508987,"171":0.20193825662136078,"172":0.09560107439756393,"173":-0.07849575579166412,"174":0.1322176307439804,"175":-0.06038245931267738,"176":-0.1453462541103363,"177":0.15567927062511444,"178":0.0875290185213089,"179":0.09210661798715591,"180":0.14863280951976776,"181":-0.01068787183612585,"182":0.09745285660028458,"183":0.4115615487098694,"184":-0.25639644265174866,"185":0.3492724299430847,"186":0.2509794533252716,"187":-0.3831232488155365,"188":0.18013501167297363,"189":-0.16781064867973328,"190":-0.40928536653518677,"191":-0.4714362323284149,"192":-0.07328291237354279,"193":0.4025847315788269,"194":-0.4660634994506836,"195":0.4528824985027313,"196":0.16806083917617798,"197":-0.2045009881258011,"198":0.585419237613678,"199":-0.26563534140586853,"200":0.2008010894060135,"201":0.020182456821203232,"202":0.2867245078086853,"203":0.8832617998123169,"204":-0.35698366165161133,"205":0.8427411913871765,"206":0.3909517824649811,"207":-0.4603513479232788,"208":0.14912456274032593,"209":-0.03634319826960564,"210":-0.5376404523849487,"211":-0.6317641139030457,"212":-0.2128610759973526,"213":0.829329788684845,"214":-0.433374285697937,"215":0.42658495903015137,"216":0.3634459674358368,"217":-0.43183648586273193,"218":0.466204971075058,"219":-0.2635120153427124,"220":0.2131381630897522,"221":0.06361059099435806,"222":0.03937024623155594,"223":0.9516230821609497,"224":-0.24444711208343506,"225":0.6670883893966675,"226":0.3567139506340027,"227":-0.3631255328655243,"228":0.08596163988113403,"229":0.09277172386646271,"230":-0.3404594957828522,"231":-0.5487217307090759,"232":-0.011758187785744667,"233":0.8859891295433044,"234":-0.43275606632232666,"235":0.39301636815071106,"236":0.3209277391433716,"237":-0.2224675863981247,"238":0.6417310237884521,"239":-0.09248718619346619,"240":0.11643633991479874,"241":0.01233996544033289,"242":0.1460663378238678,"243":0.5422810316085815,"244":-0.1453123390674591,"245":0.4244953393936157,"246":0.1693979948759079,"247":-0.2079424113035202,"248":-0.002307696733623743,"249":-0.05424552410840988,"250":-0.25294262170791626,"251":-0.31881460547447205,"252":-0.049635469913482666,"253":0.5674278140068054,"254":-0.21406306326389313,"255":0.17671655118465424,"256":0.08702252805233002,"257":-0.16485272347927094,"258":0.25981518626213074,"259":-0.08772668987512589,"260":0.13521283864974976,"261":0.25296446681022644,"262":-0.08962562680244446,"263":1.0929890871047974,"264":-0.13022802770137787,"265":0.44225019216537476,"266":0.6296918392181396,"267":-0.3769657611846924,"268":0.14731110632419586,"269":0.12785616517066956,"270":-0.3141486942768097,"271":-0.46492886543273926,"272":0.07100315392017365,"273":1.0294864177703857,"274":-0.44024544954299927,"275":0.4986328184604645,"276":0.3095548450946808,"277":-0.25239551067352295,"278":0.9792014956474304,"279":0.028167249634861946,"280":0.017923755571246147,"281":0.2388928383588791,"282":-0.0937151089310646,"283":0.7979015707969666,"284":-0.01578003726899624,"285":0.42372509837150574,"286":0.24905265867710114,"287":-0.21287596225738525,"288":-0.06419238448143005,"289":0.16320693492889404,"290":-0.06702209264039993,"291":-0.2710445523262024,"292":0.13173484802246094,"293":0.8521591424942017,"294":-0.24615122377872467,"295":0.20822015404701233,"296":0.08944647014141083,"297":-0.061463240534067154,"298":0.8473433256149292,"299":0.02072371542453766,"300":0.03814556822180748,"301":0.14672507345676422,"302":-0.0683135986328125,"303":0.7957550883293152,"304":-0.20782029628753662,"305":0.5554906725883484,"306":0.36106568574905396,"307":-0.21437442302703857,"308":0.041163600981235504,"309":0.14553353190422058,"310":-0.27420881390571594,"311":-0.3800353407859802,"312":-0.02793211117386818,"313":0.7912531495094299,"314":-0.28054681420326233,"315":0.3149073123931885,"316":0.22483041882514954,"317":-0.11281600594520569,"318":0.6773437857627869,"319":-0.1100253164768219,"320":-0.05749998986721039,"321":0.11550386250019073,"322":-0.02966751717031002,"323":0.565502941608429,"324":-0.13631393015384674,"325":0.31844383478164673,"326":0.1780870109796524,"327":-0.14676007628440857,"328":0.08148209750652313,"329":-0.04605656862258911,"330":-0.10043651610612869,"331":-0.1962203085422516,"332":-0.04688548296689987,"333":0.5863128304481506,"334":-0.21342509984970093,"335":0.24265483021736145,"336":0.11346805095672607,"337":-0.1114417016506195,"338":0.3256262540817261,"339":0.03512534499168396,"340":0.22537751495838165,"341":-0.040436260402202606,"342":0.3453209698200226,"343":0.8690045475959778,"344":-0.4115467071533203,"345":0.7580119371414185,"346":0.3815409541130066,"347":-0.3215995132923126,"348":0.11937010288238525,"349":-0.014539585448801517,"350":-0.4233803153038025,"351":-0.4969426095485687,"352":-0.15102286636829376,"353":0.870768666267395,"354":-0.4392150640487671,"355":0.4581232964992523,"356":0.3668239116668701,"357":-0.4371212422847748,"358":0.3960185945034027,"359":-0.2409571409225464,"360":0.3319452106952667,"361":-0.04660360515117645,"362":0.13996322453022003,"363":1.1684578657150269,"364":-0.4806499481201172,"365":0.6917964220046997,"366":0.8591383099555969,"367":-0.5523571372032166,"368":0.2522624433040619,"369":0.14579357206821442,"370":-0.46414971351623535,"371":-0.7932197451591492,"372":-0.09296849370002747,"373":1.1881941556930542,"374":-0.7252240180969238,"375":0.679980993270874,"376":0.5364923477172852,"377":-0.3966616690158844,"378":1.3740804195404053,"379":-0.3072616755962372,"380":0.18464691936969757,"381":-0.010784003883600235,"382":0.15584079921245575,"383":0.7231769561767578,"384":-0.30755525827407837,"385":0.6083651781082153,"386":0.2589613199234009,"387":-0.3981993496417999,"388":0.16489969193935394,"389":-0.019640950486063957,"390":-0.43928518891334534,"391":-0.4859541952610016,"392":-0.14797627925872803,"393":0.6625851392745972,"394":-0.36567047238349915,"395":0.4932694137096405,"396":0.2911163568496704,"397":-0.3614216446876526,"398":0.3189042806625366,"399":-0.23996007442474365}},"inputBias":{"rows":20,"columns":1,"weights":{"0":-0.5841471552848816,"1":-0.424712210893631,"2":-0.6657213568687439,"3":0.5290483832359314,"4":-0.6205448508262634,"5":-0.4342502951622009,"6":-0.18694686889648438,"7":-0.535474956035614,"8":-0.5922513008117676,"9":-0.4623209238052368,"10":-0.6073808073997498,"11":-0.4371943771839142,"12":-0.6127790212631226,"13":0.5248703360557556,"14":-0.35139766335487366,"15":-0.3957991302013397,"16":-0.572252094745636,"17":-0.634864866733551,"18":1.4308987855911255,"19":-0.6587592363357544}},"forgetMatrix":{"rows":20,"columns":1,"weights":{"0":0.1329343169927597,"1":-0.027427634224295616,"2":-0.080201156437397,"3":-0.40061280131340027,"4":0.06415870785713196,"5":-0.4839484393596649,"6":-0.013435500673949718,"7":0.04021667316555977,"8":0.02202519215643406,"9":0.11973371356725693,"10":-0.1040048599243164,"11":-0.04256973788142204,"12":-0.00035431317519396544,"13":-0.32532191276550293,"14":-0.018565203994512558,"15":-0.059453241527080536,"16":-0.046024784445762634,"17":-0.04434897005558014,"18":0.10805261880159378,"19":-0.005126305390149355}},"forgetHidden":{"rows":20,"columns":20,"weights":{"0":-0.03139954432845116,"1":-0.005324960220605135,"2":-0.01185957994312048,"3":0.15039502084255219,"4":0.048503220081329346,"5":0.06227392703294754,"6":0.04493033513426781,"7":0.009492115117609501,"8":0.014011901803314686,"9":0.022211015224456787,"10":0.054230548441410065,"11":-0.06849247962236404,"12":0.04931934177875519,"13":0.02745528519153595,"14":-0.07230764627456665,"15":0.014815178699791431,"16":0.0822613313794136,"17":0.005952512379735708,"18":0.002139430493116379,"19":-0.026730913668870926,"20":-0.06508336216211319,"21":0.013261871412396431,"22":-0.08101597428321838,"23":0.10463715344667435,"24":-0.025744782760739326,"25":-0.03786947950720787,"26":-0.0398385189473629,"27":-0.035106316208839417,"28":0.05535048618912697,"29":-0.02698005549609661,"30":-0.07294407486915588,"31":0.047683458775281906,"32":0.06225860118865967,"33":-0.028270507231354713,"34":-0.024462275207042694,"35":0.018700644373893738,"36":0.04622839763760567,"37":0.04040971025824547,"38":0.04662495478987694,"39":-0.03496300056576729,"40":-0.011276915669441223,"41":0.015579942613840103,"42":0.06572586297988892,"43":0.2379726618528366,"44":-0.002668958157300949,"45":0.12287072092294693,"46":0.01497934851795435,"47":-0.11886931210756302,"48":0.053355515003204346,"49":0.07976704090833664,"50":-0.07829835265874863,"51":-0.17405115067958832,"52":0.006301717832684517,"53":0.22889840602874756,"54":-0.03583565354347229,"55":0.1694936603307724,"56":0.011849822476506233,"57":-0.06397164613008499,"58":0.013611768372356892,"59":-0.0429973304271698,"60":0.22588734328746796,"61":0.040802668780088425,"62":0.09815776348114014,"63":0.8175293207168579,"64":-0.18917223811149597,"65":0.5488913059234619,"66":0.4187038540840149,"67":-0.3006802797317505,"68":0.14467473328113556,"69":0.05528365448117256,"70":-0.38353627920150757,"71":-0.44079914689064026,"72":-0.11482977122068405,"73":0.8013818860054016,"74":-0.4747440218925476,"75":0.4176753759384155,"76":0.3450883626937866,"77":-0.21830642223358154,"78":0.7243962287902832,"79":-0.23249602317810059,"80":0.04023629054427147,"81":-0.047948140650987625,"82":0.08507794886827469,"83":0.29205572605133057,"84":0.011906405910849571,"85":0.21457959711551666,"86":0.06711307913064957,"87":-0.12371550500392914,"88":0.04946426674723625,"89":0.04766762629151344,"90":-0.026916300877928734,"91":-0.02167801931500435,"92":0.0006914349505677819,"93":0.2300940901041031,"94":-0.02352086268365383,"95":0.009003297425806522,"96":0.042028483003377914,"97":-0.11262623220682144,"98":0.10286200791597366,"99":-0.04017987847328186,"100":0.3171585500240326,"101":-0.1858234852552414,"102":0.36565786600112915,"103":0.6725756525993347,"104":-0.3589276671409607,"105":0.6292244791984558,"106":0.3256557881832123,"107":-0.37481454014778137,"108":0.19870057702064514,"109":0.010614965111017227,"110":-0.3735044300556183,"111":-0.5308251976966858,"112":-0.16476155817508698,"113":0.7166519165039062,"114":-0.5387313365936279,"115":0.49670442938804626,"116":0.26009589433670044,"117":-0.4096147119998932,"118":0.0768212154507637,"119":-0.36928072571754456,"120":-0.1269230842590332,"121":0.021124741062521935,"122":-0.08368438482284546,"123":-0.08386342972517014,"124":0.06055565923452377,"125":-0.06223537027835846,"126":-0.014260114170610905,"127":0.00821575615555048,"128":-0.07497143745422363,"129":-0.024819396436214447,"130":0.03565420210361481,"131":0.021159222349524498,"132":-0.015366294421255589,"133":-0.06328189373016357,"134":0.01872708648443222,"135":-0.0689801499247551,"136":-0.056445956230163574,"137":0.028398612514138222,"138":0.060200560837984085,"139":0.07790397852659225,"140":0.073104128241539,"141":0.023116763681173325,"142":0.08422509580850601,"143":0.20683853328227997,"144":-0.10246297717094421,"145":0.08766567707061768,"146":0.061546843498945236,"147":-0.020388200879096985,"148":0.03173840045928955,"149":-0.002710054162889719,"150":-0.11342450231313705,"151":-0.08762992173433304,"152":-0.0602731928229332,"153":0.20607700943946838,"154":-0.0760006383061409,"155":0.03987357020378113,"156":-0.013128628022968769,"157":-0.04649536311626434,"158":0.15850572288036346,"159":-0.06785661727190018,"160":0.02858559973537922,"161":-0.01166683342307806,"162":0.04066263884305954,"163":-0.04864335432648659,"164":0.06408140808343887,"165":-0.04027147591114044,"166":-0.04273652657866478,"167":-0.011393651366233826,"168":0.03638682886958122,"169":0.04677154868841171,"170":0.050249118357896805,"171":-0.05624432489275932,"172":-0.05419912561774254,"173":-0.05026811733841896,"174":0.09475244581699371,"175":0.06045437604188919,"176":-0.0010904372902587056,"177":0.04199758544564247,"178":-0.06139575317502022,"179":0.05751054733991623,"180":-0.009063181467354298,"181":-0.030351240187883377,"182":-0.04292433708906174,"183":0.006033455021679401,"184":-0.06142694875597954,"185":-0.01629159227013588,"186":-0.018941856920719147,"187":0.06666931509971619,"188":0.049869608134031296,"189":-0.07823357731103897,"190":-0.05674557387828827,"191":-0.06854134052991867,"192":-0.020245352759957314,"193":0.07734429091215134,"194":-0.008354919962584972,"195":-0.002619620179757476,"196":-0.044500209391117096,"197":-0.05648747831583023,"198":-0.015344363637268543,"199":-0.006605468690395355,"200":0.04406049847602844,"201":-0.02906493842601776,"202":0.012178604491055012,"203":0.3660304844379425,"204":-0.15762753784656525,"205":0.31759247183799744,"206":0.15511836111545563,"207":-0.08323351293802261,"208":-0.00195479579269886,"209":-0.07917950302362442,"210":-0.1596168875694275,"211":-0.22525276243686676,"212":-0.1273067146539688,"213":0.49348944425582886,"214":-0.13962069153785706,"215":0.18607249855995178,"216":0.02157486230134964,"217":-0.09162554889917374,"218":0.10373883694410324,"219":-0.14628219604492188,"220":0.07313454896211624,"221":0.010716566815972328,"222":0.11566473543643951,"223":0.522025465965271,"224":-0.08838340640068054,"225":0.3436862528324127,"226":0.1798103153705597,"227":-0.1822780817747116,"228":-0.0031315013766288757,"229":-0.003519879188388586,"230":-0.1627119928598404,"231":-0.24586538970470428,"232":-0.0586891733109951,"233":0.5494056940078735,"234":-0.1476377248764038,"235":0.10655955225229263,"236":0.04902098700404167,"237":-0.10384149849414825,"238":0.10430748015642166,"239":-0.00809249747544527,"240":-0.026720639318227768,"241":-0.03037317655980587,"242":-0.06551988422870636,"243":0.05099623277783394,"244":-0.05308913812041283,"245":0.07938627153635025,"246":0.07439810037612915,"247":-0.030455347150564194,"248":-0.068898506462574,"249":0.07501301914453506,"250":-0.03544903174042702,"251":-0.011284692212939262,"252":0.00883176177740097,"253":0.12343772500753403,"254":0.05274168401956558,"255":0.09064998477697372,"256":-0.0337430015206337,"257":-0.04020492732524872,"258":0.03263748064637184,"259":0.06936982274055481,"260":0.1655113697052002,"261":-0.04040948674082756,"262":0.11754625290632248,"263":0.8216726183891296,"264":-0.2427198588848114,"265":0.4478462338447571,"266":0.34448209404945374,"267":-0.21195106208324432,"268":0.09645093977451324,"269":-0.015806855633854866,"270":-0.28993546962738037,"271":-0.4062163829803467,"272":-0.07851286232471466,"273":0.8116816878318787,"274":-0.36146560311317444,"275":0.40909305214881897,"276":0.17195314168930054,"277":-0.1843857616186142,"278":0.771592915058136,"279":-0.0938820019364357,"280":0.09715130925178528,"281":0.03780875355005264,"282":0.02254527062177658,"283":0.2988004982471466,"284":-0.09477382153272629,"285":0.19570396840572357,"286":0.026284031569957733,"287":-0.05999656766653061,"288":0.01259734109044075,"289":-0.03606823459267616,"290":-0.03172994777560234,"291":-0.05838020145893097,"292":0.061744872480630875,"293":0.24462004005908966,"294":-0.15544770658016205,"295":0.09251577407121658,"296":0.009876025840640068,"297":-0.09958600997924805,"298":0.17549356818199158,"299":0.013916273601353168,"300":0.05638847127556801,"301":-0.03797851502895355,"302":0.003973387181758881,"303":0.38577476143836975,"304":-0.023568041622638702,"305":0.23600198328495026,"306":0.16327211260795593,"307":-0.06938820332288742,"308":0.03383561968803406,"309":-0.05246981978416443,"310":-0.13218741118907928,"311":-0.12369906902313232,"312":-0.04822789877653122,"313":0.3229779899120331,"314":-0.08071111887693405,"315":0.06337612122297287,"316":0.021527621895074844,"317":-0.12934136390686035,"318":0.10733626037836075,"319":-0.017449237406253815,"320":-0.044297508895397186,"321":-0.04836539924144745,"322":0.0649944394826889,"323":0.1627853512763977,"324":-0.08123531937599182,"325":0.1242666095495224,"326":0.07124048471450806,"327":0.016466574743390083,"328":0.02988285757601261,"329":0.03370331600308418,"330":-0.0036482426803559065,"331":-0.046773891896009445,"332":0.02161218784749508,"333":0.10727522522211075,"334":0.0033951320219784975,"335":0.09894032776355743,"336":0.08551203459501266,"337":-0.008287403732538223,"338":0.019472287967801094,"339":-0.0639558732509613,"340":0.0834127813577652,"341":0.00951508991420269,"342":0.11774688959121704,"343":0.3510689437389374,"344":-0.15627636015415192,"345":0.29431214928627014,"346":0.17784354090690613,"347":-0.15316440165042877,"348":0.051888417452573776,"349":0.016673332080245018,"350":-0.18104654550552368,"351":-0.13933409750461578,"352":-0.0836774930357933,"353":0.31307297945022583,"354":-0.178362175822258,"355":0.13330844044685364,"356":0.13257160782814026,"357":-0.024798519909381866,"358":0.1520819067955017,"359":-0.0073541756719350815,"360":-0.17658686637878418,"361":0.09041282534599304,"362":-0.2526575028896332,"363":-0.10218462347984314,"364":0.25152599811553955,"365":-0.44071444869041443,"366":-0.04473470151424408,"367":0.3522578179836273,"368":-0.055843550711870193,"369":0.33328479528427124,"370":0.43976113200187683,"371":0.4335598945617676,"372":0.256177693605423,"373":-0.08087269216775894,"374":0.29764384031295776,"375":-0.40655821561813354,"376":-0.29666730761528015,"377":0.23795156180858612,"378":0.24006512761116028,"379":0.25997939705848694,"380":0.02269802615046501,"381":0.011899950914084911,"382":0.08606905490159988,"383":0.2564106285572052,"384":0.0024221099447458982,"385":0.11184104532003403,"386":0.1180146113038063,"387":-0.11990459263324738,"388":0.024311767891049385,"389":0.07431479543447495,"390":-0.09762046486139297,"391":-0.1452466994524002,"392":0.02605361118912697,"393":0.13302665948867798,"394":-0.11728869378566742,"395":0.09345827251672745,"396":0.11475302278995514,"397":-0.04216378927230835,"398":0.045497648417949677,"399":-0.10939408093690872}},"forgetBias":{"rows":20,"columns":1,"weights":{"0":0,"1":0,"2":0,"3":0,"4":0,"5":0,"6":0,"7":0,"8":0,"9":0,"10":0,"11":0,"12":0,"13":0,"14":0,"15":0,"16":0,"17":0,"18":0,"19":0}},"outputMatrix":{"rows":20,"columns":1,"weights":{"0":0.37509235739707947,"1":0.3009834587574005,"2":0.09686044603586197,"3":0.636516273021698,"4":0.17369194328784943,"5":-0.5934507250785828,"6":0.6417917609214783,"7":0.2957356870174408,"8":0.27852076292037964,"9":0.5000373125076294,"10":0.1450107991695404,"11":0.15339712798595428,"12":0.3290950059890747,"13":0.6041346788406372,"14":0.3981221318244934,"15":0.19735366106033325,"16":0.22511368989944458,"17":0.09785234183073044,"18":2.0075912475585938,"19":0.1993636190891266}},"outputHidden":{"rows":20,"columns":20,"weights":{"0":-0.02272266522049904,"1":0.05221955105662346,"2":-0.05491452291607857,"3":0.6317075490951538,"4":0.025529121980071068,"5":0.3921760320663452,"6":-0.03752334415912628,"7":-0.10680236667394638,"8":-0.1156400591135025,"9":-0.0051280236802995205,"10":-0.03104591742157936,"11":-0.16511231660842896,"12":0.010378330945968628,"13":0.6280426979064941,"14":-0.17198988795280457,"15":0.15275026857852936,"16":-0.02309703268110752,"17":-0.012455028481781483,"18":0.4523250162601471,"19":0.016264840960502625,"20":-0.034475941210985184,"21":0.10021863877773285,"22":-0.019427834078669548,"23":0.3008153736591339,"24":-0.036364179104566574,"25":0.18767647445201874,"26":-0.00017648014181759208,"27":-0.10585484653711319,"28":-0.011961576528847218,"29":0.05322975292801857,"30":-0.019774403423070908,"31":-0.08815999329090118,"32":-0.02200421504676342,"33":0.3517765700817108,"34":-0.0018327671568840742,"35":0.037588778883218765,"36":0.007359562441706657,"37":-0.0864957869052887,"38":0.2779541015625,"39":-0.04759418964385986,"40":0.3324607014656067,"41":-0.11977783590555191,"42":0.36592936515808105,"43":0.8012844324111938,"44":-0.45531314611434937,"45":0.863560676574707,"46":0.4546220600605011,"47":-0.42761221528053284,"48":0.22593015432357788,"49":-0.22268176078796387,"50":-0.5998018980026245,"51":-0.720245361328125,"52":-0.3322799503803253,"53":0.9402631521224976,"54":-0.5267717838287354,"55":0.5294768810272217,"56":0.4039195775985718,"57":-0.47702354192733765,"58":0.36879077553749084,"59":-0.47778818011283875,"60":0.24571417272090912,"61":0.10408065468072891,"62":0.1151551827788353,"63":1.2286036014556885,"64":-0.43739789724349976,"65":0.7829002141952515,"66":0.7486758828163147,"67":-0.6561371088027954,"68":0.382368266582489,"69":0.15742379426956177,"70":-0.5958057045936584,"71":-0.7169772386550903,"72":-0.08075679838657379,"73":1.1574831008911133,"74":-0.7471871376037598,"75":0.7778059840202332,"76":0.4624805450439453,"77":-0.5429239869117737,"78":0.9655318856239319,"79":-0.2240300476551056,"80":0.2527761459350586,"81":-0.06614980846643448,"82":0.2762405574321747,"83":0.7752261757850647,"84":-0.3244488537311554,"85":0.7767663598060608,"86":0.2342919409275055,"87":-0.297803670167923,"88":0.16238340735435486,"89":-0.04313034564256668,"90":-0.44712337851524353,"91":-0.4756840169429779,"92":-0.06802535802125931,"93":0.8665580749511719,"94":-0.4349701404571533,"95":0.3602028489112854,"96":0.29674994945526123,"97":-0.4160556495189667,"98":0.588572084903717,"99":-0.21882300078868866,"100":0.7112975716590881,"101":-0.40963125228881836,"102":0.6199806332588196,"103":0.9940303564071655,"104":-0.7827131748199463,"105":1.076497197151184,"106":0.7834144234657288,"107":-0.8658093214035034,"108":0.6045407652854919,"109":0.11913592368364334,"110":-0.9444032907485962,"111":-1.0848650932312012,"112":-0.5592392683029175,"113":1.0260472297668457,"114":-0.99639892578125,"115":1.0547599792480469,"116":0.7437612414360046,"117":-0.8550927639007568,"118":0.29432371258735657,"119":-0.815922737121582,"120":-0.2083505541086197,"121":0.2829013764858246,"122":-0.36525699496269226,"123":0.5643978714942932,"124":0.3671410083770752,"125":-0.45315301418304443,"126":-0.00632755272090435,"127":0.32166555523872375,"128":-0.10205161571502686,"129":0.30189719796180725,"130":0.41141074895858765,"131":0.26859524846076965,"132":0.30447810888290405,"133":0.5270700454711914,"134":0.14690689742565155,"135":-0.2972409427165985,"136":-0.1601068675518036,"137":0.3659885823726654,"138":0.7499712109565735,"139":0.42166557908058167,"140":0.16352106630802155,"141":0.08933722972869873,"142":0.10134519636631012,"143":0.916883647441864,"144":-0.22677752375602722,"145":0.7408391833305359,"146":0.23747988045215607,"147":-0.32009613513946533,"148":0.1707642674446106,"149":0.0003514779673423618,"150":-0.30660179257392883,"151":-0.46615397930145264,"152":-0.037710726261138916,"153":0.866163969039917,"154":-0.40546488761901855,"155":0.42314204573631287,"156":0.17863579094409943,"157":-0.22147363424301147,"158":0.6671006679534912,"159":-0.1176929920911789,"160":-0.17637565732002258,"161":0.04702235385775566,"162":-0.060712121427059174,"163":-0.01898500882089138,"164":0.1789504438638687,"165":-0.12931318581104279,"166":-0.17309607565402985,"167":0.17215676605701447,"168":-0.04042598977684975,"169":0.025090202689170837,"170":0.20095330476760864,"171":0.22393658757209778,"172":0.09289886802434921,"173":0.06514544039964676,"174":0.13062013685703278,"175":-0.12728872895240784,"176":-0.18166492879390717,"177":0.08855963498353958,"178":0.08981085568666458,"179":0.15996389091014862,"180":0.1313115805387497,"181":-0.11031319946050644,"182":0.16132402420043945,"183":0.508999228477478,"184":-0.23497162759304047,"185":0.4523935616016388,"186":0.2957298755645752,"187":-0.40256452560424805,"188":0.10279573500156403,"189":-0.1473599225282669,"190":-0.3956725597381592,"191":-0.46192988753318787,"192":-0.10110945999622345,"193":0.5483627915382385,"194":-0.45915770530700684,"195":0.42181187868118286,"196":0.31818053126335144,"197":-0.2555331289768219,"198":0.6485707759857178,"199":-0.2630871534347534,"200":0.37049955129623413,"201":-0.16173002123832703,"202":0.31831443309783936,"203":0.9668963551521301,"204":-0.5125337243080139,"205":0.8378284573554993,"206":0.36323416233062744,"207":-0.5004683136940002,"208":0.15996979176998138,"209":-0.08033322542905807,"210":-0.5711706876754761,"211":-0.5886523127555847,"212":-0.24064034223556519,"213":0.9878700375556946,"214":-0.6272734999656677,"215":0.6161062717437744,"216":0.31870555877685547,"217":-0.5276970267295837,"218":0.5769137144088745,"219":-0.36150118708610535,"220":0.23717409372329712,"221":0.09828789532184601,"222":0.13283123075962067,"223":1.068822979927063,"224":-0.3911812901496887,"225":0.7946984767913818,"226":0.49145498871803284,"227":-0.41201120615005493,"228":0.23755234479904175,"229":0.10439130663871765,"230":-0.4025923013687134,"231":-0.6122158169746399,"232":-0.15659143030643463,"233":0.9887614250183105,"234":-0.5776857733726501,"235":0.49943044781684875,"236":0.36303508281707764,"237":-0.31511563062667847,"238":0.7071067094802856,"239":-0.237920880317688,"240":0.0883978083729744,"241":0.012476596049964428,"242":0.08868980407714844,"243":0.6521093249320984,"244":-0.12069373577833176,"245":0.5285367965698242,"246":0.13862432539463043,"247":-0.12163899093866348,"248":0.007924383506178856,"249":-0.09689977765083313,"250":-0.22431743144989014,"251":-0.21216338872909546,"252":-0.07570971548557281,"253":0.6423941254615784,"254":-0.292959988117218,"255":0.2252487987279892,"256":0.185896098613739,"257":-0.1567160189151764,"258":0.38576701283454895,"259":-0.19131776690483093,"260":0.15707121789455414,"261":0.2447584718465805,"262":0.04101408272981644,"263":1.2041188478469849,"264":-0.32743826508522034,"265":0.6060101389884949,"266":0.7449902296066284,"267":-0.5375846028327942,"268":0.3345962166786194,"269":0.21476811170578003,"270":-0.3790036737918854,"271":-0.6210466623306274,"272":-0.06837663799524307,"273":1.2777373790740967,"274":-0.6456182599067688,"275":0.6102486848831177,"276":0.3749113976955414,"277":-0.3437231183052063,"278":1.0945556163787842,"279":-0.1117958351969719,"280":0.009357694536447525,"281":0.11556365340948105,"282":-0.14830097556114197,"283":0.9490305781364441,"284":-0.08298890292644501,"285":0.5282523036003113,"286":0.2734176218509674,"287":-0.26403430104255676,"288":0.02565220184624195,"289":0.13658185303211212,"290":-0.2078525573015213,"291":-0.3220399022102356,"292":0.10045453906059265,"293":0.8487549424171448,"294":-0.26730987429618835,"295":0.3073868155479431,"296":0.15083098411560059,"297":-0.10732001066207886,"298":0.942936360836029,"299":0.034930918365716934,"300":0.14783954620361328,"301":0.1518469899892807,"302":0.0551689937710762,"303":0.9599050879478455,"304":-0.1394500881433487,"305":0.716991662979126,"306":0.292120099067688,"307":-0.3138594627380371,"308":0.09182173013687134,"309":0.17017048597335815,"310":-0.30509278178215027,"311":-0.41754987835884094,"312":0.06932935118675232,"313":0.9792740941047668,"314":-0.38311511278152466,"315":0.29884815216064453,"316":0.14947018027305603,"317":-0.18004454672336578,"318":0.7988166213035583,"319":-0.12531745433807373,"320":0.008611997589468956,"321":0.03832270950078964,"322":0.010844063945114613,"323":0.5253835916519165,"324":-0.024537425488233566,"325":0.39227741956710815,"326":0.09523848444223404,"327":-0.05969183146953583,"328":0.0075873518362641335,"329":0.023893063887953758,"330":-0.156243234872818,"331":-0.25718000531196594,"332":0.04430343210697174,"333":0.6336274743080139,"334":-0.29031068086624146,"335":0.2158663421869278,"336":0.03958382457494736,"337":-0.127475306391716,"338":0.46558600664138794,"339":-0.11174733191728592,"340":0.30794399976730347,"341":-0.11930229514837265,"342":0.27017471194267273,"343":0.9475318193435669,"344":-0.3878149688243866,"345":0.9279633164405823,"346":0.2900483310222626,"347":-0.5009704232215881,"348":0.1340143084526062,"349":-0.04509419575333595,"350":-0.4840105175971985,"351":-0.6205731630325317,"352":-0.19635838270187378,"353":1.0131843090057373,"354":-0.5426270365715027,"355":0.45047494769096375,"356":0.4033477306365967,"357":-0.4184706509113312,"358":0.5014477968215942,"359":-0.3702404201030731,"360":0.21527795493602753,"361":0.05185157433152199,"362":0.08448957651853561,"363":1.3896034955978394,"364":-0.44999173283576965,"365":0.6547155976295471,"366":0.9755516052246094,"367":-0.4888494610786438,"368":0.23049315810203552,"369":0.3790930211544037,"370":-0.5248093605041504,"371":-0.6641327738761902,"372":-0.09090982377529144,"373":1.3946589231491089,"374":-0.8670397400856018,"375":0.7930354475975037,"376":0.49659398198127747,"377":-0.4317026436328888,"378":1.732839584350586,"379":-0.27476099133491516,"380":0.23577117919921875,"381":-0.024073302745819092,"382":0.30144599080085754,"383":0.8685842156410217,"384":-0.272114634513855,"385":0.6771093606948853,"386":0.34893012046813965,"387":-0.38521677255630493,"388":0.1258334517478943,"389":-0.08678001165390015,"390":-0.38439756631851196,"391":-0.4910518527030945,"392":-0.165598064661026,"393":0.752041757106781,"394":-0.46855810284614563,"395":0.4506762623786926,"396":0.22382375597953796,"397":-0.4104023873806,"398":0.4436585307121277,"399":-0.21732842922210693}},"outputBias":{"rows":20,"columns":1,"weights":{"0":-0.5779399871826172,"1":-0.4208085834980011,"2":-0.6579007506370544,"3":0.5604450106620789,"4":-0.6137840151786804,"5":-0.4393687844276428,"6":-0.1913377046585083,"7":-0.5318596363067627,"8":-0.589891254901886,"9":-0.4660439193248749,"10":-0.6014294028282166,"11":-0.4372637867927551,"12":-0.6039991974830627,"13":0.556871771812439,"14":-0.3558351993560791,"15":-0.3971571922302246,"16":-0.5705388188362122,"17":-0.6296787858009338,"18":1.6363393068313599,"19":-0.645362138748169}},"cellActivationMatrix":{"rows":20,"columns":1,"weights":{"0":0.10584115236997604,"1":0.14180706441402435,"2":-0.2327481061220169,"3":0.8318480849266052,"4":-0.08700559288263321,"5":-0.6592654585838318,"6":0.6513722538948059,"7":-0.21733970940113068,"8":0.22306521236896515,"9":0.17699852585792542,"10":0.12950453162193298,"11":-0.08062000572681427,"12":0.056692421436309814,"13":0.8096796274185181,"14":-0.3628305196762085,"15":0.21335938572883606,"16":0.25611811876296997,"17":-0.010342937894165516,"18":1.194854974746704,"19":0.1726766973733902}},"cellActivationHidden":{"rows":20,"columns":20,"weights":{"0":0.1442728489637375,"1":0.0808851420879364,"2":0.00014660003944300115,"3":0.7113755345344543,"4":-0.141450434923172,"5":0.47069624066352844,"6":0.500030517578125,"7":-0.2583598494529724,"8":0.14944729208946228,"9":0.155765101313591,"10":-0.39009523391723633,"11":-0.46256187558174133,"12":-0.02464527264237404,"13":0.7849223613739014,"14":-0.5598967671394348,"15":0.4478904604911804,"16":0.24806565046310425,"17":-0.267984539270401,"18":0.3567466139793396,"19":-0.13512928783893585,"20":-0.16908764839172363,"21":0.1180914118885994,"22":-0.15960919857025146,"23":-0.5056891441345215,"24":0.3787030279636383,"25":-0.535851776599884,"26":-0.23976042866706848,"27":0.2895902991294861,"28":-0.21681906282901764,"29":-0.02737199142575264,"30":0.4037668704986572,"31":0.5464162826538086,"32":0.12781327962875366,"33":-0.46339067816734314,"34":0.4576368033885956,"35":-0.4852827787399292,"36":-0.31873515248298645,"37":0.2712179124355316,"38":0.3139231204986572,"39":0.20371682941913605,"40":0.4454428553581238,"41":-0.2648600935935974,"42":0.38952434062957764,"43":0.6723714470863342,"44":-0.5622586607933044,"45":0.7402888536453247,"46":0.626166045665741,"47":-0.7298429012298584,"48":0.34681737422943115,"49":0.05668884143233299,"50":-0.8720643520355225,"51":-0.8880040645599365,"52":-0.35196471214294434,"53":0.7812703251838684,"54":-0.8580334186553955,"55":0.878878653049469,"56":0.5600364208221436,"57":-0.6013090014457703,"58":-0.2333449274301529,"59":-0.5141967535018921,"60":0.17272433638572693,"61":0.11315254867076874,"62":-0.13730879127979279,"63":0.9644718170166016,"64":-0.16791196167469025,"65":0.4596176743507385,"66":0.5854096412658691,"67":-0.31133604049682617,"68":0.27193665504455566,"69":0.34715908765792847,"70":-0.060515593737363815,"71":-0.3884546160697937,"72":0.07627886533737183,"73":0.9758081436157227,"74":-0.5189134478569031,"75":0.4103558659553528,"76":0.3732938766479492,"77":-0.1727764755487442,"78":0.7055362462997437,"79":-0.012716405093669891,"80":-0.25191810727119446,"81":0.02135656401515007,"82":-0.10021553933620453,"83":-0.8229294419288635,"84":0.4179554879665375,"85":-0.7377051115036011,"86":-0.7031903266906738,"87":0.46833524107933044,"88":-0.23291897773742676,"89":-0.24308860301971436,"90":0.5454388856887817,"91":0.7886783480644226,"92":0.1225082203745842,"93":-0.9895399808883667,"94":0.7507479190826416,"95":-0.663049042224884,"96":-0.46595850586891174,"97":0.4292231500148773,"98":-0.29768040776252747,"99":0.21489495038986206,"100":0.4388017952442169,"101":0.015515641309320927,"102":0.341583251953125,"103":1.0658655166625977,"104":-0.6215617656707764,"105":0.9350170493125916,"106":1.0734881162643433,"107":-0.9500294923782349,"108":0.5256050825119019,"109":0.511326253414154,"110":-0.9496433138847351,"111":-1.1577181816101074,"112":-0.1874687820672989,"113":1.0585070848464966,"114":-1.1556905508041382,"115":1.1384915113449097,"116":0.9040340781211853,"117":-0.7405114769935608,"118":0.2917887270450592,"119":-0.45696771144866943,"120":-0.40752628445625305,"121":0.574774444103241,"122":-0.7111634016036987,"123":0.5659283399581909,"124":0.5924012660980225,"125":-0.40660348534584045,"126":0.016749491915106773,"127":0.5219588875770569,"128":-0.23422110080718994,"129":0.6764092445373535,"130":0.6155972480773926,"131":0.4100527763366699,"132":0.5739272236824036,"133":0.6205959320068359,"134":0.19344642758369446,"135":-0.3572297692298889,"136":-0.3490201234817505,"137":0.5853440165519714,"138":0.8229888677597046,"139":0.6908219456672668,"140":-0.14120705425739288,"141":-0.06711148470640182,"142":-0.09151843935251236,"143":-0.9552205801010132,"144":0.3576558232307434,"145":-0.6259820461273193,"146":-0.6124876737594604,"147":0.4567796587944031,"148":-0.21913576126098633,"149":-0.2986285090446472,"150":0.39998769760131836,"151":0.6717055439949036,"152":0.04779434949159622,"153":-0.9588162302970886,"154":0.6915987133979797,"155":-0.6638405323028564,"156":-0.420135498046875,"157":0.35544994473457336,"158":-0.4342765808105469,"159":0.16342270374298096,"160":-0.07467235624790192,"161":0.15829060971736908,"162":-0.106708824634552,"163":0.665978193283081,"164":-0.040227293968200684,"165":0.4293875992298126,"166":0.2676050364971161,"167":-0.14907079935073853,"168":0.0316983200609684,"169":0.2455163300037384,"170":-0.1461147516965866,"171":-0.24267086386680603,"172":0.1386270821094513,"173":0.6641088128089905,"174":-0.321736216545105,"175":0.32751286029815674,"176":0.06467191874980927,"177":-0.07800835371017456,"178":0.3725684881210327,"179":0.003961860667914152,"180":-0.30986472964286804,"181":0.18242917954921722,"182":-0.26665380597114563,"183":-0.3575266897678375,"184":0.48041343688964844,"185":-0.6528490781784058,"186":-0.4472237825393677,"187":0.5046409964561462,"188":-0.2940521836280823,"189":-0.1795729547739029,"190":0.5672466158866882,"191":0.5242809653282166,"192":0.23677341639995575,"193":-0.4037003219127655,"194":0.48839083313941956,"195":-0.6009925603866577,"196":-0.3503052294254303,"197":0.4869544804096222,"198":-0.04355825483798981,"199":0.3354601562023163,"200":-0.269880086183548,"201":-0.024840323254466057,"202":-0.18829208612442017,"203":-1.0069477558135986,"204":0.42752495408058167,"205":-0.7017840147018433,"206":-0.7153799533843994,"207":0.6988577842712402,"208":-0.3491848111152649,"209":-0.3320140242576599,"210":0.7229292392730713,"211":0.8496740460395813,"212":0.13583524525165558,"213":-1.0277901887893677,"214":0.796162486076355,"215":-0.8682248592376709,"216":-0.590721070766449,"217":0.4239942133426666,"218":-0.3139615058898926,"219":0.29403769969940186,"220":-0.263925164937973,"221":-0.0780973955988884,"222":-0.13940049707889557,"223":-0.9994322657585144,"224":0.3883625566959381,"225":-0.6324673295021057,"226":-0.849096953868866,"227":0.5419933795928955,"228":-0.35962072014808655,"229":-0.2716991901397705,"230":0.4710507094860077,"231":0.7556498646736145,"232":0.02758333832025528,"233":-1.0312011241912842,"234":0.8590626120567322,"235":-0.7715165615081787,"236":-0.41738271713256836,"237":0.323623389005661,"238":-0.5272205471992493,"239":0.14945688843727112,"240":-0.28469419479370117,"241":0.011600649915635586,"242":-0.23777824640274048,"243":-0.616875171661377,"244":0.3096616864204407,"245":-0.5904889702796936,"246":-0.47568097710609436,"247":0.4452972114086151,"248":-0.15126433968544006,"249":-0.1992538869380951,"250":0.5667111277580261,"251":0.5926768779754639,"252":0.02910582907497883,"253":-0.6842919588088989,"254":0.5803186297416687,"255":-0.6169097423553467,"256":-0.35411712527275085,"257":0.4174558222293854,"258":-0.034541841596364975,"259":0.2807654142379761,"260":-0.06709907203912735,"261":0.20665057003498077,"262":-0.20095831155776978,"263":1.0515111684799194,"264":-0.08866894245147705,"265":0.3333502411842346,"266":0.5869561433792114,"267":-0.1739019900560379,"268":0.09595903754234314,"269":0.45714592933654785,"270":0.030394719913601875,"271":-0.09664216637611389,"272":0.0327768512070179,"273":1.0160881280899048,"274":-0.26988455653190613,"275":0.21780440211296082,"276":0.20505253970623016,"277":-0.05981949344277382,"278":0.8317499160766602,"279":0.09054785221815109,"280":0.02156512811779976,"281":-0.2677018344402313,"282":0.225539430975914,"283":-0.9745966792106628,"284":0.04892967641353607,"285":-0.4726421535015106,"286":-0.6583747863769531,"287":0.3028166890144348,"288":-0.19711782038211823,"289":-0.39884045720100403,"290":0.17452973127365112,"291":0.4929618835449219,"292":-0.2206587940454483,"293":-1.1357377767562866,"294":0.600924551486969,"295":-0.5094117522239685,"296":-0.30031079053878784,"297":0.0652536004781723,"298":-0.70638108253479,"299":-0.08922398090362549,"300":0.0699591413140297,"301":0.23125331103801727,"302":-0.06363087892532349,"303":1.107142448425293,"304":-0.21414293348789215,"305":0.5083174109458923,"306":0.6691678762435913,"307":-0.34685853123664856,"308":0.19899848103523254,"309":0.3831694424152374,"310":-0.26290735602378845,"311":-0.5853407382965088,"312":0.04594516009092331,"313":1.0481173992156982,"314":-0.5911481976509094,"315":0.542419970035553,"316":0.3685850501060486,"317":-0.20100238919258118,"318":0.5442480444908142,"319":0.002826373791322112,"320":0.15713387727737427,"321":0.131591334939003,"322":-0.012705016881227493,"323":0.8582327365875244,"324":-0.20609617233276367,"325":0.5122801661491394,"326":0.5434343814849854,"327":-0.3219239115715027,"328":0.08606838434934616,"329":0.3347412347793579,"330":-0.26070907711982727,"331":-0.4988243877887726,"332":0.113095723092556,"333":0.9642481207847595,"334":-0.5814862251281738,"335":0.48882314562797546,"336":0.242706298828125,"337":-0.1502329260110855,"338":0.4684075713157654,"339":-0.052490949630737305,"340":-0.3078901469707489,"341":-0.047460660338401794,"342":-0.16875579953193665,"343":-0.8712907433509827,"344":0.513952910900116,"345":-0.8156114816665649,"346":-0.6289018392562866,"347":0.620768129825592,"348":-0.2845355272293091,"349":-0.17340077459812164,"350":0.5750711560249329,"351":0.8857591152191162,"352":0.1566157042980194,"353":-0.9846042394638062,"354":0.7896663546562195,"355":-0.8203370571136475,"356":-0.5248178839683533,"357":0.4410425126552582,"358":-0.1803353726863861,"359":0.3312321901321411,"360":-0.9655263423919678,"361":0.8695662617683411,"362":-1.2520641088485718,"363":-0.26193416118621826,"364":1.2498142719268799,"365":-1.2470521926879883,"366":-0.16369213163852692,"367":1.02134108543396,"368":-0.5428637266159058,"369":0.5667664408683777,"370":1.455539584159851,"371":1.1074514389038086,"372":1.0871706008911133,"373":-0.3044023811817169,"374":0.776569664478302,"375":-0.948822021484375,"376":-0.8697577714920044,"377":1.233142375946045,"378":1.018872618675232,"379":1.2665358781814575,"380":-0.4038374125957489,"381":0.015264566987752914,"382":-0.18999086320400238,"383":-0.8037044405937195,"384":0.521225094795227,"385":-0.655901312828064,"386":-0.6228768229484558,"387":0.5785600543022156,"388":-0.25597068667411804,"389":-0.27187037467956543,"390":0.586542010307312,"391":0.829761266708374,"392":0.1966037154197693,"393":-0.8528627157211304,"394":0.6764662861824036,"395":-0.7800382375717163,"396":-0.5135636925697327,"397":0.42146313190460205,"398":-0.11308052390813828,"399":0.22534078359603882}},"cellActivationBias":{"rows":20,"columns":1,"weights":{"0":-0.018067466095089912,"1":0.27761051058769226,"2":-0.11268287152051926,"3":0.9541498422622681,"4":0.00030765830888412893,"5":0.21437989175319672,"6":0.3508220613002777,"7":-0.11298179626464844,"8":-0.04648812487721443,"9":0.0828302726149559,"10":-0.05659705772995949,"11":-0.20930184423923492,"12":0.12728720903396606,"13":0.9756529927253723,"14":-0.24622265994548798,"15":0.22627584636211395,"16":0.06267010420560837,"17":-0.022274762392044067,"18":1.1180380582809448,"19":0.06924610584974289}}},{"inputMatrix":{"rows":20,"columns":20,"weights":{"0":-0.3643173277378082,"1":0.3568478524684906,"2":-0.2790601849555969,"3":0.38805463910102844,"4":0.20812995731830597,"5":0.2221033275127411,"6":-0.29657480120658875,"7":0.2248396873474121,"8":-0.2596665024757385,"9":-0.03168123587965965,"10":0.31593698263168335,"11":0.27398449182510376,"12":0.30757811665534973,"13":0.40161624550819397,"14":0.2142021507024765,"15":-0.3050428330898285,"16":-0.2528797686100006,"17":0.26148322224617004,"18":0.41440388560295105,"19":0.23882436752319336,"20":-0.2537119388580322,"21":0.37034687399864197,"22":-0.3795258700847626,"23":0.19178053736686707,"24":0.2955300807952881,"25":-0.04693879187107086,"26":-0.3075365126132965,"27":0.3265348970890045,"28":-0.2508062422275543,"29":0.0499650277197361,"30":0.3021485209465027,"31":0.39544257521629333,"32":0.33149734139442444,"33":0.25563573837280273,"34":0.3339596390724182,"35":-0.27005496621131897,"36":-0.3070244789123535,"37":0.3282913863658905,"38":0.4417656362056732,"39":0.35353344678878784,"40":0.16284868121147156,"41":-0.07027576863765717,"42":0.3883928954601288,"43":0.7855119705200195,"44":-0.329560250043869,"45":0.750487208366394,"46":-0.1347324103116989,"47":-0.3199675679206848,"48":-0.03133024647831917,"49":-0.3051864206790924,"50":-0.38251227140426636,"51":-0.29650619626045227,"52":-0.33567196130752563,"53":0.6590996384620667,"54":-0.25469836592674255,"55":0.30115434527397156,"56":0.28692492842674255,"57":-0.46322116255760193,"58":-0.5145668387413025,"59":-0.2754189968109131,"60":0.33302879333496094,"61":-0.36895135045051575,"62":0.6158720850944519,"63":0.48843222856521606,"64":-0.526038408279419,"65":0.6663089394569397,"66":0.00623321020975709,"67":-0.45974528789520264,"68":0.2196967899799347,"69":-0.582527756690979,"70":-0.4791896939277649,"71":-0.5082599520683289,"72":-0.41755372285842896,"73":0.4940933585166931,"74":-0.29113057255744934,"75":0.3575671911239624,"76":0.3797455430030823,"77":-0.5627366304397583,"78":-0.4262559115886688,"79":-0.4889044165611267,"80":0.4428623616695404,"81":-0.31880107522010803,"82":0.6844496130943298,"83":0.4707977771759033,"84":-0.5739767551422119,"85":0.6671503186225891,"86":0.11227992922067642,"87":-0.43266698718070984,"88":0.3301648199558258,"89":-0.4328264892101288,"90":-0.6032381653785706,"91":-0.4978330135345459,"92":-0.38548704981803894,"93":0.4507402181625366,"94":-0.34658071398735046,"95":0.4749234616756439,"96":0.43518978357315063,"97":-0.6336320638656616,"98":-0.5871805548667908,"99":-0.5147393941879272,"100":-0.00860377587378025,"101":0.013822569511830807,"102":0.14141975343227386,"103":0.566289484500885,"104":-0.010519963689148426,"105":0.4839572310447693,"106":-0.1307445913553238,"107":-0.03527139499783516,"108":-0.18328838050365448,"109":-0.31820547580718994,"110":-0.14677855372428894,"111":-0.09003396332263947,"112":-0.03183017671108246,"113":0.5009428858757019,"114":-0.046526096761226654,"115":-0.002435436937958002,"116":-0.0842975527048111,"117":-0.09904824942350388,"118":-0.2691006362438202,"119":0.015583821572363377,"120":-0.2135397344827652,"121":0.33921194076538086,"122":-0.19723616540431976,"123":0.47895726561546326,"124":0.23808559775352478,"125":0.2908211946487427,"126":-0.2582329511642456,"127":0.28372347354888916,"128":-0.27287760376930237,"129":0.04973859712481499,"130":0.24438609182834625,"131":0.2045346349477768,"132":0.3150568902492523,"133":0.42287081480026245,"134":0.19132958352565765,"135":-0.2563495934009552,"136":-0.251401424407959,"137":0.15981297194957733,"138":0.23041540384292603,"139":0.300536185503006,"140":-0.005532478913664818,"141":0.07015136629343033,"142":0.1672326624393463,"143":0.618502676486969,"144":-0.04611656069755554,"145":0.5363169312477112,"146":-0.10996704548597336,"147":-0.17362985014915466,"148":-0.1338059902191162,"149":-0.35317814350128174,"150":-0.07507709413766861,"151":-0.10320989787578583,"152":-0.09623219817876816,"153":0.5660216808319092,"154":-0.06690166890621185,"155":0.12670806050300598,"156":0.0389067567884922,"157":-0.1060602217912674,"158":0.04751663655042648,"159":0.008659114129841328,"160":-0.2398087978363037,"161":0.32770025730133057,"162":-0.4384384751319885,"163":0.654573917388916,"164":0.3708798587322235,"165":-0.013180872425436974,"166":-0.12191028147935867,"167":0.287750780582428,"168":-0.32479551434516907,"169":0.2103467881679535,"170":0.34785401821136475,"171":0.2437099665403366,"172":0.330288290977478,"173":0.5939375758171082,"174":0.14270111918449402,"175":-0.2655661702156067,"176":-0.25599318742752075,"177":0.3682575821876526,"178":1.3907802104949951,"179":0.43172985315322876,"180":-0.3297145366668701,"181":0.3083288073539734,"182":-0.30077823996543884,"183":0.1249702051281929,"184":0.309244304895401,"185":-0.15995916724205017,"186":-0.24239575862884521,"187":0.2924099266529083,"188":-0.35354307293891907,"189":0.07732536643743515,"190":0.32904109358787537,"191":0.3902754485607147,"192":0.23461869359016418,"193":0.15574119985103607,"194":0.326946884393692,"195":-0.3364475667476654,"196":-0.34371352195739746,"197":0.4119972884654999,"198":0.46983882784843445,"199":0.38211581110954285,"200":-0.04385095834732056,"201":0.07464385032653809,"202":0.05201255530118942,"203":0.5811139345169067,"204":0.04295521602034569,"205":0.3963906764984131,"206":-0.23929068446159363,"207":0.003941940143704414,"208":-0.1492525190114975,"209":-0.3668256103992462,"210":0.01969662494957447,"211":-0.05974574014544487,"212":0.055368684232234955,"213":0.5634751319885254,"214":-0.035334374755620956,"215":0.08315252512693405,"216":-0.08827763795852661,"217":-0.0832236260175705,"218":0.016451606526970863,"219":-0.03576511889696121,"220":-0.27104443311691284,"221":0.2945055663585663,"222":-0.41565069556236267,"223":0.009980915114283562,"224":0.36918941140174866,"225":-0.2437998652458191,"226":-0.4184136390686035,"227":0.32908734679222107,"228":-0.3418152928352356,"229":0.06431453675031662,"230":0.39555880427360535,"231":0.30673399567604065,"232":0.38907042145729065,"233":0.1558970957994461,"234":0.33932605385780334,"235":-0.2717292010784149,"236":-0.4009246528148651,"237":0.3898133933544159,"238":0.1724621057510376,"239":0.38062092661857605,"240":-0.064676932990551,"241":0.29378968477249146,"242":-0.12119419872760773,"243":0.9898709654808044,"244":0.04003095626831055,"245":0.27791115641593933,"246":0.6504941582679749,"247":-0.09310042858123779,"248":-0.06882498413324356,"249":-0.1792798787355423,"250":0.009634874761104584,"251":-0.12280680984258652,"252":0.17424149811267853,"253":1.1188122034072876,"254":-0.2577895224094391,"255":0.13233759999275208,"256":0.1094886064529419,"257":0.057579949498176575,"258":2.1874582767486572,"259":0.05768730118870735,"260":0.23321829736232758,"261":-0.06328631937503815,"262":0.3311980366706848,"263":0.9780813455581665,"264":-0.48730841279029846,"265":0.792660653591156,"266":0.43884730339050293,"267":-0.48969629406929016,"268":0.17472641170024872,"269":-0.18177442252635956,"270":-0.45128142833709717,"271":-0.5476846098899841,"272":-0.26032665371894836,"273":0.8704484105110168,"274":-0.46804893016815186,"275":0.5062652230262756,"276":0.4114435613155365,"277":-0.5356277227401733,"278":1.5786843299865723,"279":-0.4199374318122864,"280":0.29886674880981445,"281":-0.0030888132750988007,"282":0.5349696278572083,"283":1.0399683713912964,"284":-0.41405707597732544,"285":0.2648618817329407,"286":0.45557165145874023,"287":-0.5099108815193176,"288":0.0864747166633606,"289":0.08020954579114914,"290":-0.5839067697525024,"291":-0.593776524066925,"292":-0.22344914078712463,"293":0.9103479981422424,"294":-0.5013527870178223,"295":0.5180613994598389,"296":0.2404521107673645,"297":-0.5643572807312012,"298":1.0205800533294678,"299":-0.3581756353378296,"300":0.1536806970834732,"301":0.09182856976985931,"302":0.2729121744632721,"303":0.906569242477417,"304":-0.2063235640525818,"305":0.7409272789955139,"306":0.09727557003498077,"307":-0.26156744360923767,"308":-0.06977178901433945,"309":-0.22683241963386536,"310":-0.2934689223766327,"311":-0.2777245044708252,"312":-0.1337280571460724,"313":0.802495002746582,"314":-0.2599135935306549,"315":0.30056798458099365,"316":0.18651419878005981,"317":-0.24910619854927063,"318":0.8561139702796936,"319":-0.24801895022392273,"320":-0.2763572931289673,"321":0.40128353238105774,"322":-0.41450369358062744,"323":0.4711121618747711,"324":0.27355852723121643,"325":-0.0005865260027348995,"326":-0.12552320957183838,"327":0.20258888602256775,"328":-0.2336455136537552,"329":-0.002582070417702198,"330":0.3317384123802185,"331":0.2810443341732025,"332":0.38765835762023926,"333":0.4373944401741028,"334":0.27505117654800415,"335":-0.19740939140319824,"336":-0.29048848152160645,"337":0.25628137588500977,"338":1.0840190649032593,"339":0.32177042961120605,"340":0.3081150949001312,"341":0.0526183657348156,"342":0.40771546959877014,"343":1.140878677368164,"344":-0.35531798005104065,"345":0.8445841670036316,"346":0.5956818461418152,"347":-0.4924258291721344,"348":0.09307833015918732,"349":-0.16360147297382355,"350":-0.4066244065761566,"351":-0.5165526270866394,"352":-0.26645320653915405,"353":0.977838397026062,"354":-0.46055933833122253,"355":0.4526105225086212,"356":0.3627341091632843,"357":-0.505761981010437,"358":2.0220470428466797,"359":-0.3630925118923187,"360":-0.25726625323295593,"361":0.3517957329750061,"362":-0.3911820650100708,"363":0.23328009247779846,"364":0.35869646072387695,"365":-0.18140928447246552,"366":-0.24879884719848633,"367":0.24153496325016022,"368":-0.3218945264816284,"369":0.22700358927249908,"370":0.30214637517929077,"371":0.2406987100839615,"372":0.32442519068717957,"373":0.2301570475101471,"374":0.23639734089374542,"375":-0.3415486514568329,"376":-0.38693055510520935,"377":0.27002015709877014,"378":0.5361829400062561,"379":0.26254594326019287,"380":-0.2697543799877167,"381":0.3508727252483368,"382":-0.3184814751148224,"383":0.13988801836967468,"384":0.3563471734523773,"385":-0.08839346468448639,"386":-0.425358384847641,"387":0.3778644800186157,"388":-0.33395519852638245,"389":0.011837261728942394,"390":0.39410606026649475,"391":0.3226947784423828,"392":0.30097198486328125,"393":0.22729501128196716,"394":0.3772561848163605,"395":-0.3906289339065552,"396":-0.3276991844177246,"397":0.416656494140625,"398":0.28570282459259033,"399":0.33302363753318787}},"inputHidden":{"rows":20,"columns":20,"weights":{"0":-0.01738821342587471,"1":0.08889991790056229,"2":-0.14506806433200836,"3":0.2774694561958313,"4":-0.39706361293792725,"5":-0.13423055410385132,"6":0.007049317006021738,"7":-0.11297786980867386,"8":-0.008525099605321884,"9":0.12234153598546982,"10":-0.11361172050237656,"11":0.027288736775517464,"12":-0.07010901719331741,"13":0.18049055337905884,"14":0.050783105194568634,"15":0.027761785313487053,"16":0.028283193707466125,"17":-0.17121204733848572,"18":-0.03834712505340576,"19":-0.06585580855607986,"20":-0.030958212912082672,"21":0.14165204763412476,"22":0.023138144984841347,"23":0.18746639788150787,"24":-0.14495521783828735,"25":-0.08896492421627045,"26":-0.06591349840164185,"27":-0.14843153953552246,"28":-0.06933177262544632,"29":0.23332318663597107,"30":-0.020226070657372475,"31":0.16258101165294647,"32":-0.12556689977645874,"33":0.11660974472761154,"34":0.2134135514497757,"35":0.12131152302026749,"36":0.14385008811950684,"37":-0.11858153343200684,"38":-0.11249953508377075,"39":-0.13697956502437592,"40":-0.38175463676452637,"41":0.3275110125541687,"42":-0.8635993003845215,"43":0.9964950084686279,"44":-1.2063325643539429,"45":-0.7205252647399902,"46":-0.6113249063491821,"47":-0.5177971720695496,"48":-0.5239092707633972,"49":-0.08484529703855515,"50":-0.555359423160553,"51":0.04819422587752342,"52":0.41367632150650024,"53":0.5164746642112732,"54":-0.1725481152534485,"55":0.43926575779914856,"56":-0.18248862028121948,"57":-0.2601362466812134,"58":-0.12502610683441162,"59":-0.2047061026096344,"60":-0.4156576991081238,"61":0.16503100097179413,"62":-0.7359494566917419,"63":0.9772067070007324,"64":-1.044498324394226,"65":-0.38352274894714355,"66":-0.3299602270126343,"67":-0.3315744996070862,"68":-0.2562326192855835,"69":-0.25973665714263916,"70":-0.3653886914253235,"71":-0.06248314306139946,"72":0.3682934641838074,"73":0.5055475234985352,"74":-0.7998914122581482,"75":0.3755725920200348,"76":-0.2982596755027771,"77":-0.3379540741443634,"78":-0.015797439962625504,"79":-0.11264455318450928,"80":-0.26033809781074524,"81":0.14548811316490173,"82":-0.624719500541687,"83":0.6181585192680359,"84":-0.842498242855072,"85":-0.4845975339412689,"86":-0.34117475152015686,"87":-0.33557435870170593,"88":-0.24289272725582123,"89":-0.3631260097026825,"90":-0.3203749358654022,"91":-0.11659245938062668,"92":0.3916513919830322,"93":0.42759478092193604,"94":-0.8329772353172302,"95":0.3988053500652313,"96":-0.32081735134124756,"97":-0.4582124352455139,"98":0.08686135709285736,"99":-0.0406375452876091,"100":-0.18350110948085785,"101":0.23027381300926208,"102":-0.5104159712791443,"103":0.6038022637367249,"104":-0.8354128003120422,"105":-0.41166049242019653,"106":-0.31000441312789917,"107":-0.2162439376115799,"108":-0.42586514353752136,"109":-0.08639761805534363,"110":-0.1654437929391861,"111":-0.03473774343729019,"112":0.6832564473152161,"113":-0.007910261861979961,"114":0.47030630707740784,"115":0.08326739072799683,"116":-0.14158223569393158,"117":0.2625596225261688,"118":-0.04302070289850235,"119":-0.1762848049402237,"120":-0.09614589065313339,"121":0.11697502434253693,"122":-0.21737408638000488,"123":0.37652719020843506,"124":-0.46682578325271606,"125":-0.2210715115070343,"126":-0.23096467554569244,"127":-0.13152505457401276,"128":-0.3009044826030731,"129":-0.008005308918654919,"130":-0.08834255486726761,"131":0.10910606384277344,"132":0.20213882625102997,"133":0.15616098046302795,"134":0.2951478958129883,"135":0.08381766825914383,"136":0.01903543248772621,"137":-0.014064870774745941,"138":-0.15832632780075073,"139":-0.12131345272064209,"140":-0.09865773469209671,"141":0.06536050885915756,"142":-0.32117608189582825,"143":0.6594295501708984,"144":-0.6894358992576599,"145":-0.2301730364561081,"146":-0.29511237144470215,"147":-0.11532123386859894,"148":-0.26168179512023926,"149":0.043488990515470505,"150":-0.185237318277359,"151":0.05345756933093071,"152":0.784403920173645,"153":-0.08403166383504868,"154":0.4455243945121765,"155":-0.0842093825340271,"156":-0.10511741042137146,"157":0.36156025528907776,"158":-0.029318666085600853,"159":-0.03481418266892433,"160":0.013847768306732178,"161":0.10311257839202881,"162":0.029539886862039566,"163":0.012969709932804108,"164":-0.1090824231505394,"165":-0.12312062829732895,"166":-0.1738375872373581,"167":-0.017456693574786186,"168":-0.19379866123199463,"169":0.004346155561506748,"170":0.04045015946030617,"171":0.11271773278713226,"172":0.3804119825363159,"173":-0.0598377101123333,"174":0.5418300628662109,"175":-0.0450969822704792,"176":-0.0853755995631218,"177":0.2324453443288803,"178":-0.18738529086112976,"179":-0.06465290486812592,"180":-0.017066920176148415,"181":0.10294099897146225,"182":0.07157982140779495,"183":0.12924514710903168,"184":-0.034135282039642334,"185":0.05972966551780701,"186":0.020035656169056892,"187":-0.09152718633413315,"188":0.00887312926352024,"189":0.12798385322093964,"190":-0.03323402628302574,"191":0.15406347811222076,"192":-0.08775664865970612,"193":-0.012613818049430847,"194":0.15774361789226532,"195":0.08147739619016647,"196":0.18029563128948212,"197":-0.07786604017019272,"198":-0.17120681703090668,"199":-0.12290341407060623,"200":-0.20548692345619202,"201":0.043093711137771606,"202":-0.4446374177932739,"203":0.5328974723815918,"204":-0.6919920444488525,"205":-0.2618490755558014,"206":-0.1641397923231125,"207":-0.065632663667202,"208":-0.32729607820510864,"209":-0.045307058840990067,"210":-0.13561740517616272,"211":0.06214267387986183,"212":0.625156581401825,"213":-0.04083341732621193,"214":0.4561985433101654,"215":-0.051062993705272675,"216":-0.0135670630261302,"217":0.1839928925037384,"218":-0.09519137442111969,"219":-0.07133734226226807,"220":-0.035927511751651764,"221":0.18451885879039764,"222":-0.025580994784832,"223":0.20795485377311707,"224":-0.040053483098745346,"225":0.05134301260113716,"226":0.04223246872425079,"227":-0.15951816737651825,"228":-0.0013875390868633986,"229":0.2285357415676117,"230":-0.14315687119960785,"231":0.12946192920207977,"232":-0.23914332687854767,"233":0.13628368079662323,"234":0.2265351265668869,"235":-0.0009840683778747916,"236":0.17034444212913513,"237":-0.11287298798561096,"238":-0.09400007873773575,"239":-0.1810189038515091,"240":0.19592837989330292,"241":0.02283978834748268,"242":-0.037776533514261246,"243":0.04802757501602173,"244":-0.09770012646913528,"245":-0.025090327486395836,"246":-0.03812205046415329,"247":0.13380679488182068,"248":-0.12739180028438568,"249":-0.25203651189804077,"250":0.10173259675502777,"251":-0.06387992948293686,"252":1.3420321941375732,"253":-0.44580668210983276,"254":1.0611597299575806,"255":-0.3300609290599823,"256":-0.3075866103172302,"257":0.854802131652832,"258":-0.057497940957546234,"259":0.11620429158210754,"260":-0.15277893841266632,"261":0.1634194701910019,"262":-0.6587036848068237,"263":0.9332375526428223,"264":-1.075607180595398,"265":-0.386699914932251,"266":-0.3652398884296417,"267":-0.2723902463912964,"268":-0.3652663230895996,"269":-0.23346902430057526,"270":-0.24730893969535828,"271":-0.007401640526950359,"272":0.8913873434066772,"273":0.4367423355579376,"274":-0.16073563694953918,"275":0.1917761266231537,"276":-0.18712179362773895,"277":-0.051287587732076645,"278":-0.18223178386688232,"279":-0.20655912160873413,"280":-0.06458476185798645,"281":-0.04499749094247818,"282":-0.5854219198226929,"283":0.9112553596496582,"284":-1.1781704425811768,"285":-0.28844311833381653,"286":-0.10991334170103073,"287":-0.08739294856786728,"288":-0.14549480378627777,"289":-0.19792057573795319,"290":-0.04165365919470787,"291":-0.16906704008579254,"292":0.6367056369781494,"293":0.26118069887161255,"294":-0.4476791024208069,"295":0.05499272048473358,"296":-0.22967880964279175,"297":0.045738037675619125,"298":0.1999559998512268,"299":0.005784487351775169,"300":-0.06211944296956062,"301":0.12893499433994293,"302":-0.5932035446166992,"303":0.7188977599143982,"304":-0.9119518995285034,"305":-0.3170391619205475,"306":-0.3389546871185303,"307":-0.24239613115787506,"308":-0.4315588176250458,"309":-0.12773887813091278,"310":-0.1832517385482788,"311":-0.04942518100142479,"312":1.167444109916687,"313":0.18990029394626617,"314":0.28155022859573364,"315":0.15569010376930237,"316":-0.2013014703989029,"317":0.2509394586086273,"318":-0.03320874273777008,"319":-0.1555933952331543,"320":0.09232388436794281,"321":0.02823532745242119,"322":-0.005876683630049229,"323":0.14652274549007416,"324":-0.17237231135368347,"325":0.09983130544424057,"326":0.024864012375473976,"327":0.05059925839304924,"328":-0.041148196905851364,"329":-0.03212684765458107,"330":0.011077303439378738,"331":0.1018669605255127,"332":0.24014033377170563,"333":-0.07350286841392517,"334":0.31441769003868103,"335":-0.1263786256313324,"336":-0.07121670246124268,"337":0.12618790566921234,"338":-0.0591096431016922,"339":-0.010661575011909008,"340":-0.13148541748523712,"341":0.17060765624046326,"342":-0.5807740092277527,"343":0.7748448848724365,"344":-0.9865680932998657,"345":-0.29496121406555176,"346":-0.3007720410823822,"347":-0.18680043518543243,"348":-0.2987506687641144,"349":-0.15150004625320435,"350":-0.17542961239814758,"351":-0.11926157027482986,"352":1.0064221620559692,"353":0.32937976717948914,"354":-0.09472628682851791,"355":0.22541896998882294,"356":-0.34407487511634827,"357":-0.08407334238290787,"358":-0.15946272015571594,"359":-0.10395999252796173,"360":-0.1539960354566574,"361":0.1439925581216812,"362":-0.09192568063735962,"363":0.15176860988140106,"364":-0.04847988486289978,"365":-0.10912381857633591,"366":-0.013562086969614029,"367":-0.1832592636346817,"368":-0.026617342606186867,"369":0.237229123711586,"370":-0.0257527157664299,"371":0.16795949637889862,"372":-0.19539742171764374,"373":0.06742478162050247,"374":0.15229351818561554,"375":0.11151611059904099,"376":0.2124129831790924,"377":-0.06482403725385666,"378":-0.11144934594631195,"379":-0.05444403737783432,"380":-0.14736902713775635,"381":0.07183897495269775,"382":-0.035435568541288376,"383":0.13223718106746674,"384":-0.12368626147508621,"385":-0.0023040121886879206,"386":0.03425326570868492,"387":-0.0019591699820011854,"388":-0.07189882546663284,"389":0.14610247313976288,"390":-0.06839542835950851,"391":0.19504386186599731,"392":-0.24061070382595062,"393":0.04555710777640343,"394":0.09697145968675613,"395":0.0176705252379179,"396":0.184371218085289,"397":-0.14817756414413452,"398":-0.03538006916642189,"399":-0.015097077004611492}},"inputBias":{"rows":20,"columns":1,"weights":{"0":-0.7236221432685852,"1":-0.7723540663719177,"2":-0.8518773913383484,"3":-0.7183190584182739,"4":-0.8323265314102173,"5":-0.8631821274757385,"6":-0.8615878224372864,"7":-0.6443654298782349,"8":-0.5477831363677979,"9":-0.5757522583007812,"10":-0.7683423757553101,"11":-0.7461475133895874,"12":0.7832863330841064,"13":-0.17966197431087494,"14":0.1671111136674881,"15":-0.3696441054344177,"16":-0.33924955129623413,"17":0.2158077359199524,"18":-0.5935630202293396,"19":-0.8039423227310181}},"forgetMatrix":{"rows":20,"columns":20,"weights":{"0":-0.09239896386861801,"1":0.107808917760849,"2":-0.14863033592700958,"3":-0.054759085178375244,"4":0.1220962181687355,"5":-0.09033042192459106,"6":-0.02511148899793625,"7":0.08773952722549438,"8":0.01693357527256012,"9":-0.028010446578264236,"10":0.16720086336135864,"11":0.18269085884094238,"12":0.030896252021193504,"13":-0.06284724920988083,"14":0.06307127326726913,"15":-0.09945424646139145,"16":-0.14119644463062286,"17":0.13782832026481628,"18":-0.001017838716506958,"19":0.16088972985744476,"20":-0.09675896912813187,"21":0.07916779071092606,"22":-0.09405585378408432,"23":-0.12303170561790466,"24":0.07229794561862946,"25":-0.057538170367479324,"26":-0.11816147714853287,"27":0.1405167430639267,"28":0.013941294513642788,"29":0.08925525844097137,"30":0.11921398341655731,"31":0.07628320157527924,"32":0.05520807206630707,"33":-0.05140531808137894,"34":0.05892347916960716,"35":-0.10940006375312805,"36":-0.028035106137394905,"37":0.036209478974342346,"38":-0.003442623419687152,"39":0.054686930030584335,"40":0.22095337510108948,"41":-0.11303405463695526,"42":0.3295171558856964,"43":0.49534717202186584,"44":-0.29565489292144775,"45":0.5651702880859375,"46":0.050932418555021286,"47":-0.26989150047302246,"48":0.027818799018859863,"49":-0.17619752883911133,"50":-0.3381793797016144,"51":-0.4294189512729645,"52":-0.17174717783927917,"53":0.47542449831962585,"54":-0.23528122901916504,"55":0.32583144307136536,"56":0.18851017951965332,"57":-0.3321302831172943,"58":-0.36938080191612244,"59":-0.35824334621429443,"60":0.19509491324424744,"61":-0.3001236617565155,"62":0.4200208783149719,"63":0.6386008262634277,"64":-0.3401264250278473,"65":0.6893128752708435,"66":0.20161835849285126,"67":-0.35502180457115173,"68":0.2216823548078537,"69":-0.134529247879982,"70":-0.5151769518852234,"71":-0.5073308944702148,"72":-0.2404807209968567,"73":0.529674768447876,"74":-0.4222424030303955,"75":0.46230584383010864,"76":0.26039472222328186,"77":-0.4631441831588745,"78":-0.32301953434944153,"79":-0.45736047625541687,"80":0.35338306427001953,"81":-0.32923242449760437,"82":0.593241810798645,"83":0.5698043704032898,"84":-0.535572350025177,"85":0.8666909337043762,"86":0.2527932822704315,"87":-0.44264793395996094,"88":0.243721604347229,"89":-0.27997127175331116,"90":-0.6913501620292664,"91":-0.6049844026565552,"92":-0.46962615847587585,"93":0.47967371344566345,"94":-0.476010262966156,"95":0.5725113749504089,"96":0.47202566266059875,"97":-0.6134144067764282,"98":-0.45446816086769104,"99":-0.5060766339302063,"100":0.028297070413827896,"101":-0.06916829198598862,"102":0.09703602641820908,"103":0.25580069422721863,"104":-0.10251632332801819,"105":0.14559140801429749,"106":-0.05246927961707115,"107":-0.06475336849689484,"108":-0.015566355548799038,"109":-0.10886126756668091,"110":-0.0889362245798111,"111":-0.19986459612846375,"112":-0.12301690131425858,"113":0.1545829474925995,"114":-0.17264239490032196,"115":0.15444201231002808,"116":0.1429874449968338,"117":-0.09410267323255539,"118":-0.22810789942741394,"119":-0.10838113725185394,"120":-0.059423550963401794,"121":0.07479634135961533,"122":-0.08738075941801071,"123":0.03543141856789589,"124":0.021615907549858093,"125":0.02675544284284115,"126":0.010279911570250988,"127":0.09500877559185028,"128":-0.09860219061374664,"129":-0.028707625344395638,"130":0.13159875571727753,"131":0.15939408540725708,"132":0.05232170596718788,"133":0.024545500054955482,"134":0.041224367916584015,"135":-0.10198136419057846,"136":-0.12911035120487213,"137":0.09479359537363052,"138":0.05547057464718819,"139":0.1142512634396553,"140":-0.09705185890197754,"141":0.14214728772640228,"142":-0.09199061989784241,"143":-0.08032865077257156,"144":0.2344304770231247,"145":-0.07687772065401077,"146":-0.13044247031211853,"147":0.17372633516788483,"148":-0.13527466356754303,"149":0.10039209574460983,"150":0.14842715859413147,"151":0.18838898837566376,"152":0.19676178693771362,"153":-0.13373352587223053,"154":0.08907078951597214,"155":-0.2487768977880478,"156":-0.16664814949035645,"157":0.1906110644340515,"158":0.16077867150306702,"159":0.1546764075756073,"160":-0.0301776472479105,"161":0.10443075001239777,"162":-0.2438819408416748,"163":0.10658955574035645,"164":0.20049314200878143,"165":-0.03837328776717186,"166":0.05641760304570198,"167":0.1367049515247345,"168":-0.042909737676382065,"169":0.031562548130750656,"170":0.2075696438550949,"171":0.1160537600517273,"172":0.18769405782222748,"173":0.06840556859970093,"174":0.03747429698705673,"175":-0.18980075418949127,"176":-0.022822972387075424,"177":0.21947981417179108,"178":0.2953088581562042,"179":0.16325066983699799,"180":-0.11503851413726807,"181":0.06886512041091919,"182":-0.1361571103334427,"183":0.12399916350841522,"184":0.07283046096563339,"185":-0.024239888414740562,"186":-0.07874128222465515,"187":0.026301877573132515,"188":-0.05406337231397629,"189":0.09710559993982315,"190":-0.012756610289216042,"191":0.02333340048789978,"192":0.08674804866313934,"193":0.1259215772151947,"194":-0.004393893759697676,"195":-0.07189032435417175,"196":-0.06606107950210571,"197":-0.012949363328516483,"198":0.02431630715727806,"199":0.03885011002421379,"200":-0.08423515409231186,"201":0.12361028790473938,"202":-0.09217224270105362,"203":-0.07720842212438583,"204":0.05906740948557854,"205":0.06684667617082596,"206":0.004913777578622103,"207":0.14674752950668335,"208":-0.10230229794979095,"209":-0.10690969973802567,"210":0.036630503833293915,"211":0.03982570394873619,"212":0.11339763551950455,"213":0.0038869045674800873,"214":0.11553245037794113,"215":-0.07972759008407593,"216":0.0019435567082837224,"217":0.033459559082984924,"218":0.05922476574778557,"219":0.030745873227715492,"220":-0.11665258556604385,"221":0.08869768679141998,"222":-0.04164969548583031,"223":-0.008424792438745499,"224":0.1107841432094574,"225":-0.051931414753198624,"226":-0.0266706682741642,"227":0.12579694390296936,"228":-0.09014855325222015,"229":0.0892505869269371,"230":0.11353766173124313,"231":0.11926103383302689,"232":0.028269926086068153,"233":-0.007831057533621788,"234":0.128109410405159,"235":-0.08799756318330765,"236":-0.07754811644554138,"237":0.08972475677728653,"238":0.034979403018951416,"239":0.0569075383245945,"240":-0.25655511021614075,"241":0.19196127355098724,"242":-0.5490368604660034,"243":0.2789610028266907,"244":0.4022634029388428,"245":-0.32909515500068665,"246":0.30046430230140686,"247":0.29756101965904236,"248":0.043941475450992584,"249":0.48647066950798035,"250":0.3817438781261444,"251":0.2590705156326294,"252":0.3646087050437927,"253":0.34619107842445374,"254":0.0381726436316967,"255":-0.13172411918640137,"256":-0.1747155338525772,"257":0.3520541787147522,"258":1.7374464273452759,"259":0.47080230712890625,"260":-0.24499301612377167,"261":0.2285398691892624,"262":-0.3926124572753906,"263":0.06061357632279396,"264":0.2213016301393509,"265":0.012203680351376534,"266":0.05348951742053032,"267":0.23121793568134308,"268":-0.04656415060162544,"269":0.2490442991256714,"270":0.21328701078891754,"271":0.18009933829307556,"272":0.22835972905158997,"273":-0.09655376523733139,"274":0.21923403441905975,"275":-0.24648703634738922,"276":-0.14328262209892273,"277":0.253225177526474,"278":0.7867361903190613,"279":0.32827669382095337,"280":-0.24630965292453766,"281":0.27986225485801697,"282":-0.399254709482193,"283":0.6976186633110046,"284":0.29567018151283264,"285":0.0857972800731659,"286":0.11082252115011215,"287":0.23935985565185547,"288":0.0044333236292004585,"289":0.6703335642814636,"290":0.2572482228279114,"291":0.20891880989074707,"292":0.40210092067718506,"293":0.5891720652580261,"294":0.23405326902866364,"295":-0.20862582325935364,"296":-0.31253230571746826,"297":0.35989660024642944,"298":1.4108458757400513,"299":0.32753807306289673,"300":-0.16630424559116364,"301":0.11972752958536148,"302":-0.3190506398677826,"303":-0.2043597549200058,"304":0.24096541106700897,"305":-0.11258222162723541,"306":-0.0002410346205579117,"307":0.263084352016449,"308":-0.12339749932289124,"309":0.21046879887580872,"310":0.3294631838798523,"311":0.2909589409828186,"312":0.18249133229255676,"313":-0.2218511402606964,"314":0.24445171654224396,"315":-0.3310527801513672,"316":-0.2435772716999054,"317":0.2234775722026825,"318":0.39125922322273254,"319":0.2609175145626068,"320":0.038251832127571106,"321":-0.006949607282876968,"322":-0.10867873579263687,"323":0.16988785564899445,"324":-0.011848491616547108,"325":-0.06800661236047745,"326":-0.014987800270318985,"327":0.024085018783807755,"328":0.05506318807601929,"329":-0.0378573015332222,"330":0.00014040923269931227,"331":0.0664549395442009,"332":-0.01587533764541149,"333":0.1221257820725441,"334":0.07958489656448364,"335":-0.07127770781517029,"336":-0.09168747812509537,"337":0.05366774648427963,"338":0.18462933599948883,"339":0.06069059669971466,"340":-0.18527518212795258,"341":0.2887590825557709,"342":-0.46467435359954834,"343":0.013590429909527302,"344":0.2847619354724884,"345":-0.11899605393409729,"346":0.20979194343090057,"347":0.3087213933467865,"348":-0.043599337339401245,"349":0.3495232164859772,"350":0.34372183680534363,"351":0.3163866400718689,"352":0.365471214056015,"353":0.09388434886932373,"354":0.09075887501239777,"355":-0.1819559931755066,"356":-0.11142844706773758,"357":0.37096142768859863,"358":1.4090782403945923,"359":0.4166274964809418,"360":-0.13919129967689514,"361":0.09562497586011887,"362":-0.14033928513526917,"363":0.00006673532334389165,"364":0.0363508015871048,"365":-0.07654289901256561,"366":-0.09833792597055435,"367":0.032968319952487946,"368":-0.10739517211914062,"369":0.03605211526155472,"370":0.03289777413010597,"371":0.12216354161500931,"372":0.11356649547815323,"373":0.02343023754656315,"374":0.12105819582939148,"375":-0.01256908942013979,"376":-0.13720089197158813,"377":0.14821945130825043,"378":0.022427400574088097,"379":0.08534354716539383,"380":-0.0985531136393547,"381":0.03800417482852936,"382":-0.009284159168601036,"383":-0.07742798328399658,"384":0.051405757665634155,"385":-0.0065123592503368855,"386":-0.012298335321247578,"387":0.14510586857795715,"388":-0.031945470720529556,"389":-0.023213820531964302,"390":0.045384883880615234,"391":0.03914846479892731,"392":0.08118407428264618,"393":-0.04096126928925514,"394":0.05488097667694092,"395":-0.17637087404727936,"396":-0.07279396057128906,"397":0.13988199830055237,"398":0.06110205128788948,"399":0.022697435691952705}},"forgetHidden":{"rows":20,"columns":20,"weights":{"0":0.03590908274054527,"1":0.03180786594748497,"2":0.013421780429780483,"3":0.010747791267931461,"4":-0.033654455095529556,"5":0.0064260102808475494,"6":0.03166523203253746,"7":-0.0774070993065834,"8":0.022158905863761902,"9":0.06330777704715729,"10":-0.07251115888357162,"11":0.08566784858703613,"12":-0.09860935062170029,"13":0.04493033513426781,"14":0.0378868542611599,"15":-0.04690207540988922,"16":0.04344882443547249,"17":-0.02104000933468342,"18":0.040625303983688354,"19":-0.04673468694090843,"20":-0.05734653398394585,"21":-0.040713630616664886,"22":0.08450998365879059,"23":0.04265783354640007,"24":0.06208793446421623,"25":-0.03485216572880745,"26":0.01454573217779398,"27":0.008454580791294575,"28":-0.046762701123952866,"29":0.032403815537691116,"30":-0.04157052934169769,"31":-0.03212520107626915,"32":-0.022761408239603043,"33":0.06495351344347,"34":-0.06865084916353226,"35":-0.0608665905892849,"36":-0.0417974516749382,"37":-0.09131092578172684,"38":-0.03835977241396904,"39":-0.07924496382474899,"40":-0.0068853492848575115,"41":-0.01674519293010235,"42":-0.20207557082176208,"43":0.3705909550189972,"44":-0.4270365536212921,"45":-0.13878841698169708,"46":0.009231834672391415,"47":-0.0031278880778700113,"48":-0.03991832211613655,"49":-0.03554027900099754,"50":-0.006718701682984829,"51":0.05011875554919243,"52":0.07312851399183273,"53":0.09142378717660904,"54":-0.2328796535730362,"55":-0.0006430509383790195,"56":0.020852334797382355,"57":-0.0926678329706192,"58":-0.02438242919743061,"59":0.03798095881938934,"60":-0.2019580900669098,"61":0.11057556420564651,"62":-0.2691382169723511,"63":0.44226595759391785,"64":-0.5005781054496765,"65":-0.1558300256729126,"66":-0.10211848467588425,"67":-0.1740243285894394,"68":-0.15158729255199432,"69":0.023879630491137505,"70":-0.1615280956029892,"71":0.020211903378367424,"72":0.013951798900961876,"73":0.29868704080581665,"74":-0.21718282997608185,"75":0.17811883985996246,"76":0.019023068249225616,"77":-0.21320167183876038,"78":0.009550021961331367,"79":-0.12733730673789978,"80":-0.10631879419088364,"81":0.09298906475305557,"82":-0.47211116552352905,"83":0.619148850440979,"84":-0.6007856726646423,"85":-0.20814266800880432,"86":-0.22783182561397552,"87":-0.14217235147953033,"88":-0.11350865662097931,"89":-0.04404383525252342,"90":-0.12945741415023804,"91":0.03496669977903366,"92":0.127388596534729,"93":0.246283158659935,"94":-0.24282388389110565,"95":0.23353302478790283,"96":0.07076482474803925,"97":-0.21699868142604828,"98":0.023181593045592308,"99":-0.039823830127716064,"100":0.10761857777833939,"101":-0.017597941681742668,"102":-0.09232530742883682,"103":0.01405252143740654,"104":-0.16820354759693146,"105":-0.029402466490864754,"106":0.08924886584281921,"107":0.10240737348794937,"108":0.05305424705147743,"109":-0.06997201591730118,"110":0.08536634594202042,"111":-0.08932764083147049,"112":0.23328757286071777,"113":-0.13046877086162567,"114":0.08708865195512772,"115":-0.048272810876369476,"116":-0.08724707365036011,"117":0.24355250597000122,"118":-0.03571488335728645,"119":0.018224021419882774,"120":0.05719185993075371,"121":-0.030866073444485664,"122":0.05184198170900345,"123":0.0038180591072887182,"124":-0.06408962607383728,"125":-0.03132162243127823,"126":0.02496442198753357,"127":0.08101854473352432,"128":0.04896467179059982,"129":-0.05443686246871948,"130":0.09764686226844788,"131":-0.027148718014359474,"132":0.02010038122534752,"133":-0.028831863775849342,"134":-0.06984352320432663,"135":-0.09368745237588882,"136":-0.030854688957333565,"137":0.08309927582740784,"138":0.06776038557291031,"139":0.03672385215759277,"140":0.002133049303665757,"141":-0.0035281020682305098,"142":0.06127583235502243,"143":-0.02662643790245056,"144":-0.10740376263856888,"145":0.003290935419499874,"146":0.011669501662254333,"147":-0.012724450789391994,"148":0.017044486477971077,"149":-0.04936368018388748,"150":-0.017438365146517754,"151":-0.07146646082401276,"152":-0.16753847897052765,"153":0.010365196503698826,"154":-0.1202177032828331,"155":0.08082158118486404,"156":0.032291341572999954,"157":-0.04359257593750954,"158":-0.014741878025233746,"159":-0.058003075420856476,"160":0.12449599802494049,"161":-0.05095478147268295,"162":0.09980528056621552,"163":0.023183930665254593,"164":0.06451725959777832,"165":-0.011446034535765648,"166":0.04275147244334221,"167":-0.014841440133750439,"168":-0.05743272975087166,"169":0.0016208611195906997,"170":0.08353462815284729,"171":-0.03139340505003929,"172":-0.016866745427250862,"173":-0.07358816266059875,"174":0.034336820244789124,"175":0.009516756050288677,"176":0.02097916603088379,"177":0.057720620185136795,"178":-0.04348503053188324,"179":-0.010998232290148735,"180":-0.004602521192282438,"181":-0.0036218471359461546,"182":-0.05785541608929634,"183":0.03565441071987152,"184":-0.04200918599963188,"185":0.05864151194691658,"186":0.014403005130589008,"187":0.049885962158441544,"188":-0.03675655275583267,"189":0.01579960621893406,"190":0.026595372706651688,"191":0.08859304338693619,"192":-0.06492798030376434,"193":0.05935104563832283,"194":-0.025969630107283592,"195":0.051768384873867035,"196":-0.011648064479231834,"197":0.03808926045894623,"198":-0.0776587501168251,"199":-0.03898464888334274,"200":0.07699114084243774,"201":0.03766191378235817,"202":0.021340209990739822,"203":0.015178662724792957,"204":0.013817626051604748,"205":0.028332360088825226,"206":0.10559090971946716,"207":0.0730411484837532,"208":-0.031879618763923645,"209":0.05878283828496933,"210":0.03293841704726219,"211":0.06839248538017273,"212":-0.014815684407949448,"213":0.049535054713487625,"214":-0.020862609148025513,"215":-0.0751020759344101,"216":0.03604685887694359,"217":-0.06288545578718185,"218":0.0024437936954200268,"219":-0.004486600402742624,"220":0.03347162529826164,"221":0.07835372537374496,"222":-0.059201035648584366,"223":0.08638380467891693,"224":-0.05244582146406174,"225":-0.07687193155288696,"226":-0.06793686002492905,"227":-0.09167267382144928,"228":0.027082746848464012,"229":-0.03853261470794678,"230":0.016248339787125587,"231":0.0866815596818924,"232":0.005768617149442434,"233":0.0556841604411602,"234":-0.06316133588552475,"235":-0.016922378912568092,"236":0.0021802345290780067,"237":-0.07411012053489685,"238":-0.08428420126438141,"239":0.01323717087507248,"240":0.12046149373054504,"241":-0.043301500380039215,"242":0.2041023224592209,"243":-0.10436470061540604,"244":0.23872168362140656,"245":0.2233346402645111,"246":-0.021518077701330185,"247":0.11710318922996521,"248":-0.04443748667836189,"249":-0.025188889354467392,"250":0.019190721213817596,"251":-0.03575954586267471,"252":0.11409750580787659,"253":0.06002598628401756,"254":-0.10362906008958817,"255":0.09997466951608658,"256":-0.0640028640627861,"257":-0.1409413069486618,"258":-0.0744905173778534,"259":-0.02591921202838421,"260":0.10858776420354843,"261":-0.06749007105827332,"262":-0.017910905182361603,"263":0.2048627734184265,"264":-0.26876044273376465,"265":0.05208887904882431,"266":0.07560449093580246,"267":-0.020213507115840912,"268":0.14735640585422516,"269":-0.050177816301584244,"270":-0.04473704472184181,"271":0.040802884846925735,"272":-0.33333757519721985,"273":0.3247469961643219,"274":-0.4860053062438965,"275":0.1587800532579422,"276":-0.0417826808989048,"277":-0.3661530911922455,"278":-0.039733074605464935,"279":0.031079798936843872,"280":0.011857948265969753,"281":0.0928245559334755,"282":-0.24516025185585022,"283":0.309466689825058,"284":-0.43980681896209717,"285":-0.0244938675314188,"286":-0.0739343911409378,"287":-0.13038499653339386,"288":-0.2059636414051056,"289":0.02119721844792366,"290":-0.038645628839731216,"291":0.17764122784137726,"292":-0.175656259059906,"293":0.4301539957523346,"294":-0.46310847997665405,"295":0.26378509402275085,"296":-0.06653687357902527,"297":-0.6189954876899719,"298":-0.13299445807933807,"299":-0.10257652401924133,"300":0.01273337472230196,"301":-0.07014785706996918,"302":-0.012141985818743706,"303":0.10541822016239166,"304":-0.10058293491601944,"305":0.10065945982933044,"306":-0.0032425373792648315,"307":0.012040083296597004,"308":0.1692933887243271,"309":-0.03239947929978371,"310":0.042389485985040665,"311":0.030770597979426384,"312":-0.2783288061618805,"313":0.2136744111776352,"314":-0.31224799156188965,"315":0.09209108352661133,"316":0.06953658163547516,"317":-0.19148415327072144,"318":0.01585623435676098,"319":-0.0024995373096317053,"320":-0.08526121079921722,"321":0.08868778496980667,"322":0.0840926542878151,"323":0.0712592825293541,"324":-0.023913932964205742,"325":0.005647068843245506,"326":0.06980728358030319,"327":0.002832956612110138,"328":0.03567270189523697,"329":-0.051623206585645676,"330":0.05819650739431381,"331":0.031556032598018646,"332":0.027699392288923264,"333":-0.04807122424244881,"334":0.10652114450931549,"335":-0.06482412666082382,"336":-0.06338538229465485,"337":-0.021068772301077843,"338":0.015724951401352882,"339":0.050547435879707336,"340":0.0815708339214325,"341":0.01520535722374916,"342":0.07654763013124466,"343":-0.04834287241101265,"344":0.05343151092529297,"345":0.17476685345172882,"346":0.020893245935440063,"347":0.07992138713598251,"348":0.04351427033543587,"349":-0.038687340915203094,"350":0.08715789765119553,"351":-0.04925471544265747,"352":0.10185877978801727,"353":0.03465154021978378,"354":-0.19957385957241058,"355":0.05525670573115349,"356":-0.038818009197711945,"357":-0.06249372288584709,"358":-0.13433508574962616,"359":0.06086183711886406,"360":-0.013595012947916985,"361":-0.03993847221136093,"362":-0.001159367267973721,"363":-0.005176297388970852,"364":-0.04571233317255974,"365":0.03577536717057228,"366":0.0529504157602787,"367":0.0417318195104599,"368":-0.0034346384927630424,"369":0.030976906418800354,"370":0.05377161502838135,"371":0.08439874649047852,"372":-0.09526115655899048,"373":0.008060868829488754,"374":-0.054687757045030594,"375":0.03681039810180664,"376":0.1036296933889389,"377":0.003256590571254492,"378":-0.03964664414525032,"379":-0.010708452202379704,"380":0.05211446061730385,"381":-0.06268526613712311,"382":0.0025846916250884533,"383":0.032265231013298035,"384":0.008768199943006039,"385":-0.02982821688055992,"386":0.022924603894352913,"387":-0.0460924357175827,"388":0.02497962675988674,"389":0.0020518198143690825,"390":-0.025011319667100906,"391":-0.050444815307855606,"392":-0.07508619129657745,"393":0.07380909472703934,"394":0.04887613281607628,"395":0.022844357416033745,"396":0.07677905261516571,"397":-0.047398924827575684,"398":0.025481045246124268,"399":0.015078991651535034}},"forgetBias":{"rows":20,"columns":1,"weights":{"0":0,"1":0,"2":0,"3":0,"4":0,"5":0,"6":0,"7":0,"8":0,"9":0,"10":0,"11":0,"12":0,"13":0,"14":0,"15":0,"16":0,"17":0,"18":0,"19":0}},"outputMatrix":{"rows":20,"columns":20,"weights":{"0":-0.22711367905139923,"1":0.35774609446525574,"2":-0.3814276158809662,"3":0.3598630428314209,"4":0.28925368189811707,"5":0.22741800546646118,"6":-0.3263911306858063,"7":0.3466334342956543,"8":-0.37038978934288025,"9":-0.023774631321430206,"10":0.33427560329437256,"11":0.2712329030036926,"12":0.2546166777610779,"13":0.4308812916278839,"14":0.32490232586860657,"15":-0.2364722490310669,"16":-0.2972400486469269,"17":0.2647359371185303,"18":0.3286615312099457,"19":0.34522122144699097,"20":-0.2857254445552826,"21":0.29906776547431946,"22":-0.38748353719711304,"23":0.21111901104450226,"24":0.43204817175865173,"25":-0.11827833950519562,"26":-0.3689165711402893,"27":0.35333022475242615,"28":-0.2596035897731781,"29":0.16173048317432404,"30":0.3789371848106384,"31":0.34998512268066406,"32":0.35326454043388367,"33":0.1635398268699646,"34":0.3864439129829407,"35":-0.3796687722206116,"36":-0.4326013922691345,"37":0.3189033567905426,"38":0.45560359954833984,"39":0.4429941773414612,"40":0.13886962831020355,"41":-0.20580515265464783,"42":0.4503365755081177,"43":0.7894241809844971,"44":-0.3721708059310913,"45":0.9345231652259827,"46":-0.0845283642411232,"47":-0.3626203238964081,"48":0.004024521913379431,"49":-0.38308149576187134,"50":-0.48725417256355286,"51":-0.41548922657966614,"52":-0.31930869817733765,"53":0.7230860590934753,"54":-0.3604634404182434,"55":0.35132667422294617,"56":0.2242525964975357,"57":-0.49481478333473206,"58":-0.5965226888656616,"59":-0.3933248221874237,"60":0.5086989998817444,"61":-0.47469621896743774,"62":0.6254205107688904,"63":0.5837879776954651,"64":-0.6014440655708313,"65":0.7719223499298096,"66":0.15546517074108124,"67":-0.5339831709861755,"68":0.2692616581916809,"69":-0.6811255812644958,"70":-0.6484301090240479,"71":-0.627460241317749,"72":-0.5869539380073547,"73":0.42956361174583435,"74":-0.5012073516845703,"75":0.5495933890342712,"76":0.39964210987091064,"77":-0.6346219778060913,"78":-0.5775246620178223,"79":-0.5161867141723633,"80":0.40425243973731995,"81":-0.4261065423488617,"82":0.7179902791976929,"83":0.4649829566478729,"84":-0.5719599723815918,"85":0.7940817475318909,"86":0.18402914702892303,"87":-0.640465497970581,"88":0.39833804965019226,"89":-0.6415526866912842,"90":-0.6993396282196045,"91":-0.6250458359718323,"92":-0.49319714307785034,"93":0.45356762409210205,"94":-0.5046477913856506,"95":0.6121745109558105,"96":0.5131551027297974,"97":-0.7136703729629517,"98":-0.7742550373077393,"99":-0.616702139377594,"100":-0.008696943521499634,"101":0.044781554490327835,"102":0.16339851915836334,"103":0.6000744104385376,"104":-0.07299389690160751,"105":0.5908302068710327,"106":-0.1319759339094162,"107":-0.040922537446022034,"108":-0.11789056658744812,"109":-0.2877770662307739,"110":-0.1870296746492386,"111":-0.08617228269577026,"112":0.004933201242238283,"113":0.6566312313079834,"114":0.011458121240139008,"115":0.05829044058918953,"116":-0.03557688742876053,"117":-0.047684669494628906,"118":-0.31692200899124146,"119":-0.08743516355752945,"120":-0.2948185205459595,"121":0.22386302053928375,"122":-0.31759247183799744,"123":0.4136471450328827,"124":0.2521094083786011,"125":0.24809038639068604,"126":-0.2915729582309723,"127":0.28556936979293823,"128":-0.3072337210178375,"129":0.010488396510481834,"130":0.22981685400009155,"131":0.2665480077266693,"132":0.24953068792819977,"133":0.4225113093852997,"134":0.26902252435684204,"135":-0.17386142909526825,"136":-0.35238006711006165,"137":0.22227449715137482,"138":0.35822784900665283,"139":0.3534497618675232,"140":0.056823935359716415,"141":0.18197351694107056,"142":0.06793573498725891,"143":0.6240315437316895,"144":-0.14684394001960754,"145":0.4864751100540161,"146":-0.07447060942649841,"147":-0.06828943639993668,"148":-0.15677829086780548,"149":-0.32202956080436707,"150":-0.16015684604644775,"151":-0.037765536457300186,"152":-0.04924813657999039,"153":0.5793139338493347,"154":-0.13587874174118042,"155":0.041667550802230835,"156":-0.05760377645492554,"157":-0.03458555042743683,"158":0.011916842311620712,"159":-0.13314053416252136,"160":-0.26157453656196594,"161":0.4782731831073761,"162":-0.38732999563217163,"163":0.6407210230827332,"164":0.3248094618320465,"165":0.06008753180503845,"166":-0.026969170197844505,"167":0.3008914887905121,"168":-0.32133397459983826,"169":0.19724571704864502,"170":0.24659745395183563,"171":0.267812043428421,"172":0.3460186719894409,"173":0.5996223092079163,"174":0.2584327161312103,"175":-0.23845471441745758,"176":-0.3188248574733734,"177":0.3596915900707245,"178":1.5196807384490967,"179":0.35460877418518066,"180":-0.3312736451625824,"181":0.34703004360198975,"182":-0.38854116201400757,"183":0.2568145990371704,"184":0.26593852043151855,"185":-0.19450059533119202,"186":-0.23994645476341248,"187":0.36211127042770386,"188":-0.25108015537261963,"189":0.07232243567705154,"190":0.3621256947517395,"191":0.25230279564857483,"192":0.2901649475097656,"193":0.18855825066566467,"194":0.3582983613014221,"195":-0.2511574625968933,"196":-0.3510315418243408,"197":0.33792346715927124,"198":0.41722187399864197,"199":0.28520503640174866,"200":-0.08043814450502396,"201":0.17296966910362244,"202":0.07169372588396072,"203":0.6024031639099121,"204":-0.07500014454126358,"205":0.5525251626968384,"206":-0.253673791885376,"207":-0.009150411002337933,"208":-0.25441378355026245,"209":-0.3082570433616638,"210":0.017301859334111214,"211":0.03143322095274925,"212":0.02171144261956215,"213":0.5119363069534302,"214":0.060763001441955566,"215":-0.07635354995727539,"216":-0.07408856600522995,"217":-0.05364636331796646,"218":-0.10359063744544983,"219":0.003774877404794097,"220":-0.2725953757762909,"221":0.24316920340061188,"222":-0.39087459444999695,"223":0.16227595508098602,"224":0.3836425542831421,"225":-0.24916689097881317,"226":-0.39457017183303833,"227":0.40355682373046875,"228":-0.3073064088821411,"229":0.1673634946346283,"230":0.3106858432292938,"231":0.376028835773468,"232":0.3857467472553253,"233":0.1354224681854248,"234":0.28080788254737854,"235":-0.3382393419742584,"236":-0.3527641296386719,"237":0.32325634360313416,"238":0.27504193782806396,"239":0.40640315413475037,"240":-0.01571960188448429,"241":0.38349074125289917,"242":-0.14069867134094238,"243":1.122688889503479,"244":0.06015792861580849,"245":0.2014254778623581,"246":0.6400047540664673,"247":-0.050297293812036514,"248":-0.15153533220291138,"249":-0.09907730668783188,"250":0.044431887567043304,"251":-0.10674220323562622,"252":0.20759090781211853,"253":1.1445101499557495,"254":-0.3676401972770691,"255":0.1791287511587143,"256":0.11408355087041855,"257":0.00903007946908474,"258":2.593571662902832,"259":0.05751408264040947,"260":0.24009428918361664,"261":0.005307710263878107,"262":0.4310769736766815,"263":1.111967921257019,"264":-0.4492602050304413,"265":0.9275302886962891,"266":0.528157114982605,"267":-0.5703404545783997,"268":0.0988476350903511,"269":-0.24025416374206543,"270":-0.5991101861000061,"271":-0.4896314740180969,"272":-0.2524673044681549,"273":1.0297349691390991,"274":-0.5379709601402283,"275":0.5139359831809998,"276":0.421875536441803,"277":-0.4747321903705597,"278":1.5926233530044556,"279":-0.4304687976837158,"280":0.3542989492416382,"281":-0.011063219048082829,"282":0.43907931447029114,"283":1.0633546113967896,"284":-0.4355749487876892,"285":0.47567635774612427,"286":0.4962902367115021,"287":-0.5679129958152771,"288":0.10841567069292068,"289":0.05546369031071663,"290":-0.5663421154022217,"291":-0.635955274105072,"292":-0.18547840416431427,"293":0.9062773585319519,"294":-0.5724529027938843,"295":0.6308771371841431,"296":0.2838280498981476,"297":-0.5832039713859558,"298":1.073120355606079,"299":-0.354667991399765,"300":0.16663531959056854,"301":0.024623773992061615,"302":0.27697744965553284,"303":0.9324733018875122,"304":-0.3202410936355591,"305":0.7567968964576721,"306":0.18353427946567535,"307":-0.23628686368465424,"308":-0.02817331999540329,"309":-0.3074025511741638,"310":-0.21900062263011932,"311":-0.3130021393299103,"312":-0.03671935573220253,"313":0.9407704472541809,"314":-0.34447163343429565,"315":0.3009152114391327,"316":0.18528495728969574,"317":-0.3003392517566681,"318":0.8367400169372559,"319":-0.2022428959608078,"320":-0.27159830927848816,"321":0.40091580152511597,"322":-0.4579632878303528,"323":0.4412367045879364,"324":0.2777923047542572,"325":0.03194661810994148,"326":-0.07919412851333618,"327":0.3476358950138092,"328":-0.26959532499313354,"329":0.020076913759112358,"330":0.3503003716468811,"331":0.33932438492774963,"332":0.3546558618545532,"333":0.427046537399292,"334":0.2927698791027069,"335":-0.2258121222257614,"336":-0.23964940011501312,"337":0.33234065771102905,"338":1.238747000694275,"339":0.40471091866493225,"340":0.3182351887226105,"341":0.08640312403440475,"342":0.295022189617157,"343":1.136663556098938,"344":-0.47636085748672485,"345":0.9082612991333008,"346":0.6450362801551819,"347":-0.4582356810569763,"348":0.11224565654993057,"349":-0.19936701655387878,"350":-0.4504537284374237,"351":-0.5863685607910156,"352":-0.14924409985542297,"353":1.0690054893493652,"354":-0.6245366334915161,"355":0.4931246340274811,"356":0.3776962161064148,"357":-0.4655815362930298,"358":2.003326416015625,"359":-0.26793497800827026,"360":-0.21454188227653503,"361":0.3412427604198456,